digraph Tree {
node [shape=box, style="filled, rounded", color="black", fontname=helvetica] ;
edge [fontname=helvetica] ;
0 [label=<zoneID &le; 124538.5<br/>gini = 0.577<br/>samples = 8548<br/>value = [3108, 103, 4539, 798]<br/>class = Residential>, fillcolor="#399de543"] ;
1 [label=<zoneID &le; 118793.0<br/>gini = 0.056<br/>samples = 2152<br/>value = [2090, 3, 37, 22]<br/>class = Commercial>, fillcolor="#e58139f8"] ;
0 -> 1 [labeldistance=2.5, labelangle=45, headlabel="True"] ;
2 [label=<gini = 0.0<br/>samples = 24<br/>value = [0, 0, 24, 0]<br/>class = Residential>, fillcolor="#399de5ff"] ;
1 -> 2 ;
3 [label=<Paved ParkingCount &le; 11.0<br/>gini = 0.035<br/>samples = 2128<br/>value = [2090, 3, 13, 22]<br/>class = Commercial>, fillcolor="#e58139fa"] ;
1 -> 3 ;
4 [label=<SidewalkCount &le; 37.0<br/>gini = 0.033<br/>samples = 2122<br/>value = [2087, 3, 13, 19]<br/>class = Commercial>, fillcolor="#e58139fb"] ;
3 -> 4 ;
5 [label=<percentCompacted SoilArea &le; 0.454<br/>gini = 0.031<br/>samples = 2117<br/>value = [2084, 3, 11, 19]<br/>class = Commercial>, fillcolor="#e58139fb"] ;
4 -> 5 ;
6 [label=<percentGravel/SandpitArea &le; 0.0<br/>gini = 0.028<br/>samples = 2088<br/>value = [2059, 3, 11, 15]<br/>class = Commercial>, fillcolor="#e58139fb"] ;
5 -> 6 ;
7 [label=<Paved DrivewayCount &le; 12.0<br/>gini = 0.027<br/>samples = 2085<br/>value = [2057, 3, 10, 15]<br/>class = Commercial>, fillcolor="#e58139fc"] ;
6 -> 7 ;
8 [label=<percentTankArea &le; 0.001<br/>gini = 0.026<br/>samples = 2082<br/>value = [2055, 3, 9, 15]<br/>class = Commercial>, fillcolor="#e58139fc"] ;
7 -> 8 ;
9 [label=<percentBridgeArea &le; 0.088<br/>gini = 0.024<br/>samples = 2071<br/>value = [2046, 3, 8, 14]<br/>class = Commercial>, fillcolor="#e58139fc"] ;
8 -> 9 ;
10 [label=<zoneArea &le; 81325.348<br/>gini = 0.023<br/>samples = 2066<br/>value = [2042, 3, 7, 14]<br/>class = Commercial>, fillcolor="#e58139fc"] ;
9 -> 10 ;
11 [label=<StructureCount &le; 11.5<br/>gini = 0.015<br/>samples = 1740<br/>value = [1727, 0, 5, 8]<br/>class = Commercial>, fillcolor="#e58139fd"] ;
10 -> 11 ;
12 [label=<percentOpen StorageArea &le; 0.237<br/>gini = 0.013<br/>samples = 1715<br/>value = [1704, 0, 5, 6]<br/>class = Commercial>, fillcolor="#e58139fd"] ;
11 -> 12 ;
13 [label=<percentPaved DrivewayArea &le; 0.835<br/>gini = 0.012<br/>samples = 1707<br/>value = [1697, 0, 5, 5]<br/>class = Commercial>, fillcolor="#e58139fe"] ;
12 -> 13 ;
14 [label=<percentUnpaved DrivewayArea &le; 0.118<br/>gini = 0.011<br/>samples = 1697<br/>value = [1688, 0, 4, 5]<br/>class = Commercial>, fillcolor="#e58139fe"] ;
13 -> 14 ;
15 [label=<zoneArea &le; 18130.824<br/>gini = 0.01<br/>samples = 1675<br/>value = [1667, 0, 3, 5]<br/>class = Commercial>, fillcolor="#e58139fe"] ;
14 -> 15 ;
16 [label=<gini = 0.0<br/>samples = 867<br/>value = [867, 0, 0, 0]<br/>class = Commercial>, fillcolor="#e58139ff"] ;
15 -> 16 ;
17 [label=<zoneArea &le; 18143.367<br/>gini = 0.02<br/>samples = 808<br/>value = [800, 0, 3, 5]<br/>class = Commercial>, fillcolor="#e58139fc"] ;
15 -> 17 ;
18 [label=<gini = 0.0<br/>samples = 1<br/>value = [0, 0, 0, 1]<br/>class = Special Purpose>, fillcolor="#d739e5ff"] ;
17 -> 18 ;
19 [label=<percentPaved ParkingArea &le; 12.143<br/>gini = 0.017<br/>samples = 807<br/>value = [800, 0, 3, 4]<br/>class = Commercial>, fillcolor="#e58139fd"] ;
17 -> 19 ;
20 [label=<percentPaved DrivewayArea &le; 0.19<br/>gini = 0.015<br/>samples = 799<br/>value = [793, 0, 3, 3]<br/>class = Commercial>, fillcolor="#e58139fd"] ;
19 -> 20 ;
21 [label=<percentStructureArea &le; 0.055<br/>gini = 0.013<br/>samples = 784<br/>value = [779, 0, 2, 3]<br/>class = Commercial>, fillcolor="#e58139fd"] ;
20 -> 21 ;
22 [label=<percentStructureArea &le; 0.053<br/>gini = 0.078<br/>samples = 50<br/>value = [48, 0, 1, 1]<br/>class = Commercial>, fillcolor="#e58139f5"] ;
21 -> 22 ;
23 [label=<percentPaved DrivewayArea &le; 0.024<br/>gini = 0.04<br/>samples = 49<br/>value = [48, 0, 1, 0]<br/>class = Commercial>, fillcolor="#e58139fa"] ;
22 -> 23 ;
24 [label=<gini = 0.0<br/>samples = 46<br/>value = [46, 0, 0, 0]<br/>class = Commercial>, fillcolor="#e58139ff"] ;
23 -> 24 ;
25 [label=<percentPaved ParkingArea &le; 2.654<br/>gini = 0.444<br/>samples = 3<br/>value = [2, 0, 1, 0]<br/>class = Commercial>, fillcolor="#e581397f"] ;
23 -> 25 ;
26 [label=<gini = 0.0<br/>samples = 2<br/>value = [2, 0, 0, 0]<br/>class = Commercial>, fillcolor="#e58139ff"] ;
25 -> 26 ;
27 [label=<gini = 0.0<br/>samples = 1<br/>value = [0, 0, 1, 0]<br/>class = Residential>, fillcolor="#399de5ff"] ;
25 -> 27 ;
28 [label=<gini = 0.0<br/>samples = 1<br/>value = [0, 0, 0, 1]<br/>class = Special Purpose>, fillcolor="#d739e5ff"] ;
22 -> 28 ;
29 [label=<zoneID &le; 118908.5<br/>gini = 0.008<br/>samples = 734<br/>value = [731, 0, 1, 2]<br/>class = Commercial>, fillcolor="#e58139fe"] ;
21 -> 29 ;
30 [label=<zoneID &le; 118907.5<br/>gini = 0.059<br/>samples = 33<br/>value = [32, 0, 1, 0]<br/>class = Commercial>, fillcolor="#e58139f7"] ;
29 -> 30 ;
31 [label=<gini = 0.0<br/>samples = 32<br/>value = [32, 0, 0, 0]<br/>class = Commercial>, fillcolor="#e58139ff"] ;
30 -> 31 ;
32 [label=<gini = 0.0<br/>samples = 1<br/>value = [0, 0, 1, 0]<br/>class = Residential>, fillcolor="#399de5ff"] ;
30 -> 32 ;
33 [label=<percentPaved DrivewayArea &le; 0.086<br/>gini = 0.006<br/>samples = 701<br/>value = [699, 0, 0, 2]<br/>class = Commercial>, fillcolor="#e58139fe"] ;
29 -> 33 ;
34 [label=<percentPaved RoadArea &le; 97.768<br/>gini = 0.003<br/>samples = 645<br/>value = [644, 0, 0, 1]<br/>class = Commercial>, fillcolor="#e58139ff"] ;
33 -> 34 ;
35 [label=<gini = 0.0<br/>samples = 589<br/>value = [589, 0, 0, 0]<br/>class = Commercial>, fillcolor="#e58139ff"] ;
34 -> 35 ;
36 [label=<percentPaved RoadArea &le; 100.304<br/>gini = 0.035<br/>samples = 56<br/>value = [55, 0, 0, 1]<br/>class = Commercial>, fillcolor="#e58139fa"] ;
34 -> 36 ;
37 [label=<gini = 0.0<br/>samples = 1<br/>value = [0, 0, 0, 1]<br/>class = Special Purpose>, fillcolor="#d739e5ff"] ;
36 -> 37 ;
38 [label=<gini = 0.0<br/>samples = 55<br/>value = [55, 0, 0, 0]<br/>class = Commercial>, fillcolor="#e58139ff"] ;
36 -> 38 ;
39 [label=<percentPaved DrivewayArea &le; 0.086<br/>gini = 0.035<br/>samples = 56<br/>value = [55, 0, 0, 1]<br/>class = Commercial>, fillcolor="#e58139fa"] ;
33 -> 39 ;
40 [label=<gini = 0.0<br/>samples = 1<br/>value = [0, 0, 0, 1]<br/>class = Special Purpose>, fillcolor="#d739e5ff"] ;
39 -> 40 ;
41 [label=<gini = 0.0<br/>samples = 55<br/>value = [55, 0, 0, 0]<br/>class = Commercial>, fillcolor="#e58139ff"] ;
39 -> 41 ;
42 [label=<percentPaved ParkingArea &le; 2.021<br/>gini = 0.124<br/>samples = 15<br/>value = [14, 0, 1, 0]<br/>class = Commercial>, fillcolor="#e58139ed"] ;
20 -> 42 ;
43 [label=<gini = 0.0<br/>samples = 14<br/>value = [14, 0, 0, 0]<br/>class = Commercial>, fillcolor="#e58139ff"] ;
42 -> 43 ;
44 [label=<gini = 0.0<br/>samples = 1<br/>value = [0, 0, 1, 0]<br/>class = Residential>, fillcolor="#399de5ff"] ;
42 -> 44 ;
45 [label=<zoneID &le; 123480.5<br/>gini = 0.219<br/>samples = 8<br/>value = [7, 0, 0, 1]<br/>class = Commercial>, fillcolor="#e58139db"] ;
19 -> 45 ;
46 [label=<gini = 0.0<br/>samples = 7<br/>value = [7, 0, 0, 0]<br/>class = Commercial>, fillcolor="#e58139ff"] ;
45 -> 46 ;
47 [label=<gini = 0.0<br/>samples = 1<br/>value = [0, 0, 0, 1]<br/>class = Special Purpose>, fillcolor="#d739e5ff"] ;
45 -> 47 ;
48 [label=<percentUnpaved DrivewayArea &le; 0.122<br/>gini = 0.087<br/>samples = 22<br/>value = [21, 0, 1, 0]<br/>class = Commercial>, fillcolor="#e58139f3"] ;
14 -> 48 ;
49 [label=<gini = 0.0<br/>samples = 1<br/>value = [0, 0, 1, 0]<br/>class = Residential>, fillcolor="#399de5ff"] ;
48 -> 49 ;
50 [label=<gini = 0.0<br/>samples = 21<br/>value = [21, 0, 0, 0]<br/>class = Commercial>, fillcolor="#e58139ff"] ;
48 -> 50 ;
51 [label=<percentPatioArea &le; 0.061<br/>gini = 0.18<br/>samples = 10<br/>value = [9, 0, 1, 0]<br/>class = Commercial>, fillcolor="#e58139e3"] ;
13 -> 51 ;
52 [label=<gini = 0.0<br/>samples = 9<br/>value = [9, 0, 0, 0]<br/>class = Commercial>, fillcolor="#e58139ff"] ;
51 -> 52 ;
53 [label=<gini = 0.0<br/>samples = 1<br/>value = [0, 0, 1, 0]<br/>class = Residential>, fillcolor="#399de5ff"] ;
51 -> 53 ;
54 [label=<percentPavementArea &le; 0.005<br/>gini = 0.219<br/>samples = 8<br/>value = [7, 0, 0, 1]<br/>class = Commercial>, fillcolor="#e58139db"] ;
12 -> 54 ;
55 [label=<gini = 0.0<br/>samples = 7<br/>value = [7, 0, 0, 0]<br/>class = Commercial>, fillcolor="#e58139ff"] ;
54 -> 55 ;
56 [label=<gini = 0.0<br/>samples = 1<br/>value = [0, 0, 0, 1]<br/>class = Special Purpose>, fillcolor="#d739e5ff"] ;
54 -> 56 ;
57 [label=<zoneArea &le; 22697.591<br/>gini = 0.147<br/>samples = 25<br/>value = [23, 0, 0, 2]<br/>class = Commercial>, fillcolor="#e58139e9"] ;
11 -> 57 ;
58 [label=<gini = 0.0<br/>samples = 1<br/>value = [0, 0, 0, 1]<br/>class = Special Purpose>, fillcolor="#d739e5ff"] ;
57 -> 58 ;
59 [label=<StructureCount &le; 12.5<br/>gini = 0.08<br/>samples = 24<br/>value = [23, 0, 0, 1]<br/>class = Commercial>, fillcolor="#e58139f4"] ;
57 -> 59 ;
60 [label=<PatioCount &le; 1.0<br/>gini = 0.5<br/>samples = 2<br/>value = [1, 0, 0, 1]<br/>class = Commercial>, fillcolor="#e5813900"] ;
59 -> 60 ;
61 [label=<gini = 0.0<br/>samples = 1<br/>value = [1, 0, 0, 0]<br/>class = Commercial>, fillcolor="#e58139ff"] ;
60 -> 61 ;
62 [label=<gini = 0.0<br/>samples = 1<br/>value = [0, 0, 0, 1]<br/>class = Special Purpose>, fillcolor="#d739e5ff"] ;
60 -> 62 ;
63 [label=<gini = 0.0<br/>samples = 22<br/>value = [22, 0, 0, 0]<br/>class = Commercial>, fillcolor="#e58139ff"] ;
59 -> 63 ;
64 [label=<percentStructureArea &le; 0.006<br/>gini = 0.066<br/>samples = 326<br/>value = [315, 3, 2, 6]<br/>class = Commercial>, fillcolor="#e58139f6"] ;
10 -> 64 ;
65 [label=<percentSidewalkArea &le; 0.026<br/>gini = 0.568<br/>samples = 9<br/>value = [5, 1, 0, 3]<br/>class = Commercial>, fillcolor="#e5813955"] ;
64 -> 65 ;
66 [label=<zoneArea &le; 450509.047<br/>gini = 0.32<br/>samples = 5<br/>value = [4, 1, 0, 0]<br/>class = Commercial>, fillcolor="#e58139bf"] ;
65 -> 66 ;
67 [label=<gini = 0.0<br/>samples = 4<br/>value = [4, 0, 0, 0]<br/>class = Commercial>, fillcolor="#e58139ff"] ;
66 -> 67 ;
68 [label=<gini = 0.0<br/>samples = 1<br/>value = [0, 1, 0, 0]<br/>class = Industrial>, fillcolor="#47e539ff"] ;
66 -> 68 ;
69 [label=<zoneID &le; 120986.0<br/>gini = 0.375<br/>samples = 4<br/>value = [1, 0, 0, 3]<br/>class = Special Purpose>, fillcolor="#d739e5aa"] ;
65 -> 69 ;
70 [label=<gini = 0.0<br/>samples = 1<br/>value = [1, 0, 0, 0]<br/>class = Commercial>, fillcolor="#e58139ff"] ;
69 -> 70 ;
71 [label=<gini = 0.0<br/>samples = 3<br/>value = [0, 0, 0, 3]<br/>class = Special Purpose>, fillcolor="#d739e5ff"] ;
69 -> 71 ;
72 [label=<percentStructureArea &le; 1.622<br/>gini = 0.044<br/>samples = 317<br/>value = [310, 2, 2, 3]<br/>class = Commercial>, fillcolor="#e58139f9"] ;
64 -> 72 ;
73 [label=<zoneArea &le; 81468.922<br/>gini = 0.037<br/>samples = 316<br/>value = [310, 1, 2, 3]<br/>class = Commercial>, fillcolor="#e58139fa"] ;
72 -> 73 ;
74 [label=<gini = 0.0<br/>samples = 1<br/>value = [0, 0, 0, 1]<br/>class = Special Purpose>, fillcolor="#d739e5ff"] ;
73 -> 74 ;
75 [label=<percentMiscellaneousArea &le; 0.004<br/>gini = 0.031<br/>samples = 315<br/>value = [310, 1, 2, 2]<br/>class = Commercial>, fillcolor="#e58139fb"] ;
73 -> 75 ;
76 [label=<zoneID &le; 123021.0<br/>gini = 0.026<br/>samples = 309<br/>value = [305, 1, 1, 2]<br/>class = Commercial>, fillcolor="#e58139fc"] ;
75 -> 76 ;
77 [label=<percentPaved ParkingArea &le; 1.501<br/>gini = 0.015<br/>samples = 266<br/>value = [264, 1, 1, 0]<br/>class = Commercial>, fillcolor="#e58139fd"] ;
76 -> 77 ;
78 [label=<percentSidewalkArea &le; 0.112<br/>gini = 0.008<br/>samples = 251<br/>value = [250, 0, 1, 0]<br/>class = Commercial>, fillcolor="#e58139fe"] ;
77 -> 78 ;
79 [label=<gini = 0.0<br/>samples = 233<br/>value = [233, 0, 0, 0]<br/>class = Commercial>, fillcolor="#e58139ff"] ;
78 -> 79 ;
80 [label=<StructureCount &le; 9.5<br/>gini = 0.105<br/>samples = 18<br/>value = [17, 0, 1, 0]<br/>class = Commercial>, fillcolor="#e58139f0"] ;
78 -> 80 ;
81 [label=<gini = 0.0<br/>samples = 17<br/>value = [17, 0, 0, 0]<br/>class = Commercial>, fillcolor="#e58139ff"] ;
80 -> 81 ;
82 [label=<gini = 0.0<br/>samples = 1<br/>value = [0, 0, 1, 0]<br/>class = Residential>, fillcolor="#399de5ff"] ;
80 -> 82 ;
83 [label=<percentPaved ParkingArea &le; 1.554<br/>gini = 0.124<br/>samples = 15<br/>value = [14, 1, 0, 0]<br/>class = Commercial>, fillcolor="#e58139ed"] ;
77 -> 83 ;
84 [label=<gini = 0.0<br/>samples = 1<br/>value = [0, 1, 0, 0]<br/>class = Industrial>, fillcolor="#47e539ff"] ;
83 -> 84 ;
85 [label=<gini = 0.0<br/>samples = 14<br/>value = [14, 0, 0, 0]<br/>class = Commercial>, fillcolor="#e58139ff"] ;
83 -> 85 ;
86 [label=<zoneID &le; 123025.5<br/>gini = 0.089<br/>samples = 43<br/>value = [41, 0, 0, 2]<br/>class = Commercial>, fillcolor="#e58139f3"] ;
76 -> 86 ;
87 [label=<gini = 0.0<br/>samples = 2<br/>value = [0, 0, 0, 2]<br/>class = Special Purpose>, fillcolor="#d739e5ff"] ;
86 -> 87 ;
88 [label=<gini = 0.0<br/>samples = 41<br/>value = [41, 0, 0, 0]<br/>class = Commercial>, fillcolor="#e58139ff"] ;
86 -> 88 ;
89 [label=<percentSidewalkArea &le; 0.034<br/>gini = 0.278<br/>samples = 6<br/>value = [5, 0, 1, 0]<br/>class = Commercial>, fillcolor="#e58139cc"] ;
75 -> 89 ;
90 [label=<gini = 0.0<br/>samples = 1<br/>value = [0, 0, 1, 0]<br/>class = Residential>, fillcolor="#399de5ff"] ;
89 -> 90 ;
91 [label=<gini = 0.0<br/>samples = 5<br/>value = [5, 0, 0, 0]<br/>class = Commercial>, fillcolor="#e58139ff"] ;
89 -> 91 ;
92 [label=<gini = 0.0<br/>samples = 1<br/>value = [0, 1, 0, 0]<br/>class = Industrial>, fillcolor="#47e539ff"] ;
72 -> 92 ;
93 [label=<percentBridgeArea &le; 0.131<br/>gini = 0.32<br/>samples = 5<br/>value = [4, 0, 1, 0]<br/>class = Commercial>, fillcolor="#e58139bf"] ;
9 -> 93 ;
94 [label=<gini = 0.0<br/>samples = 1<br/>value = [0, 0, 1, 0]<br/>class = Residential>, fillcolor="#399de5ff"] ;
93 -> 94 ;
95 [label=<gini = 0.0<br/>samples = 4<br/>value = [4, 0, 0, 0]<br/>class = Commercial>, fillcolor="#e58139ff"] ;
93 -> 95 ;
96 [label=<percentPaved DrivewayArea &le; 0.022<br/>gini = 0.314<br/>samples = 11<br/>value = [9, 0, 1, 1]<br/>class = Commercial>, fillcolor="#e58139cc"] ;
8 -> 96 ;
97 [label=<gini = 0.0<br/>samples = 9<br/>value = [9, 0, 0, 0]<br/>class = Commercial>, fillcolor="#e58139ff"] ;
96 -> 97 ;
98 [label=<percentTankArea &le; 0.002<br/>gini = 0.5<br/>samples = 2<br/>value = [0, 0, 1, 1]<br/>class = Residential>, fillcolor="#399de500"] ;
96 -> 98 ;
99 [label=<gini = 0.0<br/>samples = 1<br/>value = [0, 0, 0, 1]<br/>class = Special Purpose>, fillcolor="#d739e5ff"] ;
98 -> 99 ;
100 [label=<gini = 0.0<br/>samples = 1<br/>value = [0, 0, 1, 0]<br/>class = Residential>, fillcolor="#399de5ff"] ;
98 -> 100 ;
101 [label=<PatioCount &le; 7.5<br/>gini = 0.444<br/>samples = 3<br/>value = [2, 0, 1, 0]<br/>class = Commercial>, fillcolor="#e581397f"] ;
7 -> 101 ;
102 [label=<gini = 0.0<br/>samples = 1<br/>value = [0, 0, 1, 0]<br/>class = Residential>, fillcolor="#399de5ff"] ;
101 -> 102 ;
103 [label=<gini = 0.0<br/>samples = 2<br/>value = [2, 0, 0, 0]<br/>class = Commercial>, fillcolor="#e58139ff"] ;
101 -> 103 ;
104 [label=<Unpaved ParkingCount &le; 0.5<br/>gini = 0.444<br/>samples = 3<br/>value = [2, 0, 1, 0]<br/>class = Commercial>, fillcolor="#e581397f"] ;
6 -> 104 ;
105 [label=<gini = 0.0<br/>samples = 1<br/>value = [0, 0, 1, 0]<br/>class = Residential>, fillcolor="#399de5ff"] ;
104 -> 105 ;
106 [label=<gini = 0.0<br/>samples = 2<br/>value = [2, 0, 0, 0]<br/>class = Commercial>, fillcolor="#e58139ff"] ;
104 -> 106 ;
107 [label=<zoneID &le; 122887.5<br/>gini = 0.238<br/>samples = 29<br/>value = [25, 0, 0, 4]<br/>class = Commercial>, fillcolor="#e58139d6"] ;
5 -> 107 ;
108 [label=<gini = 0.0<br/>samples = 25<br/>value = [25, 0, 0, 0]<br/>class = Commercial>, fillcolor="#e58139ff"] ;
107 -> 108 ;
109 [label=<gini = 0.0<br/>samples = 4<br/>value = [0, 0, 0, 4]<br/>class = Special Purpose>, fillcolor="#d739e5ff"] ;
107 -> 109 ;
110 [label=<PavementCount &le; 10.0<br/>gini = 0.48<br/>samples = 5<br/>value = [3, 0, 2, 0]<br/>class = Commercial>, fillcolor="#e5813955"] ;
4 -> 110 ;
111 [label=<gini = 0.0<br/>samples = 2<br/>value = [0, 0, 2, 0]<br/>class = Residential>, fillcolor="#399de5ff"] ;
110 -> 111 ;
112 [label=<gini = 0.0<br/>samples = 3<br/>value = [3, 0, 0, 0]<br/>class = Commercial>, fillcolor="#e58139ff"] ;
110 -> 112 ;
113 [label=<percentPavementArea &le; 0.002<br/>gini = 0.5<br/>samples = 6<br/>value = [3, 0, 0, 3]<br/>class = Commercial>, fillcolor="#e5813900"] ;
3 -> 113 ;
114 [label=<gini = 0.0<br/>samples = 3<br/>value = [3, 0, 0, 0]<br/>class = Commercial>, fillcolor="#e58139ff"] ;
113 -> 114 ;
115 [label=<gini = 0.0<br/>samples = 3<br/>value = [0, 0, 0, 3]<br/>class = Special Purpose>, fillcolor="#d739e5ff"] ;
113 -> 115 ;
116 [label=<zoneID &le; 137623.5<br/>gini = 0.464<br/>samples = 6396<br/>value = [1018, 100, 4502, 776]<br/>class = Residential>, fillcolor="#399de5a5"] ;
0 -> 116 [labeldistance=2.5, labelangle=-45, headlabel="False"] ;
117 [label=<zoneID &le; 128264.0<br/>gini = 0.275<br/>samples = 4626<br/>value = [281, 81, 3912, 352]<br/>class = Residential>, fillcolor="#399de5d4"] ;
116 -> 117 ;
118 [label=<zoneID &le; 127100.0<br/>gini = 0.647<br/>samples = 1054<br/>value = [160, 79, 527, 288]<br/>class = Residential>, fillcolor="#399de550"] ;
117 -> 118 ;
119 [label=<zoneID &le; 125996.5<br/>gini = 0.601<br/>samples = 899<br/>value = [157, 79, 521, 142]<br/>class = Residential>, fillcolor="#399de57d"] ;
118 -> 119 ;
120 [label=<zoneID &le; 124840.5<br/>gini = 0.732<br/>samples = 451<br/>value = [104, 78, 162, 107]<br/>class = Residential>, fillcolor="#399de529"] ;
119 -> 120 ;
121 [label=<percentUnpaved DrivewayArea &le; 0.099<br/>gini = 0.016<br/>samples = 122<br/>value = [1, 0, 121, 0]<br/>class = Residential>, fillcolor="#399de5fd"] ;
120 -> 121 ;
122 [label=<gini = 0.0<br/>samples = 120<br/>value = [0, 0, 120, 0]<br/>class = Residential>, fillcolor="#399de5ff"] ;
121 -> 122 ;
123 [label=<Compacted SoilCount &le; 1.5<br/>gini = 0.5<br/>samples = 2<br/>value = [1, 0, 1, 0]<br/>class = Commercial>, fillcolor="#e5813900"] ;
121 -> 123 ;
124 [label=<gini = 0.0<br/>samples = 1<br/>value = [1, 0, 0, 0]<br/>class = Commercial>, fillcolor="#e58139ff"] ;
123 -> 124 ;
125 [label=<gini = 0.0<br/>samples = 1<br/>value = [0, 0, 1, 0]<br/>class = Residential>, fillcolor="#399de5ff"] ;
123 -> 125 ;
126 [label=<zoneID &le; 125610.0<br/>gini = 0.724<br/>samples = 329<br/>value = [103, 78, 41, 107]<br/>class = Special Purpose>, fillcolor="#d739e505"] ;
120 -> 126 ;
127 [label=<zoneID &le; 125005.5<br/>gini = 0.521<br/>samples = 181<br/>value = [98, 78, 1, 4]<br/>class = Commercial>, fillcolor="#e5813932"] ;
126 -> 127 ;
128 [label=<gini = 0.0<br/>samples = 79<br/>value = [79, 0, 0, 0]<br/>class = Commercial>, fillcolor="#e58139ff"] ;
127 -> 128 ;
129 [label=<zoneID &le; 125512.0<br/>gini = 0.379<br/>samples = 102<br/>value = [19, 78, 1, 4]<br/>class = Industrial>, fillcolor="#47e539b5"] ;
127 -> 129 ;
130 [label=<percentCourtyardArea &le; 0.004<br/>gini = 0.256<br/>samples = 91<br/>value = [8, 78, 1, 4]<br/>class = Industrial>, fillcolor="#47e539d7"] ;
129 -> 130 ;
131 [label=<PatioCount &le; 12.5<br/>gini = 0.225<br/>samples = 89<br/>value = [6, 78, 1, 4]<br/>class = Industrial>, fillcolor="#47e539dd"] ;
130 -> 131 ;
132 [label=<Median > 10 FeetCount &le; 1.0<br/>gini = 0.176<br/>samples = 84<br/>value = [6, 76, 0, 2]<br/>class = Industrial>, fillcolor="#47e539e5"] ;
131 -> 132 ;
133 [label=<percentIn Ground PoolArea &le; 0.002<br/>gini = 0.156<br/>samples = 83<br/>value = [6, 76, 0, 1]<br/>class = Industrial>, fillcolor="#47e539e8"] ;
132 -> 133 ;
134 [label=<percentPaved RoadArea &le; 46.413<br/>gini = 0.136<br/>samples = 82<br/>value = [6, 76, 0, 0]<br/>class = Industrial>, fillcolor="#47e539eb"] ;
133 -> 134 ;
135 [label=<percentPavementArea &le; 0.011<br/>gini = 0.116<br/>samples = 81<br/>value = [5, 76, 0, 0]<br/>class = Industrial>, fillcolor="#47e539ee"] ;
134 -> 135 ;
136 [label=<gini = 0.0<br/>samples = 57<br/>value = [0, 57, 0, 0]<br/>class = Industrial>, fillcolor="#47e539ff"] ;
135 -> 136 ;
137 [label=<percentPavementArea &le; 0.013<br/>gini = 0.33<br/>samples = 24<br/>value = [5, 19, 0, 0]<br/>class = Industrial>, fillcolor="#47e539bc"] ;
135 -> 137 ;
138 [label=<gini = 0.0<br/>samples = 2<br/>value = [2, 0, 0, 0]<br/>class = Commercial>, fillcolor="#e58139ff"] ;
137 -> 138 ;
139 [label=<percentSidewalkArea &le; 0.008<br/>gini = 0.236<br/>samples = 22<br/>value = [3, 19, 0, 0]<br/>class = Industrial>, fillcolor="#47e539d7"] ;
137 -> 139 ;
140 [label=<percentSidewalkArea &le; 0.006<br/>gini = 0.42<br/>samples = 10<br/>value = [3, 7, 0, 0]<br/>class = Industrial>, fillcolor="#47e53992"] ;
139 -> 140 ;
141 [label=<percentPaved ParkingArea &le; 0.807<br/>gini = 0.219<br/>samples = 8<br/>value = [1, 7, 0, 0]<br/>class = Industrial>, fillcolor="#47e539db"] ;
140 -> 141 ;
142 [label=<zoneID &le; 125274.0<br/>gini = 0.444<br/>samples = 3<br/>value = [1, 2, 0, 0]<br/>class = Industrial>, fillcolor="#47e5397f"] ;
141 -> 142 ;
143 [label=<gini = 0.0<br/>samples = 2<br/>value = [0, 2, 0, 0]<br/>class = Industrial>, fillcolor="#47e539ff"] ;
142 -> 143 ;
144 [label=<gini = 0.0<br/>samples = 1<br/>value = [1, 0, 0, 0]<br/>class = Commercial>, fillcolor="#e58139ff"] ;
142 -> 144 ;
145 [label=<gini = 0.0<br/>samples = 5<br/>value = [0, 5, 0, 0]<br/>class = Industrial>, fillcolor="#47e539ff"] ;
141 -> 145 ;
146 [label=<gini = 0.0<br/>samples = 2<br/>value = [2, 0, 0, 0]<br/>class = Commercial>, fillcolor="#e58139ff"] ;
140 -> 146 ;
147 [label=<gini = 0.0<br/>samples = 12<br/>value = [0, 12, 0, 0]<br/>class = Industrial>, fillcolor="#47e539ff"] ;
139 -> 147 ;
148 [label=<gini = 0.0<br/>samples = 1<br/>value = [1, 0, 0, 0]<br/>class = Commercial>, fillcolor="#e58139ff"] ;
134 -> 148 ;
149 [label=<gini = 0.0<br/>samples = 1<br/>value = [0, 0, 0, 1]<br/>class = Special Purpose>, fillcolor="#d739e5ff"] ;
133 -> 149 ;
150 [label=<gini = 0.0<br/>samples = 1<br/>value = [0, 0, 0, 1]<br/>class = Special Purpose>, fillcolor="#d739e5ff"] ;
132 -> 150 ;
151 [label=<percentUncovered DeckArea &le; 0.0<br/>gini = 0.64<br/>samples = 5<br/>value = [0, 2, 1, 2]<br/>class = Industrial>, fillcolor="#47e53900"] ;
131 -> 151 ;
152 [label=<gini = 0.0<br/>samples = 2<br/>value = [0, 0, 0, 2]<br/>class = Special Purpose>, fillcolor="#d739e5ff"] ;
151 -> 152 ;
153 [label=<percentUncovered DeckArea &le; 0.003<br/>gini = 0.444<br/>samples = 3<br/>value = [0, 2, 1, 0]<br/>class = Industrial>, fillcolor="#47e5397f"] ;
151 -> 153 ;
154 [label=<gini = 0.0<br/>samples = 2<br/>value = [0, 2, 0, 0]<br/>class = Industrial>, fillcolor="#47e539ff"] ;
153 -> 154 ;
155 [label=<gini = 0.0<br/>samples = 1<br/>value = [0, 0, 1, 0]<br/>class = Residential>, fillcolor="#399de5ff"] ;
153 -> 155 ;
156 [label=<gini = 0.0<br/>samples = 2<br/>value = [2, 0, 0, 0]<br/>class = Commercial>, fillcolor="#e58139ff"] ;
130 -> 156 ;
157 [label=<gini = 0.0<br/>samples = 11<br/>value = [11, 0, 0, 0]<br/>class = Commercial>, fillcolor="#e58139ff"] ;
129 -> 157 ;
158 [label=<zoneID &le; 125746.5<br/>gini = 0.441<br/>samples = 148<br/>value = [5, 0, 40, 103]<br/>class = Special Purpose>, fillcolor="#d739e595"] ;
126 -> 158 ;
159 [label=<gini = 0.0<br/>samples = 53<br/>value = [0, 0, 0, 53]<br/>class = Special Purpose>, fillcolor="#d739e5ff"] ;
158 -> 159 ;
160 [label=<zoneID &le; 125894.0<br/>gini = 0.543<br/>samples = 95<br/>value = [5, 0, 40, 50]<br/>class = Special Purpose>, fillcolor="#d739e52e"] ;
158 -> 160 ;
161 [label=<gini = 0.0<br/>samples = 39<br/>value = [0, 0, 39, 0]<br/>class = Residential>, fillcolor="#399de5ff"] ;
160 -> 161 ;
162 [label=<zoneID &le; 125973.5<br/>gini = 0.195<br/>samples = 56<br/>value = [5, 0, 1, 50]<br/>class = Special Purpose>, fillcolor="#d739e5e1"] ;
160 -> 162 ;
163 [label=<percentUnpaved Athletic FieldArea &le; 0.194<br/>gini = 0.139<br/>samples = 54<br/>value = [3, 0, 1, 50]<br/>class = Special Purpose>, fillcolor="#d739e5eb"] ;
162 -> 163 ;
164 [label=<percentMiscellaneousArea &le; 0.004<br/>gini = 0.107<br/>samples = 53<br/>value = [3, 0, 0, 50]<br/>class = Special Purpose>, fillcolor="#d739e5f0"] ;
163 -> 164 ;
165 [label=<percentPavementArea &le; 0.034<br/>gini = 0.075<br/>samples = 51<br/>value = [2, 0, 0, 49]<br/>class = Special Purpose>, fillcolor="#d739e5f5"] ;
164 -> 165 ;
166 [label=<gini = 0.0<br/>samples = 42<br/>value = [0, 0, 0, 42]<br/>class = Special Purpose>, fillcolor="#d739e5ff"] ;
165 -> 166 ;
167 [label=<StructureCount &le; 2.0<br/>gini = 0.346<br/>samples = 9<br/>value = [2, 0, 0, 7]<br/>class = Special Purpose>, fillcolor="#d739e5b6"] ;
165 -> 167 ;
168 [label=<zoneArea &le; 56841.676<br/>gini = 0.444<br/>samples = 3<br/>value = [2, 0, 0, 1]<br/>class = Commercial>, fillcolor="#e581397f"] ;
167 -> 168 ;
169 [label=<gini = 0.0<br/>samples = 1<br/>value = [0, 0, 0, 1]<br/>class = Special Purpose>, fillcolor="#d739e5ff"] ;
168 -> 169 ;
170 [label=<gini = 0.0<br/>samples = 2<br/>value = [2, 0, 0, 0]<br/>class = Commercial>, fillcolor="#e58139ff"] ;
168 -> 170 ;
171 [label=<gini = 0.0<br/>samples = 6<br/>value = [0, 0, 0, 6]<br/>class = Special Purpose>, fillcolor="#d739e5ff"] ;
167 -> 171 ;
172 [label=<PavementCount &le; 11.5<br/>gini = 0.5<br/>samples = 2<br/>value = [1, 0, 0, 1]<br/>class = Commercial>, fillcolor="#e5813900"] ;
164 -> 172 ;
173 [label=<gini = 0.0<br/>samples = 1<br/>value = [1, 0, 0, 0]<br/>class = Commercial>, fillcolor="#e58139ff"] ;
172 -> 173 ;
174 [label=<gini = 0.0<br/>samples = 1<br/>value = [0, 0, 0, 1]<br/>class = Special Purpose>, fillcolor="#d739e5ff"] ;
172 -> 174 ;
175 [label=<gini = 0.0<br/>samples = 1<br/>value = [0, 0, 1, 0]<br/>class = Residential>, fillcolor="#399de5ff"] ;
163 -> 175 ;
176 [label=<gini = 0.0<br/>samples = 2<br/>value = [2, 0, 0, 0]<br/>class = Commercial>, fillcolor="#e58139ff"] ;
162 -> 176 ;
177 [label=<zoneID &le; 126961.5<br/>gini = 0.338<br/>samples = 448<br/>value = [53, 1, 359, 35]<br/>class = Residential>, fillcolor="#399de5c6"] ;
119 -> 177 ;
178 [label=<percentStructureArea &le; 0.201<br/>gini = 0.203<br/>samples = 404<br/>value = [10, 1, 359, 34]<br/>class = Residential>, fillcolor="#399de5e0"] ;
177 -> 178 ;
179 [label=<zoneID &le; 126438.0<br/>gini = 0.543<br/>samples = 66<br/>value = [4, 1, 38, 23]<br/>class = Residential>, fillcolor="#399de559"] ;
178 -> 179 ;
180 [label=<percentPaved RoadArea &le; 3.653<br/>gini = 0.14<br/>samples = 27<br/>value = [1, 0, 25, 1]<br/>class = Residential>, fillcolor="#399de5eb"] ;
179 -> 180 ;
181 [label=<StructureCount &le; 10.0<br/>gini = 0.077<br/>samples = 25<br/>value = [1, 0, 24, 0]<br/>class = Residential>, fillcolor="#399de5f4"] ;
180 -> 181 ;
182 [label=<gini = 0.0<br/>samples = 22<br/>value = [0, 0, 22, 0]<br/>class = Residential>, fillcolor="#399de5ff"] ;
181 -> 182 ;
183 [label=<SidewalkCount &le; 12.5<br/>gini = 0.444<br/>samples = 3<br/>value = [1, 0, 2, 0]<br/>class = Residential>, fillcolor="#399de57f"] ;
181 -> 183 ;
184 [label=<gini = 0.0<br/>samples = 1<br/>value = [1, 0, 0, 0]<br/>class = Commercial>, fillcolor="#e58139ff"] ;
183 -> 184 ;
185 [label=<gini = 0.0<br/>samples = 2<br/>value = [0, 0, 2, 0]<br/>class = Residential>, fillcolor="#399de5ff"] ;
183 -> 185 ;
186 [label=<percentPaved DrivewayArea &le; 0.001<br/>gini = 0.5<br/>samples = 2<br/>value = [0, 0, 1, 1]<br/>class = Residential>, fillcolor="#399de500"] ;
180 -> 186 ;
187 [label=<gini = 0.0<br/>samples = 1<br/>value = [0, 0, 0, 1]<br/>class = Special Purpose>, fillcolor="#d739e5ff"] ;
186 -> 187 ;
188 [label=<gini = 0.0<br/>samples = 1<br/>value = [0, 0, 1, 0]<br/>class = Residential>, fillcolor="#399de5ff"] ;
186 -> 188 ;
189 [label=<zoneID &le; 126612.5<br/>gini = 0.564<br/>samples = 39<br/>value = [3, 1, 13, 22]<br/>class = Special Purpose>, fillcolor="#d739e558"] ;
179 -> 189 ;
190 [label=<gini = 0.0<br/>samples = 22<br/>value = [0, 0, 0, 22]<br/>class = Special Purpose>, fillcolor="#d739e5ff"] ;
189 -> 190 ;
191 [label=<percentPaved ParkingArea &le; 2.382<br/>gini = 0.381<br/>samples = 17<br/>value = [3, 1, 13, 0]<br/>class = Residential>, fillcolor="#399de5b6"] ;
189 -> 191 ;
192 [label=<percentUnpaved DrivewayArea &le; 0.051<br/>gini = 0.24<br/>samples = 15<br/>value = [1, 1, 13, 0]<br/>class = Residential>, fillcolor="#399de5db"] ;
191 -> 192 ;
193 [label=<percentSidewalkArea &le; 0.219<br/>gini = 0.133<br/>samples = 14<br/>value = [1, 0, 13, 0]<br/>class = Residential>, fillcolor="#399de5eb"] ;
192 -> 193 ;
194 [label=<gini = 0.0<br/>samples = 12<br/>value = [0, 0, 12, 0]<br/>class = Residential>, fillcolor="#399de5ff"] ;
193 -> 194 ;
195 [label=<percentSidewalkArea &le; 0.423<br/>gini = 0.5<br/>samples = 2<br/>value = [1, 0, 1, 0]<br/>class = Commercial>, fillcolor="#e5813900"] ;
193 -> 195 ;
196 [label=<gini = 0.0<br/>samples = 1<br/>value = [1, 0, 0, 0]<br/>class = Commercial>, fillcolor="#e58139ff"] ;
195 -> 196 ;
197 [label=<gini = 0.0<br/>samples = 1<br/>value = [0, 0, 1, 0]<br/>class = Residential>, fillcolor="#399de5ff"] ;
195 -> 197 ;
198 [label=<gini = 0.0<br/>samples = 1<br/>value = [0, 1, 0, 0]<br/>class = Industrial>, fillcolor="#47e539ff"] ;
192 -> 198 ;
199 [label=<gini = 0.0<br/>samples = 2<br/>value = [2, 0, 0, 0]<br/>class = Commercial>, fillcolor="#e58139ff"] ;
191 -> 199 ;
200 [label=<percentUnpaved Athletic FieldArea &le; 0.011<br/>gini = 0.097<br/>samples = 338<br/>value = [6, 0, 321, 11]<br/>class = Residential>, fillcolor="#399de5f2"] ;
178 -> 200 ;
201 [label=<In Ground PoolCount &le; 4.5<br/>gini = 0.081<br/>samples = 335<br/>value = [6, 0, 321, 8]<br/>class = Residential>, fillcolor="#399de5f4"] ;
200 -> 201 ;
202 [label=<percentPaved ParkingArea &le; 11.322<br/>gini = 0.076<br/>samples = 334<br/>value = [6, 0, 321, 7]<br/>class = Residential>, fillcolor="#399de5f5"] ;
201 -> 202 ;
203 [label=<percentPaved ParkingArea &le; 1.239<br/>gini = 0.07<br/>samples = 333<br/>value = [6, 0, 321, 6]<br/>class = Residential>, fillcolor="#399de5f6"] ;
202 -> 203 ;
204 [label=<percentPaved AlleyArea &le; 0.529<br/>gini = 0.045<br/>samples = 305<br/>value = [2, 0, 298, 5]<br/>class = Residential>, fillcolor="#399de5f9"] ;
203 -> 204 ;
205 [label=<percentUncovered DeckArea &le; 0.049<br/>gini = 0.039<br/>samples = 303<br/>value = [2, 0, 297, 4]<br/>class = Residential>, fillcolor="#399de5fa"] ;
204 -> 205 ;
206 [label=<percentTankArea &le; 0.0<br/>gini = 0.033<br/>samples = 301<br/>value = [2, 0, 296, 3]<br/>class = Residential>, fillcolor="#399de5fb"] ;
205 -> 206 ;
207 [label=<PavementCount &le; 4.5<br/>gini = 0.027<br/>samples = 297<br/>value = [2, 0, 293, 2]<br/>class = Residential>, fillcolor="#399de5fc"] ;
206 -> 207 ;
208 [label=<percentSidewalkArea &le; 0.242<br/>gini = 0.014<br/>samples = 282<br/>value = [1, 0, 280, 1]<br/>class = Residential>, fillcolor="#399de5fd"] ;
207 -> 208 ;
209 [label=<percentSidewalkArea &le; 0.133<br/>gini = 0.007<br/>samples = 268<br/>value = [0, 0, 267, 1]<br/>class = Residential>, fillcolor="#399de5fe"] ;
208 -> 209 ;
210 [label=<gini = 0.0<br/>samples = 241<br/>value = [0, 0, 241, 0]<br/>class = Residential>, fillcolor="#399de5ff"] ;
209 -> 210 ;
211 [label=<percentSidewalkArea &le; 0.136<br/>gini = 0.071<br/>samples = 27<br/>value = [0, 0, 26, 1]<br/>class = Residential>, fillcolor="#399de5f5"] ;
209 -> 211 ;
212 [label=<gini = 0.0<br/>samples = 1<br/>value = [0, 0, 0, 1]<br/>class = Special Purpose>, fillcolor="#d739e5ff"] ;
211 -> 212 ;
213 [label=<gini = 0.0<br/>samples = 26<br/>value = [0, 0, 26, 0]<br/>class = Residential>, fillcolor="#399de5ff"] ;
211 -> 213 ;
214 [label=<percentSidewalkArea &le; 0.25<br/>gini = 0.133<br/>samples = 14<br/>value = [1, 0, 13, 0]<br/>class = Residential>, fillcolor="#399de5eb"] ;
208 -> 214 ;
215 [label=<gini = 0.0<br/>samples = 1<br/>value = [1, 0, 0, 0]<br/>class = Commercial>, fillcolor="#e58139ff"] ;
214 -> 215 ;
216 [label=<gini = 0.0<br/>samples = 13<br/>value = [0, 0, 13, 0]<br/>class = Residential>, fillcolor="#399de5ff"] ;
214 -> 216 ;
217 [label=<percentPaved RoadArea &le; 29.118<br/>gini = 0.24<br/>samples = 15<br/>value = [1, 0, 13, 1]<br/>class = Residential>, fillcolor="#399de5db"] ;
207 -> 217 ;
218 [label=<percentPaved ParkingArea &le; 0.621<br/>gini = 0.133<br/>samples = 14<br/>value = [1, 0, 13, 0]<br/>class = Residential>, fillcolor="#399de5eb"] ;
217 -> 218 ;
219 [label=<gini = 0.0<br/>samples = 13<br/>value = [0, 0, 13, 0]<br/>class = Residential>, fillcolor="#399de5ff"] ;
218 -> 219 ;
220 [label=<gini = 0.0<br/>samples = 1<br/>value = [1, 0, 0, 0]<br/>class = Commercial>, fillcolor="#e58139ff"] ;
218 -> 220 ;
221 [label=<gini = 0.0<br/>samples = 1<br/>value = [0, 0, 0, 1]<br/>class = Special Purpose>, fillcolor="#d739e5ff"] ;
217 -> 221 ;
222 [label=<Paved RoadCount &le; 0.5<br/>gini = 0.375<br/>samples = 4<br/>value = [0, 0, 3, 1]<br/>class = Residential>, fillcolor="#399de5aa"] ;
206 -> 222 ;
223 [label=<gini = 0.0<br/>samples = 3<br/>value = [0, 0, 3, 0]<br/>class = Residential>, fillcolor="#399de5ff"] ;
222 -> 223 ;
224 [label=<gini = 0.0<br/>samples = 1<br/>value = [0, 0, 0, 1]<br/>class = Special Purpose>, fillcolor="#d739e5ff"] ;
222 -> 224 ;
225 [label=<percentUncovered DeckArea &le; 0.06<br/>gini = 0.5<br/>samples = 2<br/>value = [0, 0, 1, 1]<br/>class = Residential>, fillcolor="#399de500"] ;
205 -> 225 ;
226 [label=<gini = 0.0<br/>samples = 1<br/>value = [0, 0, 0, 1]<br/>class = Special Purpose>, fillcolor="#d739e5ff"] ;
225 -> 226 ;
227 [label=<gini = 0.0<br/>samples = 1<br/>value = [0, 0, 1, 0]<br/>class = Residential>, fillcolor="#399de5ff"] ;
225 -> 227 ;
228 [label=<percentSidewalkArea &le; 0.196<br/>gini = 0.5<br/>samples = 2<br/>value = [0, 0, 1, 1]<br/>class = Residential>, fillcolor="#399de500"] ;
204 -> 228 ;
229 [label=<gini = 0.0<br/>samples = 1<br/>value = [0, 0, 0, 1]<br/>class = Special Purpose>, fillcolor="#d739e5ff"] ;
228 -> 229 ;
230 [label=<gini = 0.0<br/>samples = 1<br/>value = [0, 0, 1, 0]<br/>class = Residential>, fillcolor="#399de5ff"] ;
228 -> 230 ;
231 [label=<percentPaved ParkingArea &le; 1.284<br/>gini = 0.304<br/>samples = 28<br/>value = [4, 0, 23, 1]<br/>class = Residential>, fillcolor="#399de5ca"] ;
203 -> 231 ;
232 [label=<gini = 0.0<br/>samples = 2<br/>value = [2, 0, 0, 0]<br/>class = Commercial>, fillcolor="#e58139ff"] ;
231 -> 232 ;
233 [label=<zoneID &le; 126427.5<br/>gini = 0.21<br/>samples = 26<br/>value = [2, 0, 23, 1]<br/>class = Residential>, fillcolor="#399de5df"] ;
231 -> 233 ;
234 [label=<gini = 0.0<br/>samples = 17<br/>value = [0, 0, 17, 0]<br/>class = Residential>, fillcolor="#399de5ff"] ;
233 -> 234 ;
235 [label=<zoneID &le; 126767.0<br/>gini = 0.494<br/>samples = 9<br/>value = [2, 0, 6, 1]<br/>class = Residential>, fillcolor="#399de592"] ;
233 -> 235 ;
236 [label=<Paved ParkingCount &le; 2.0<br/>gini = 0.5<br/>samples = 2<br/>value = [1, 0, 0, 1]<br/>class = Commercial>, fillcolor="#e5813900"] ;
235 -> 236 ;
237 [label=<gini = 0.0<br/>samples = 1<br/>value = [1, 0, 0, 0]<br/>class = Commercial>, fillcolor="#e58139ff"] ;
236 -> 237 ;
238 [label=<gini = 0.0<br/>samples = 1<br/>value = [0, 0, 0, 1]<br/>class = Special Purpose>, fillcolor="#d739e5ff"] ;
236 -> 238 ;
239 [label=<percentPaved ParkingArea &le; 3.833<br/>gini = 0.245<br/>samples = 7<br/>value = [1, 0, 6, 0]<br/>class = Residential>, fillcolor="#399de5d4"] ;
235 -> 239 ;
240 [label=<gini = 0.0<br/>samples = 5<br/>value = [0, 0, 5, 0]<br/>class = Residential>, fillcolor="#399de5ff"] ;
239 -> 240 ;
241 [label=<percentPaved ParkingArea &le; 4.891<br/>gini = 0.5<br/>samples = 2<br/>value = [1, 0, 1, 0]<br/>class = Commercial>, fillcolor="#e5813900"] ;
239 -> 241 ;
242 [label=<gini = 0.0<br/>samples = 1<br/>value = [1, 0, 0, 0]<br/>class = Commercial>, fillcolor="#e58139ff"] ;
241 -> 242 ;
243 [label=<gini = 0.0<br/>samples = 1<br/>value = [0, 0, 1, 0]<br/>class = Residential>, fillcolor="#399de5ff"] ;
241 -> 243 ;
244 [label=<gini = 0.0<br/>samples = 1<br/>value = [0, 0, 0, 1]<br/>class = Special Purpose>, fillcolor="#d739e5ff"] ;
202 -> 244 ;
245 [label=<gini = 0.0<br/>samples = 1<br/>value = [0, 0, 0, 1]<br/>class = Special Purpose>, fillcolor="#d739e5ff"] ;
201 -> 245 ;
246 [label=<gini = 0.0<br/>samples = 3<br/>value = [0, 0, 0, 3]<br/>class = Special Purpose>, fillcolor="#d739e5ff"] ;
200 -> 246 ;
247 [label=<Unpaved DrivewayCount &le; 1.5<br/>gini = 0.044<br/>samples = 44<br/>value = [43, 0, 0, 1]<br/>class = Commercial>, fillcolor="#e58139f9"] ;
177 -> 247 ;
248 [label=<gini = 0.0<br/>samples = 43<br/>value = [43, 0, 0, 0]<br/>class = Commercial>, fillcolor="#e58139ff"] ;
247 -> 248 ;
249 [label=<gini = 0.0<br/>samples = 1<br/>value = [0, 0, 0, 1]<br/>class = Special Purpose>, fillcolor="#d739e5ff"] ;
247 -> 249 ;
250 [label=<percentPaved DrivewayArea &le; 0.076<br/>gini = 0.111<br/>samples = 155<br/>value = [3, 0, 6, 146]<br/>class = Special Purpose>, fillcolor="#d739e5f0"] ;
118 -> 250 ;
251 [label=<zoneID &le; 128103.5<br/>gini = 0.067<br/>samples = 146<br/>value = [3, 0, 2, 141]<br/>class = Special Purpose>, fillcolor="#d739e5f6"] ;
250 -> 251 ;
252 [label=<Compacted SoilCount &le; 1.5<br/>gini = 0.054<br/>samples = 144<br/>value = [3, 0, 1, 140]<br/>class = Special Purpose>, fillcolor="#d739e5f8"] ;
251 -> 252 ;
253 [label=<percentUnpaved DrivewayArea &le; 0.016<br/>gini = 0.042<br/>samples = 141<br/>value = [2, 0, 1, 138]<br/>class = Special Purpose>, fillcolor="#d739e5f9"] ;
252 -> 253 ;
254 [label=<percentMedian > 10 FeetArea &le; 0.0<br/>gini = 0.029<br/>samples = 137<br/>value = [2, 0, 0, 135]<br/>class = Special Purpose>, fillcolor="#d739e5fb"] ;
253 -> 254 ;
255 [label=<percentPaved ParkingArea &le; 0.513<br/>gini = 0.015<br/>samples = 132<br/>value = [1, 0, 0, 131]<br/>class = Special Purpose>, fillcolor="#d739e5fd"] ;
254 -> 255 ;
256 [label=<gini = 0.0<br/>samples = 116<br/>value = [0, 0, 0, 116]<br/>class = Special Purpose>, fillcolor="#d739e5ff"] ;
255 -> 256 ;
257 [label=<percentPaved ParkingArea &le; 0.627<br/>gini = 0.117<br/>samples = 16<br/>value = [1, 0, 0, 15]<br/>class = Special Purpose>, fillcolor="#d739e5ee"] ;
255 -> 257 ;
258 [label=<gini = 0.0<br/>samples = 1<br/>value = [1, 0, 0, 0]<br/>class = Commercial>, fillcolor="#e58139ff"] ;
257 -> 258 ;
259 [label=<gini = 0.0<br/>samples = 15<br/>value = [0, 0, 0, 15]<br/>class = Special Purpose>, fillcolor="#d739e5ff"] ;
257 -> 259 ;
260 [label=<percentMedian > 10 FeetArea &le; 0.0<br/>gini = 0.32<br/>samples = 5<br/>value = [1, 0, 0, 4]<br/>class = Special Purpose>, fillcolor="#d739e5bf"] ;
254 -> 260 ;
261 [label=<gini = 0.0<br/>samples = 1<br/>value = [1, 0, 0, 0]<br/>class = Commercial>, fillcolor="#e58139ff"] ;
260 -> 261 ;
262 [label=<gini = 0.0<br/>samples = 4<br/>value = [0, 0, 0, 4]<br/>class = Special Purpose>, fillcolor="#d739e5ff"] ;
260 -> 262 ;
263 [label=<StructureCount &le; 5.5<br/>gini = 0.375<br/>samples = 4<br/>value = [0, 0, 1, 3]<br/>class = Special Purpose>, fillcolor="#d739e5aa"] ;
253 -> 263 ;
264 [label=<gini = 0.0<br/>samples = 3<br/>value = [0, 0, 0, 3]<br/>class = Special Purpose>, fillcolor="#d739e5ff"] ;
263 -> 264 ;
265 [label=<gini = 0.0<br/>samples = 1<br/>value = [0, 0, 1, 0]<br/>class = Residential>, fillcolor="#399de5ff"] ;
263 -> 265 ;
266 [label=<Paved RoadCount &le; 1.0<br/>gini = 0.444<br/>samples = 3<br/>value = [1, 0, 0, 2]<br/>class = Special Purpose>, fillcolor="#d739e57f"] ;
252 -> 266 ;
267 [label=<gini = 0.0<br/>samples = 2<br/>value = [0, 0, 0, 2]<br/>class = Special Purpose>, fillcolor="#d739e5ff"] ;
266 -> 267 ;
268 [label=<gini = 0.0<br/>samples = 1<br/>value = [1, 0, 0, 0]<br/>class = Commercial>, fillcolor="#e58139ff"] ;
266 -> 268 ;
269 [label=<percentUnpaved Athletic FieldArea &le; 0.0<br/>gini = 0.5<br/>samples = 2<br/>value = [0, 0, 1, 1]<br/>class = Residential>, fillcolor="#399de500"] ;
251 -> 269 ;
270 [label=<gini = 0.0<br/>samples = 1<br/>value = [0, 0, 1, 0]<br/>class = Residential>, fillcolor="#399de5ff"] ;
269 -> 270 ;
271 [label=<gini = 0.0<br/>samples = 1<br/>value = [0, 0, 0, 1]<br/>class = Special Purpose>, fillcolor="#d739e5ff"] ;
269 -> 271 ;
272 [label=<percentSidewalkArea &le; 0.056<br/>gini = 0.494<br/>samples = 9<br/>value = [0, 0, 4, 5]<br/>class = Special Purpose>, fillcolor="#d739e533"] ;
250 -> 272 ;
273 [label=<percentStructureArea &le; 0.378<br/>gini = 0.32<br/>samples = 5<br/>value = [0, 0, 4, 1]<br/>class = Residential>, fillcolor="#399de5bf"] ;
272 -> 273 ;
274 [label=<gini = 0.0<br/>samples = 4<br/>value = [0, 0, 4, 0]<br/>class = Residential>, fillcolor="#399de5ff"] ;
273 -> 274 ;
275 [label=<gini = 0.0<br/>samples = 1<br/>value = [0, 0, 0, 1]<br/>class = Special Purpose>, fillcolor="#d739e5ff"] ;
273 -> 275 ;
276 [label=<gini = 0.0<br/>samples = 4<br/>value = [0, 0, 0, 4]<br/>class = Special Purpose>, fillcolor="#d739e5ff"] ;
272 -> 276 ;
277 [label=<percentStructureArea &le; 0.584<br/>gini = 0.1<br/>samples = 3572<br/>value = [121, 2, 3385, 64]<br/>class = Residential>, fillcolor="#399de5f1"] ;
117 -> 277 ;
278 [label=<percentPaved DrivewayArea &le; 0.005<br/>gini = 0.07<br/>samples = 3379<br/>value = [93, 2, 3258, 26]<br/>class = Residential>, fillcolor="#399de5f6"] ;
277 -> 278 ;
279 [label=<zoneID &le; 128985.5<br/>gini = 0.304<br/>samples = 431<br/>value = [62, 1, 354, 14]<br/>class = Residential>, fillcolor="#399de5ca"] ;
278 -> 279 ;
280 [label=<percentMiscellaneousArea &le; 0.005<br/>gini = 0.043<br/>samples = 181<br/>value = [3, 0, 177, 1]<br/>class = Residential>, fillcolor="#399de5f9"] ;
279 -> 280 ;
281 [label=<percentAbove Ground PoolArea &le; 0.0<br/>gini = 0.033<br/>samples = 180<br/>value = [2, 0, 177, 1]<br/>class = Residential>, fillcolor="#399de5fb"] ;
280 -> 281 ;
282 [label=<percentStructureArea &le; 0.097<br/>gini = 0.022<br/>samples = 178<br/>value = [2, 0, 176, 0]<br/>class = Residential>, fillcolor="#399de5fc"] ;
281 -> 282 ;
283 [label=<percentStructureArea &le; 0.079<br/>gini = 0.117<br/>samples = 32<br/>value = [2, 0, 30, 0]<br/>class = Residential>, fillcolor="#399de5ee"] ;
282 -> 283 ;
284 [label=<percentStructureArea &le; 0.056<br/>gini = 0.062<br/>samples = 31<br/>value = [1, 0, 30, 0]<br/>class = Residential>, fillcolor="#399de5f6"] ;
283 -> 284 ;
285 [label=<gini = 0.0<br/>samples = 28<br/>value = [0, 0, 28, 0]<br/>class = Residential>, fillcolor="#399de5ff"] ;
284 -> 285 ;
286 [label=<SidewalkCount &le; 0.5<br/>gini = 0.444<br/>samples = 3<br/>value = [1, 0, 2, 0]<br/>class = Residential>, fillcolor="#399de57f"] ;
284 -> 286 ;
287 [label=<gini = 0.0<br/>samples = 1<br/>value = [1, 0, 0, 0]<br/>class = Commercial>, fillcolor="#e58139ff"] ;
286 -> 287 ;
288 [label=<gini = 0.0<br/>samples = 2<br/>value = [0, 0, 2, 0]<br/>class = Residential>, fillcolor="#399de5ff"] ;
286 -> 288 ;
289 [label=<gini = 0.0<br/>samples = 1<br/>value = [1, 0, 0, 0]<br/>class = Commercial>, fillcolor="#e58139ff"] ;
283 -> 289 ;
290 [label=<gini = 0.0<br/>samples = 146<br/>value = [0, 0, 146, 0]<br/>class = Residential>, fillcolor="#399de5ff"] ;
282 -> 290 ;
291 [label=<Paved RoadCount &le; 0.5<br/>gini = 0.5<br/>samples = 2<br/>value = [0, 0, 1, 1]<br/>class = Residential>, fillcolor="#399de500"] ;
281 -> 291 ;
292 [label=<gini = 0.0<br/>samples = 1<br/>value = [0, 0, 1, 0]<br/>class = Residential>, fillcolor="#399de5ff"] ;
291 -> 292 ;
293 [label=<gini = 0.0<br/>samples = 1<br/>value = [0, 0, 0, 1]<br/>class = Special Purpose>, fillcolor="#d739e5ff"] ;
291 -> 293 ;
294 [label=<gini = 0.0<br/>samples = 1<br/>value = [1, 0, 0, 0]<br/>class = Commercial>, fillcolor="#e58139ff"] ;
280 -> 294 ;
295 [label=<zoneID &le; 129069.0<br/>gini = 0.44<br/>samples = 250<br/>value = [59, 1, 177, 13]<br/>class = Residential>, fillcolor="#399de59e"] ;
279 -> 295 ;
296 [label=<gini = 0.0<br/>samples = 23<br/>value = [23, 0, 0, 0]<br/>class = Commercial>, fillcolor="#e58139ff"] ;
295 -> 296 ;
297 [label=<zoneArea &le; 57229.729<br/>gini = 0.364<br/>samples = 227<br/>value = [36, 1, 177, 13]<br/>class = Residential>, fillcolor="#399de5bc"] ;
295 -> 297 ;
298 [label=<percentPaved ParkingArea &le; 0.119<br/>gini = 0.159<br/>samples = 149<br/>value = [13, 0, 136, 0]<br/>class = Residential>, fillcolor="#399de5e7"] ;
297 -> 298 ;
299 [label=<percentUnpaved DrivewayArea &le; 0.33<br/>gini = 0.042<br/>samples = 94<br/>value = [2, 0, 92, 0]<br/>class = Residential>, fillcolor="#399de5f9"] ;
298 -> 299 ;
300 [label=<percentStructureArea &le; 0.352<br/>gini = 0.022<br/>samples = 91<br/>value = [1, 0, 90, 0]<br/>class = Residential>, fillcolor="#399de5fc"] ;
299 -> 300 ;
301 [label=<gini = 0.0<br/>samples = 71<br/>value = [0, 0, 71, 0]<br/>class = Residential>, fillcolor="#399de5ff"] ;
300 -> 301 ;
302 [label=<percentStructureArea &le; 0.356<br/>gini = 0.095<br/>samples = 20<br/>value = [1, 0, 19, 0]<br/>class = Residential>, fillcolor="#399de5f2"] ;
300 -> 302 ;
303 [label=<gini = 0.0<br/>samples = 1<br/>value = [1, 0, 0, 0]<br/>class = Commercial>, fillcolor="#e58139ff"] ;
302 -> 303 ;
304 [label=<gini = 0.0<br/>samples = 19<br/>value = [0, 0, 19, 0]<br/>class = Residential>, fillcolor="#399de5ff"] ;
302 -> 304 ;
305 [label=<SidewalkCount &le; 0.5<br/>gini = 0.444<br/>samples = 3<br/>value = [1, 0, 2, 0]<br/>class = Residential>, fillcolor="#399de57f"] ;
299 -> 305 ;
306 [label=<gini = 0.0<br/>samples = 1<br/>value = [1, 0, 0, 0]<br/>class = Commercial>, fillcolor="#e58139ff"] ;
305 -> 306 ;
307 [label=<gini = 0.0<br/>samples = 2<br/>value = [0, 0, 2, 0]<br/>class = Residential>, fillcolor="#399de5ff"] ;
305 -> 307 ;
308 [label=<percentUnpaved ParkingArea &le; 0.029<br/>gini = 0.32<br/>samples = 55<br/>value = [11, 0, 44, 0]<br/>class = Residential>, fillcolor="#399de5bf"] ;
298 -> 308 ;
309 [label=<percentSidewalkArea &le; 0.013<br/>gini = 0.282<br/>samples = 53<br/>value = [9, 0, 44, 0]<br/>class = Residential>, fillcolor="#399de5cb"] ;
308 -> 309 ;
310 [label=<zoneID &le; 133695.5<br/>gini = 0.444<br/>samples = 21<br/>value = [7, 0, 14, 0]<br/>class = Residential>, fillcolor="#399de57f"] ;
309 -> 310 ;
311 [label=<gini = 0.0<br/>samples = 7<br/>value = [0, 0, 7, 0]<br/>class = Residential>, fillcolor="#399de5ff"] ;
310 -> 311 ;
312 [label=<percentUnpaved DrivewayArea &le; 0.045<br/>gini = 0.5<br/>samples = 14<br/>value = [7, 0, 7, 0]<br/>class = Commercial>, fillcolor="#e5813900"] ;
310 -> 312 ;
313 [label=<zoneArea &le; 43005.264<br/>gini = 0.463<br/>samples = 11<br/>value = [7, 0, 4, 0]<br/>class = Commercial>, fillcolor="#e581396d"] ;
312 -> 313 ;
314 [label=<zoneID &le; 136512.5<br/>gini = 0.346<br/>samples = 9<br/>value = [7, 0, 2, 0]<br/>class = Commercial>, fillcolor="#e58139b6"] ;
313 -> 314 ;
315 [label=<gini = 0.0<br/>samples = 6<br/>value = [6, 0, 0, 0]<br/>class = Commercial>, fillcolor="#e58139ff"] ;
314 -> 315 ;
316 [label=<StructureCount &le; 0.5<br/>gini = 0.444<br/>samples = 3<br/>value = [1, 0, 2, 0]<br/>class = Residential>, fillcolor="#399de57f"] ;
314 -> 316 ;
317 [label=<gini = 0.0<br/>samples = 1<br/>value = [1, 0, 0, 0]<br/>class = Commercial>, fillcolor="#e58139ff"] ;
316 -> 317 ;
318 [label=<gini = 0.0<br/>samples = 2<br/>value = [0, 0, 2, 0]<br/>class = Residential>, fillcolor="#399de5ff"] ;
316 -> 318 ;
319 [label=<gini = 0.0<br/>samples = 2<br/>value = [0, 0, 2, 0]<br/>class = Residential>, fillcolor="#399de5ff"] ;
313 -> 319 ;
320 [label=<gini = 0.0<br/>samples = 3<br/>value = [0, 0, 3, 0]<br/>class = Residential>, fillcolor="#399de5ff"] ;
312 -> 320 ;
321 [label=<percentPaved AlleyArea &le; 0.458<br/>gini = 0.117<br/>samples = 32<br/>value = [2, 0, 30, 0]<br/>class = Residential>, fillcolor="#399de5ee"] ;
309 -> 321 ;
322 [label=<Paved ParkingCount &le; 1.5<br/>gini = 0.062<br/>samples = 31<br/>value = [1, 0, 30, 0]<br/>class = Residential>, fillcolor="#399de5f6"] ;
321 -> 322 ;
323 [label=<gini = 0.0<br/>samples = 23<br/>value = [0, 0, 23, 0]<br/>class = Residential>, fillcolor="#399de5ff"] ;
322 -> 323 ;
324 [label=<percentPatioArea &le; 0.016<br/>gini = 0.219<br/>samples = 8<br/>value = [1, 0, 7, 0]<br/>class = Residential>, fillcolor="#399de5db"] ;
322 -> 324 ;
325 [label=<gini = 0.0<br/>samples = 5<br/>value = [0, 0, 5, 0]<br/>class = Residential>, fillcolor="#399de5ff"] ;
324 -> 325 ;
326 [label=<percentPatioArea &le; 0.03<br/>gini = 0.444<br/>samples = 3<br/>value = [1, 0, 2, 0]<br/>class = Residential>, fillcolor="#399de57f"] ;
324 -> 326 ;
327 [label=<gini = 0.0<br/>samples = 1<br/>value = [1, 0, 0, 0]<br/>class = Commercial>, fillcolor="#e58139ff"] ;
326 -> 327 ;
328 [label=<gini = 0.0<br/>samples = 2<br/>value = [0, 0, 2, 0]<br/>class = Residential>, fillcolor="#399de5ff"] ;
326 -> 328 ;
329 [label=<gini = 0.0<br/>samples = 1<br/>value = [1, 0, 0, 0]<br/>class = Commercial>, fillcolor="#e58139ff"] ;
321 -> 329 ;
330 [label=<gini = 0.0<br/>samples = 2<br/>value = [2, 0, 0, 0]<br/>class = Commercial>, fillcolor="#e58139ff"] ;
308 -> 330 ;
331 [label=<percentPaved ParkingArea &le; 0.453<br/>gini = 0.609<br/>samples = 78<br/>value = [23, 1, 41, 13]<br/>class = Residential>, fillcolor="#399de553"] ;
297 -> 331 ;
332 [label=<zoneID &le; 137325.5<br/>gini = 0.526<br/>samples = 55<br/>value = [8, 0, 35, 12]<br/>class = Residential>, fillcolor="#399de588"] ;
331 -> 332 ;
333 [label=<percentSidewalkArea &le; 0.062<br/>gini = 0.479<br/>samples = 51<br/>value = [7, 0, 35, 9]<br/>class = Residential>, fillcolor="#399de59e"] ;
332 -> 333 ;
334 [label=<zoneArea &le; 359119.25<br/>gini = 0.417<br/>samples = 38<br/>value = [7, 0, 28, 3]<br/>class = Residential>, fillcolor="#399de5ad"] ;
333 -> 334 ;
335 [label=<zoneID &le; 137258.5<br/>gini = 0.226<br/>samples = 24<br/>value = [2, 0, 21, 1]<br/>class = Residential>, fillcolor="#399de5dc"] ;
334 -> 335 ;
336 [label=<CourtyardCount &le; 1.5<br/>gini = 0.159<br/>samples = 23<br/>value = [2, 0, 21, 0]<br/>class = Residential>, fillcolor="#399de5e7"] ;
335 -> 336 ;
337 [label=<Compacted SoilCount &le; 0.5<br/>gini = 0.087<br/>samples = 22<br/>value = [1, 0, 21, 0]<br/>class = Residential>, fillcolor="#399de5f3"] ;
336 -> 337 ;
338 [label=<gini = 0.0<br/>samples = 21<br/>value = [0, 0, 21, 0]<br/>class = Residential>, fillcolor="#399de5ff"] ;
337 -> 338 ;
339 [label=<gini = 0.0<br/>samples = 1<br/>value = [1, 0, 0, 0]<br/>class = Commercial>, fillcolor="#e58139ff"] ;
337 -> 339 ;
340 [label=<gini = 0.0<br/>samples = 1<br/>value = [1, 0, 0, 0]<br/>class = Commercial>, fillcolor="#e58139ff"] ;
336 -> 340 ;
341 [label=<gini = 0.0<br/>samples = 1<br/>value = [0, 0, 0, 1]<br/>class = Special Purpose>, fillcolor="#d739e5ff"] ;
335 -> 341 ;
342 [label=<percentPatioArea &le; 0.001<br/>gini = 0.602<br/>samples = 14<br/>value = [5, 0, 7, 2]<br/>class = Residential>, fillcolor="#399de539"] ;
334 -> 342 ;
343 [label=<zoneArea &le; 459302.844<br/>gini = 0.571<br/>samples = 7<br/>value = [4, 0, 1, 2]<br/>class = Commercial>, fillcolor="#e5813966"] ;
342 -> 343 ;
344 [label=<gini = 0.0<br/>samples = 2<br/>value = [0, 0, 0, 2]<br/>class = Special Purpose>, fillcolor="#d739e5ff"] ;
343 -> 344 ;
345 [label=<percentSidewalkArea &le; 0.002<br/>gini = 0.32<br/>samples = 5<br/>value = [4, 0, 1, 0]<br/>class = Commercial>, fillcolor="#e58139bf"] ;
343 -> 345 ;
346 [label=<gini = 0.0<br/>samples = 1<br/>value = [0, 0, 1, 0]<br/>class = Residential>, fillcolor="#399de5ff"] ;
345 -> 346 ;
347 [label=<gini = 0.0<br/>samples = 4<br/>value = [4, 0, 0, 0]<br/>class = Commercial>, fillcolor="#e58139ff"] ;
345 -> 347 ;
348 [label=<percentRecreation Court/Ball FieldArea &le; 0.059<br/>gini = 0.245<br/>samples = 7<br/>value = [1, 0, 6, 0]<br/>class = Residential>, fillcolor="#399de5d4"] ;
342 -> 348 ;
349 [label=<gini = 0.0<br/>samples = 6<br/>value = [0, 0, 6, 0]<br/>class = Residential>, fillcolor="#399de5ff"] ;
348 -> 349 ;
350 [label=<gini = 0.0<br/>samples = 1<br/>value = [1, 0, 0, 0]<br/>class = Commercial>, fillcolor="#e58139ff"] ;
348 -> 350 ;
351 [label=<percentPaved RoadArea &le; 2.882<br/>gini = 0.497<br/>samples = 13<br/>value = [0, 0, 7, 6]<br/>class = Residential>, fillcolor="#399de524"] ;
333 -> 351 ;
352 [label=<percentStructureArea &le; 0.329<br/>gini = 0.444<br/>samples = 9<br/>value = [0, 0, 3, 6]<br/>class = Special Purpose>, fillcolor="#d739e57f"] ;
351 -> 352 ;
353 [label=<Open SpaceCount &le; 6.5<br/>gini = 0.245<br/>samples = 7<br/>value = [0, 0, 1, 6]<br/>class = Special Purpose>, fillcolor="#d739e5d4"] ;
352 -> 353 ;
354 [label=<gini = 0.0<br/>samples = 6<br/>value = [0, 0, 0, 6]<br/>class = Special Purpose>, fillcolor="#d739e5ff"] ;
353 -> 354 ;
355 [label=<gini = 0.0<br/>samples = 1<br/>value = [0, 0, 1, 0]<br/>class = Residential>, fillcolor="#399de5ff"] ;
353 -> 355 ;
356 [label=<gini = 0.0<br/>samples = 2<br/>value = [0, 0, 2, 0]<br/>class = Residential>, fillcolor="#399de5ff"] ;
352 -> 356 ;
357 [label=<gini = 0.0<br/>samples = 4<br/>value = [0, 0, 4, 0]<br/>class = Residential>, fillcolor="#399de5ff"] ;
351 -> 357 ;
358 [label=<percentPavementArea &le; 0.007<br/>gini = 0.375<br/>samples = 4<br/>value = [1, 0, 0, 3]<br/>class = Special Purpose>, fillcolor="#d739e5aa"] ;
332 -> 358 ;
359 [label=<gini = 0.0<br/>samples = 1<br/>value = [1, 0, 0, 0]<br/>class = Commercial>, fillcolor="#e58139ff"] ;
358 -> 359 ;
360 [label=<gini = 0.0<br/>samples = 3<br/>value = [0, 0, 0, 3]<br/>class = Special Purpose>, fillcolor="#d739e5ff"] ;
358 -> 360 ;
361 [label=<percentStructureArea &le; 0.027<br/>gini = 0.503<br/>samples = 23<br/>value = [15, 1, 6, 1]<br/>class = Commercial>, fillcolor="#e5813987"] ;
331 -> 361 ;
362 [label=<gini = 0.0<br/>samples = 3<br/>value = [0, 0, 3, 0]<br/>class = Residential>, fillcolor="#399de5ff"] ;
361 -> 362 ;
363 [label=<percentSidewalkArea &le; 0.12<br/>gini = 0.41<br/>samples = 20<br/>value = [15, 1, 3, 1]<br/>class = Commercial>, fillcolor="#e58139b4"] ;
361 -> 363 ;
364 [label=<percentOpen SpaceArea &le; 0.002<br/>gini = 0.296<br/>samples = 18<br/>value = [15, 1, 1, 1]<br/>class = Commercial>, fillcolor="#e58139d2"] ;
363 -> 364 ;
365 [label=<percentPaved ParkingArea &le; 0.52<br/>gini = 0.215<br/>samples = 17<br/>value = [15, 1, 0, 1]<br/>class = Commercial>, fillcolor="#e58139df"] ;
364 -> 365 ;
366 [label=<percentUnpaved ParkingArea &le; 0.024<br/>gini = 0.5<br/>samples = 2<br/>value = [1, 1, 0, 0]<br/>class = Commercial>, fillcolor="#e5813900"] ;
365 -> 366 ;
367 [label=<gini = 0.0<br/>samples = 1<br/>value = [1, 0, 0, 0]<br/>class = Commercial>, fillcolor="#e58139ff"] ;
366 -> 367 ;
368 [label=<gini = 0.0<br/>samples = 1<br/>value = [0, 1, 0, 0]<br/>class = Industrial>, fillcolor="#47e539ff"] ;
366 -> 368 ;
369 [label=<percentStructureArea &le; 0.115<br/>gini = 0.124<br/>samples = 15<br/>value = [14, 0, 0, 1]<br/>class = Commercial>, fillcolor="#e58139ed"] ;
365 -> 369 ;
370 [label=<zoneID &le; 135014.5<br/>gini = 0.5<br/>samples = 2<br/>value = [1, 0, 0, 1]<br/>class = Commercial>, fillcolor="#e5813900"] ;
369 -> 370 ;
371 [label=<gini = 0.0<br/>samples = 1<br/>value = [1, 0, 0, 0]<br/>class = Commercial>, fillcolor="#e58139ff"] ;
370 -> 371 ;
372 [label=<gini = 0.0<br/>samples = 1<br/>value = [0, 0, 0, 1]<br/>class = Special Purpose>, fillcolor="#d739e5ff"] ;
370 -> 372 ;
373 [label=<gini = 0.0<br/>samples = 13<br/>value = [13, 0, 0, 0]<br/>class = Commercial>, fillcolor="#e58139ff"] ;
369 -> 373 ;
374 [label=<gini = 0.0<br/>samples = 1<br/>value = [0, 0, 1, 0]<br/>class = Residential>, fillcolor="#399de5ff"] ;
364 -> 374 ;
375 [label=<gini = 0.0<br/>samples = 2<br/>value = [0, 0, 2, 0]<br/>class = Residential>, fillcolor="#399de5ff"] ;
363 -> 375 ;
376 [label=<percentMiscellaneousArea &le; 0.052<br/>gini = 0.03<br/>samples = 2948<br/>value = [31, 1, 2904, 12]<br/>class = Residential>, fillcolor="#399de5fb"] ;
278 -> 376 ;
377 [label=<percentPaved ParkingArea &le; 0.316<br/>gini = 0.028<br/>samples = 2946<br/>value = [29, 1, 2904, 12]<br/>class = Residential>, fillcolor="#399de5fb"] ;
376 -> 377 ;
378 [label=<percentUnpaved ParkingArea &le; 0.613<br/>gini = 0.016<br/>samples = 2747<br/>value = [14, 0, 2725, 8]<br/>class = Residential>, fillcolor="#399de5fd"] ;
377 -> 378 ;
379 [label=<percentCovered DeckArea &le; 0.016<br/>gini = 0.015<br/>samples = 2746<br/>value = [13, 0, 2725, 8]<br/>class = Residential>, fillcolor="#399de5fd"] ;
378 -> 379 ;
380 [label=<percentStructureArea &le; 0.568<br/>gini = 0.014<br/>samples = 2743<br/>value = [12, 0, 2724, 7]<br/>class = Residential>, fillcolor="#399de5fd"] ;
379 -> 380 ;
381 [label=<percentPaved DrivewayArea &le; 0.798<br/>gini = 0.012<br/>samples = 2731<br/>value = [12, 0, 2715, 4]<br/>class = Residential>, fillcolor="#399de5fd"] ;
380 -> 381 ;
382 [label=<zoneID &le; 129066.5<br/>gini = 0.011<br/>samples = 2729<br/>value = [11, 0, 2714, 4]<br/>class = Residential>, fillcolor="#399de5fe"] ;
381 -> 382 ;
383 [label=<zoneID &le; 128981.0<br/>gini = 0.114<br/>samples = 115<br/>value = [7, 0, 108, 0]<br/>class = Residential>, fillcolor="#399de5ee"] ;
382 -> 383 ;
384 [label=<gini = 0.0<br/>samples = 107<br/>value = [0, 0, 107, 0]<br/>class = Residential>, fillcolor="#399de5ff"] ;
383 -> 384 ;
385 [label=<percentPaved ParkingArea &le; 0.249<br/>gini = 0.219<br/>samples = 8<br/>value = [7, 0, 1, 0]<br/>class = Commercial>, fillcolor="#e58139db"] ;
383 -> 385 ;
386 [label=<gini = 0.0<br/>samples = 7<br/>value = [7, 0, 0, 0]<br/>class = Commercial>, fillcolor="#e58139ff"] ;
385 -> 386 ;
387 [label=<gini = 0.0<br/>samples = 1<br/>value = [0, 0, 1, 0]<br/>class = Residential>, fillcolor="#399de5ff"] ;
385 -> 387 ;
388 [label=<percentCourtyardArea &le; 0.019<br/>gini = 0.006<br/>samples = 2614<br/>value = [4, 0, 2606, 4]<br/>class = Residential>, fillcolor="#399de5fe"] ;
382 -> 388 ;
389 [label=<percentStructureArea &le; 0.514<br/>gini = 0.005<br/>samples = 2612<br/>value = [4, 0, 2605, 3]<br/>class = Residential>, fillcolor="#399de5fe"] ;
388 -> 389 ;
390 [label=<percentPaved ParkingArea &le; 0.152<br/>gini = 0.004<br/>samples = 2586<br/>value = [4, 0, 2581, 1]<br/>class = Residential>, fillcolor="#399de5ff"] ;
389 -> 390 ;
391 [label=<percentPatioArea &le; 0.08<br/>gini = 0.002<br/>samples = 2501<br/>value = [1, 0, 2499, 1]<br/>class = Residential>, fillcolor="#399de5ff"] ;
390 -> 391 ;
392 [label=<percentStructureArea &le; 0.423<br/>gini = 0.001<br/>samples = 2463<br/>value = [0, 0, 2462, 1]<br/>class = Residential>, fillcolor="#399de5ff"] ;
391 -> 392 ;
393 [label=<gini = 0.0<br/>samples = 2413<br/>value = [0, 0, 2413, 0]<br/>class = Residential>, fillcolor="#399de5ff"] ;
392 -> 393 ;
394 [label=<percentStructureArea &le; 0.425<br/>gini = 0.039<br/>samples = 50<br/>value = [0, 0, 49, 1]<br/>class = Residential>, fillcolor="#399de5fa"] ;
392 -> 394 ;
395 [label=<gini = 0.0<br/>samples = 1<br/>value = [0, 0, 0, 1]<br/>class = Special Purpose>, fillcolor="#d739e5ff"] ;
394 -> 395 ;
396 [label=<gini = 0.0<br/>samples = 49<br/>value = [0, 0, 49, 0]<br/>class = Residential>, fillcolor="#399de5ff"] ;
394 -> 396 ;
397 [label=<percentPatioArea &le; 0.08<br/>gini = 0.051<br/>samples = 38<br/>value = [1, 0, 37, 0]<br/>class = Residential>, fillcolor="#399de5f8"] ;
391 -> 397 ;
398 [label=<gini = 0.0<br/>samples = 1<br/>value = [1, 0, 0, 0]<br/>class = Commercial>, fillcolor="#e58139ff"] ;
397 -> 398 ;
399 [label=<gini = 0.0<br/>samples = 37<br/>value = [0, 0, 37, 0]<br/>class = Residential>, fillcolor="#399de5ff"] ;
397 -> 399 ;
400 [label=<percentPavementArea &le; 0.059<br/>gini = 0.068<br/>samples = 85<br/>value = [3, 0, 82, 0]<br/>class = Residential>, fillcolor="#399de5f6"] ;
390 -> 400 ;
401 [label=<percentPaved ParkingArea &le; 0.154<br/>gini = 0.046<br/>samples = 84<br/>value = [2, 0, 82, 0]<br/>class = Residential>, fillcolor="#399de5f9"] ;
400 -> 401 ;
402 [label=<gini = 0.0<br/>samples = 1<br/>value = [1, 0, 0, 0]<br/>class = Commercial>, fillcolor="#e58139ff"] ;
401 -> 402 ;
403 [label=<percentPaved DrivewayArea &le; 0.163<br/>gini = 0.024<br/>samples = 83<br/>value = [1, 0, 82, 0]<br/>class = Residential>, fillcolor="#399de5fc"] ;
401 -> 403 ;
404 [label=<gini = 0.0<br/>samples = 81<br/>value = [0, 0, 81, 0]<br/>class = Residential>, fillcolor="#399de5ff"] ;
403 -> 404 ;
405 [label=<percentSidewalkArea &le; 0.08<br/>gini = 0.5<br/>samples = 2<br/>value = [1, 0, 1, 0]<br/>class = Commercial>, fillcolor="#e5813900"] ;
403 -> 405 ;
406 [label=<gini = 0.0<br/>samples = 1<br/>value = [1, 0, 0, 0]<br/>class = Commercial>, fillcolor="#e58139ff"] ;
405 -> 406 ;
407 [label=<gini = 0.0<br/>samples = 1<br/>value = [0, 0, 1, 0]<br/>class = Residential>, fillcolor="#399de5ff"] ;
405 -> 407 ;
408 [label=<gini = 0.0<br/>samples = 1<br/>value = [1, 0, 0, 0]<br/>class = Commercial>, fillcolor="#e58139ff"] ;
400 -> 408 ;
409 [label=<percentStructureArea &le; 0.516<br/>gini = 0.142<br/>samples = 26<br/>value = [0, 0, 24, 2]<br/>class = Residential>, fillcolor="#399de5ea"] ;
389 -> 409 ;
410 [label=<gini = 0.0<br/>samples = 2<br/>value = [0, 0, 0, 2]<br/>class = Special Purpose>, fillcolor="#d739e5ff"] ;
409 -> 410 ;
411 [label=<gini = 0.0<br/>samples = 24<br/>value = [0, 0, 24, 0]<br/>class = Residential>, fillcolor="#399de5ff"] ;
409 -> 411 ;
412 [label=<percentCourtyardArea &le; 0.027<br/>gini = 0.5<br/>samples = 2<br/>value = [0, 0, 1, 1]<br/>class = Residential>, fillcolor="#399de500"] ;
388 -> 412 ;
413 [label=<gini = 0.0<br/>samples = 1<br/>value = [0, 0, 0, 1]<br/>class = Special Purpose>, fillcolor="#d739e5ff"] ;
412 -> 413 ;
414 [label=<gini = 0.0<br/>samples = 1<br/>value = [0, 0, 1, 0]<br/>class = Residential>, fillcolor="#399de5ff"] ;
412 -> 414 ;
415 [label=<percentPaved DrivewayArea &le; 1.047<br/>gini = 0.5<br/>samples = 2<br/>value = [1, 0, 1, 0]<br/>class = Commercial>, fillcolor="#e5813900"] ;
381 -> 415 ;
416 [label=<gini = 0.0<br/>samples = 1<br/>value = [1, 0, 0, 0]<br/>class = Commercial>, fillcolor="#e58139ff"] ;
415 -> 416 ;
417 [label=<gini = 0.0<br/>samples = 1<br/>value = [0, 0, 1, 0]<br/>class = Residential>, fillcolor="#399de5ff"] ;
415 -> 417 ;
418 [label=<percentPatioArea &le; 0.033<br/>gini = 0.375<br/>samples = 12<br/>value = [0, 0, 9, 3]<br/>class = Residential>, fillcolor="#399de5aa"] ;
380 -> 418 ;
419 [label=<gini = 0.0<br/>samples = 9<br/>value = [0, 0, 9, 0]<br/>class = Residential>, fillcolor="#399de5ff"] ;
418 -> 419 ;
420 [label=<gini = 0.0<br/>samples = 3<br/>value = [0, 0, 0, 3]<br/>class = Special Purpose>, fillcolor="#d739e5ff"] ;
418 -> 420 ;
421 [label=<percentUncovered DeckArea &le; 0.008<br/>gini = 0.667<br/>samples = 3<br/>value = [1, 0, 1, 1]<br/>class = Commercial>, fillcolor="#e5813900"] ;
379 -> 421 ;
422 [label=<percentPaved RoadArea &le; 96.496<br/>gini = 0.5<br/>samples = 2<br/>value = [1, 0, 0, 1]<br/>class = Commercial>, fillcolor="#e5813900"] ;
421 -> 422 ;
423 [label=<gini = 0.0<br/>samples = 1<br/>value = [1, 0, 0, 0]<br/>class = Commercial>, fillcolor="#e58139ff"] ;
422 -> 423 ;
424 [label=<gini = 0.0<br/>samples = 1<br/>value = [0, 0, 0, 1]<br/>class = Special Purpose>, fillcolor="#d739e5ff"] ;
422 -> 424 ;
425 [label=<gini = 0.0<br/>samples = 1<br/>value = [0, 0, 1, 0]<br/>class = Residential>, fillcolor="#399de5ff"] ;
421 -> 425 ;
426 [label=<gini = 0.0<br/>samples = 1<br/>value = [1, 0, 0, 0]<br/>class = Commercial>, fillcolor="#e58139ff"] ;
378 -> 426 ;
427 [label=<percentSidewalkArea &le; 0.115<br/>gini = 0.185<br/>samples = 199<br/>value = [15, 1, 179, 4]<br/>class = Residential>, fillcolor="#399de5e3"] ;
377 -> 427 ;
428 [label=<zoneArea &le; 659736.375<br/>gini = 0.141<br/>samples = 187<br/>value = [10, 1, 173, 3]<br/>class = Residential>, fillcolor="#399de5eb"] ;
427 -> 428 ;
429 [label=<Unpaved ParkingCount &le; 1.5<br/>gini = 0.122<br/>samples = 185<br/>value = [10, 0, 173, 2]<br/>class = Residential>, fillcolor="#399de5ee"] ;
428 -> 429 ;
430 [label=<percentPaved AlleyArea &le; 0.788<br/>gini = 0.104<br/>samples = 183<br/>value = [9, 0, 173, 1]<br/>class = Residential>, fillcolor="#399de5f0"] ;
429 -> 430 ;
431 [label=<percentMedian > 10 FeetArea &le; 0.008<br/>gini = 0.094<br/>samples = 182<br/>value = [9, 0, 173, 0]<br/>class = Residential>, fillcolor="#399de5f2"] ;
430 -> 431 ;
432 [label=<percentPaved ParkingArea &le; 0.316<br/>gini = 0.084<br/>samples = 181<br/>value = [8, 0, 173, 0]<br/>class = Residential>, fillcolor="#399de5f3"] ;
431 -> 432 ;
433 [label=<gini = 0.0<br/>samples = 1<br/>value = [1, 0, 0, 0]<br/>class = Commercial>, fillcolor="#e58139ff"] ;
432 -> 433 ;
434 [label=<Unpaved Athletic FieldCount &le; 1.5<br/>gini = 0.075<br/>samples = 180<br/>value = [7, 0, 173, 0]<br/>class = Residential>, fillcolor="#399de5f5"] ;
432 -> 434 ;
435 [label=<zoneID &le; 137442.5<br/>gini = 0.065<br/>samples = 179<br/>value = [6, 0, 173, 0]<br/>class = Residential>, fillcolor="#399de5f6"] ;
434 -> 435 ;
436 [label=<PavementCount &le; 11.5<br/>gini = 0.055<br/>samples = 178<br/>value = [5, 0, 173, 0]<br/>class = Residential>, fillcolor="#399de5f8"] ;
435 -> 436 ;
437 [label=<percentCompacted SoilArea &le; 0.066<br/>gini = 0.044<br/>samples = 176<br/>value = [4, 0, 172, 0]<br/>class = Residential>, fillcolor="#399de5f9"] ;
436 -> 437 ;
438 [label=<zoneArea &le; 6161.34<br/>gini = 0.034<br/>samples = 174<br/>value = [3, 0, 171, 0]<br/>class = Residential>, fillcolor="#399de5fb"] ;
437 -> 438 ;
439 [label=<percentPavementArea &le; 0.007<br/>gini = 0.5<br/>samples = 2<br/>value = [1, 0, 1, 0]<br/>class = Commercial>, fillcolor="#e5813900"] ;
438 -> 439 ;
440 [label=<gini = 0.0<br/>samples = 1<br/>value = [0, 0, 1, 0]<br/>class = Residential>, fillcolor="#399de5ff"] ;
439 -> 440 ;
441 [label=<gini = 0.0<br/>samples = 1<br/>value = [1, 0, 0, 0]<br/>class = Commercial>, fillcolor="#e58139ff"] ;
439 -> 441 ;
442 [label=<percentPavementArea &le; 0.044<br/>gini = 0.023<br/>samples = 172<br/>value = [2, 0, 170, 0]<br/>class = Residential>, fillcolor="#399de5fc"] ;
438 -> 442 ;
443 [label=<zoneID &le; 136129.5<br/>gini = 0.012<br/>samples = 169<br/>value = [1, 0, 168, 0]<br/>class = Residential>, fillcolor="#399de5fd"] ;
442 -> 443 ;
444 [label=<gini = 0.0<br/>samples = 151<br/>value = [0, 0, 151, 0]<br/>class = Residential>, fillcolor="#399de5ff"] ;
443 -> 444 ;
445 [label=<zoneID &le; 136141.0<br/>gini = 0.105<br/>samples = 18<br/>value = [1, 0, 17, 0]<br/>class = Residential>, fillcolor="#399de5f0"] ;
443 -> 445 ;
446 [label=<gini = 0.0<br/>samples = 1<br/>value = [1, 0, 0, 0]<br/>class = Commercial>, fillcolor="#e58139ff"] ;
445 -> 446 ;
447 [label=<gini = 0.0<br/>samples = 17<br/>value = [0, 0, 17, 0]<br/>class = Residential>, fillcolor="#399de5ff"] ;
445 -> 447 ;
448 [label=<zoneID &le; 129740.0<br/>gini = 0.444<br/>samples = 3<br/>value = [1, 0, 2, 0]<br/>class = Residential>, fillcolor="#399de57f"] ;
442 -> 448 ;
449 [label=<gini = 0.0<br/>samples = 1<br/>value = [1, 0, 0, 0]<br/>class = Commercial>, fillcolor="#e58139ff"] ;
448 -> 449 ;
450 [label=<gini = 0.0<br/>samples = 2<br/>value = [0, 0, 2, 0]<br/>class = Residential>, fillcolor="#399de5ff"] ;
448 -> 450 ;
451 [label=<SidewalkCount &le; 40.5<br/>gini = 0.5<br/>samples = 2<br/>value = [1, 0, 1, 0]<br/>class = Commercial>, fillcolor="#e5813900"] ;
437 -> 451 ;
452 [label=<gini = 0.0<br/>samples = 1<br/>value = [1, 0, 0, 0]<br/>class = Commercial>, fillcolor="#e58139ff"] ;
451 -> 452 ;
453 [label=<gini = 0.0<br/>samples = 1<br/>value = [0, 0, 1, 0]<br/>class = Residential>, fillcolor="#399de5ff"] ;
451 -> 453 ;
454 [label=<Uncovered DeckCount &le; 0.5<br/>gini = 0.5<br/>samples = 2<br/>value = [1, 0, 1, 0]<br/>class = Commercial>, fillcolor="#e5813900"] ;
436 -> 454 ;
455 [label=<gini = 0.0<br/>samples = 1<br/>value = [1, 0, 0, 0]<br/>class = Commercial>, fillcolor="#e58139ff"] ;
454 -> 455 ;
456 [label=<gini = 0.0<br/>samples = 1<br/>value = [0, 0, 1, 0]<br/>class = Residential>, fillcolor="#399de5ff"] ;
454 -> 456 ;
457 [label=<gini = 0.0<br/>samples = 1<br/>value = [1, 0, 0, 0]<br/>class = Commercial>, fillcolor="#e58139ff"] ;
435 -> 457 ;
458 [label=<gini = 0.0<br/>samples = 1<br/>value = [1, 0, 0, 0]<br/>class = Commercial>, fillcolor="#e58139ff"] ;
434 -> 458 ;
459 [label=<gini = 0.0<br/>samples = 1<br/>value = [1, 0, 0, 0]<br/>class = Commercial>, fillcolor="#e58139ff"] ;
431 -> 459 ;
460 [label=<gini = 0.0<br/>samples = 1<br/>value = [0, 0, 0, 1]<br/>class = Special Purpose>, fillcolor="#d739e5ff"] ;
430 -> 460 ;
461 [label=<PavementCount &le; 2.5<br/>gini = 0.5<br/>samples = 2<br/>value = [1, 0, 0, 1]<br/>class = Commercial>, fillcolor="#e5813900"] ;
429 -> 461 ;
462 [label=<gini = 0.0<br/>samples = 1<br/>value = [1, 0, 0, 0]<br/>class = Commercial>, fillcolor="#e58139ff"] ;
461 -> 462 ;
463 [label=<gini = 0.0<br/>samples = 1<br/>value = [0, 0, 0, 1]<br/>class = Special Purpose>, fillcolor="#d739e5ff"] ;
461 -> 463 ;
464 [label=<PavementCount &le; 16.0<br/>gini = 0.5<br/>samples = 2<br/>value = [0, 1, 0, 1]<br/>class = Industrial>, fillcolor="#47e53900"] ;
428 -> 464 ;
465 [label=<gini = 0.0<br/>samples = 1<br/>value = [0, 0, 0, 1]<br/>class = Special Purpose>, fillcolor="#d739e5ff"] ;
464 -> 465 ;
466 [label=<gini = 0.0<br/>samples = 1<br/>value = [0, 1, 0, 0]<br/>class = Industrial>, fillcolor="#47e539ff"] ;
464 -> 466 ;
467 [label=<percentPaved ParkingArea &le; 1.248<br/>gini = 0.569<br/>samples = 12<br/>value = [5, 0, 6, 1]<br/>class = Residential>, fillcolor="#399de524"] ;
427 -> 467 ;
468 [label=<percentStructureArea &le; 0.449<br/>gini = 0.531<br/>samples = 8<br/>value = [5, 0, 2, 1]<br/>class = Commercial>, fillcolor="#e5813980"] ;
467 -> 468 ;
469 [label=<gini = 0.0<br/>samples = 5<br/>value = [5, 0, 0, 0]<br/>class = Commercial>, fillcolor="#e58139ff"] ;
468 -> 469 ;
470 [label=<percentSidewalkArea &le; 0.344<br/>gini = 0.444<br/>samples = 3<br/>value = [0, 0, 2, 1]<br/>class = Residential>, fillcolor="#399de57f"] ;
468 -> 470 ;
471 [label=<gini = 0.0<br/>samples = 2<br/>value = [0, 0, 2, 0]<br/>class = Residential>, fillcolor="#399de5ff"] ;
470 -> 471 ;
472 [label=<gini = 0.0<br/>samples = 1<br/>value = [0, 0, 0, 1]<br/>class = Special Purpose>, fillcolor="#d739e5ff"] ;
470 -> 472 ;
473 [label=<gini = 0.0<br/>samples = 4<br/>value = [0, 0, 4, 0]<br/>class = Residential>, fillcolor="#399de5ff"] ;
467 -> 473 ;
474 [label=<gini = 0.0<br/>samples = 2<br/>value = [2, 0, 0, 0]<br/>class = Commercial>, fillcolor="#e58139ff"] ;
376 -> 474 ;
475 [label=<zoneID &le; 136126.0<br/>gini = 0.507<br/>samples = 193<br/>value = [28, 0, 127, 38]<br/>class = Residential>, fillcolor="#399de592"] ;
277 -> 475 ;
476 [label=<zoneID &le; 128980.0<br/>gini = 0.256<br/>samples = 121<br/>value = [17, 0, 103, 1]<br/>class = Residential>, fillcolor="#399de5d3"] ;
475 -> 476 ;
477 [label=<percentUncovered DeckArea &le; 0.079<br/>gini = 0.033<br/>samples = 59<br/>value = [1, 0, 58, 0]<br/>class = Residential>, fillcolor="#399de5fb"] ;
476 -> 477 ;
478 [label=<gini = 0.0<br/>samples = 58<br/>value = [0, 0, 58, 0]<br/>class = Residential>, fillcolor="#399de5ff"] ;
477 -> 478 ;
479 [label=<gini = 0.0<br/>samples = 1<br/>value = [1, 0, 0, 0]<br/>class = Commercial>, fillcolor="#e58139ff"] ;
477 -> 479 ;
480 [label=<zoneID &le; 129071.0<br/>gini = 0.406<br/>samples = 62<br/>value = [16, 0, 45, 1]<br/>class = Residential>, fillcolor="#399de5a1"] ;
476 -> 480 ;
481 [label=<gini = 0.0<br/>samples = 9<br/>value = [9, 0, 0, 0]<br/>class = Commercial>, fillcolor="#e58139ff"] ;
480 -> 481 ;
482 [label=<percentStructureArea &le; 1.061<br/>gini = 0.261<br/>samples = 53<br/>value = [7, 0, 45, 1]<br/>class = Residential>, fillcolor="#399de5d3"] ;
480 -> 482 ;
483 [label=<zoneArea &le; 506468.281<br/>gini = 0.138<br/>samples = 41<br/>value = [2, 0, 38, 1]<br/>class = Residential>, fillcolor="#399de5eb"] ;
482 -> 483 ;
484 [label=<percentSidewalkArea &le; 0.002<br/>gini = 0.095<br/>samples = 40<br/>value = [2, 0, 38, 0]<br/>class = Residential>, fillcolor="#399de5f2"] ;
483 -> 484 ;
485 [label=<percentStructureArea &le; 0.642<br/>gini = 0.375<br/>samples = 8<br/>value = [2, 0, 6, 0]<br/>class = Residential>, fillcolor="#399de5aa"] ;
484 -> 485 ;
486 [label=<gini = 0.0<br/>samples = 2<br/>value = [2, 0, 0, 0]<br/>class = Commercial>, fillcolor="#e58139ff"] ;
485 -> 486 ;
487 [label=<gini = 0.0<br/>samples = 6<br/>value = [0, 0, 6, 0]<br/>class = Residential>, fillcolor="#399de5ff"] ;
485 -> 487 ;
488 [label=<gini = 0.0<br/>samples = 32<br/>value = [0, 0, 32, 0]<br/>class = Residential>, fillcolor="#399de5ff"] ;
484 -> 488 ;
489 [label=<gini = 0.0<br/>samples = 1<br/>value = [0, 0, 0, 1]<br/>class = Special Purpose>, fillcolor="#d739e5ff"] ;
483 -> 489 ;
490 [label=<StructureCount &le; 1.5<br/>gini = 0.486<br/>samples = 12<br/>value = [5, 0, 7, 0]<br/>class = Residential>, fillcolor="#399de549"] ;
482 -> 490 ;
491 [label=<gini = 0.0<br/>samples = 3<br/>value = [3, 0, 0, 0]<br/>class = Commercial>, fillcolor="#e58139ff"] ;
490 -> 491 ;
492 [label=<percentSidewalkArea &le; 0.011<br/>gini = 0.346<br/>samples = 9<br/>value = [2, 0, 7, 0]<br/>class = Residential>, fillcolor="#399de5b6"] ;
490 -> 492 ;
493 [label=<percentUncovered DeckArea &le; 0.037<br/>gini = 0.444<br/>samples = 3<br/>value = [2, 0, 1, 0]<br/>class = Commercial>, fillcolor="#e581397f"] ;
492 -> 493 ;
494 [label=<gini = 0.0<br/>samples = 2<br/>value = [2, 0, 0, 0]<br/>class = Commercial>, fillcolor="#e58139ff"] ;
493 -> 494 ;
495 [label=<gini = 0.0<br/>samples = 1<br/>value = [0, 0, 1, 0]<br/>class = Residential>, fillcolor="#399de5ff"] ;
493 -> 495 ;
496 [label=<gini = 0.0<br/>samples = 6<br/>value = [0, 0, 6, 0]<br/>class = Residential>, fillcolor="#399de5ff"] ;
492 -> 496 ;
497 [label=<zoneID &le; 136512.0<br/>gini = 0.601<br/>samples = 72<br/>value = [11, 0, 24, 37]<br/>class = Special Purpose>, fillcolor="#d739e545"] ;
475 -> 497 ;
498 [label=<percentPaved ParkingArea &le; 0.042<br/>gini = 0.28<br/>samples = 44<br/>value = [4, 0, 3, 37]<br/>class = Special Purpose>, fillcolor="#d739e5d2"] ;
497 -> 498 ;
499 [label=<percentStructureArea &le; 1.669<br/>gini = 0.051<br/>samples = 38<br/>value = [0, 0, 1, 37]<br/>class = Special Purpose>, fillcolor="#d739e5f8"] ;
498 -> 499 ;
500 [label=<gini = 0.0<br/>samples = 37<br/>value = [0, 0, 0, 37]<br/>class = Special Purpose>, fillcolor="#d739e5ff"] ;
499 -> 500 ;
501 [label=<gini = 0.0<br/>samples = 1<br/>value = [0, 0, 1, 0]<br/>class = Residential>, fillcolor="#399de5ff"] ;
499 -> 501 ;
502 [label=<zoneID &le; 136241.0<br/>gini = 0.444<br/>samples = 6<br/>value = [4, 0, 2, 0]<br/>class = Commercial>, fillcolor="#e581397f"] ;
498 -> 502 ;
503 [label=<gini = 0.0<br/>samples = 4<br/>value = [4, 0, 0, 0]<br/>class = Commercial>, fillcolor="#e58139ff"] ;
502 -> 503 ;
504 [label=<gini = 0.0<br/>samples = 2<br/>value = [0, 0, 2, 0]<br/>class = Residential>, fillcolor="#399de5ff"] ;
502 -> 504 ;
505 [label=<zoneID &le; 137295.0<br/>gini = 0.375<br/>samples = 28<br/>value = [7, 0, 21, 0]<br/>class = Residential>, fillcolor="#399de5aa"] ;
497 -> 505 ;
506 [label=<percentPaved ParkingArea &le; 0.682<br/>gini = 0.219<br/>samples = 24<br/>value = [3, 0, 21, 0]<br/>class = Residential>, fillcolor="#399de5db"] ;
505 -> 506 ;
507 [label=<zoneID &le; 136697.5<br/>gini = 0.091<br/>samples = 21<br/>value = [1, 0, 20, 0]<br/>class = Residential>, fillcolor="#399de5f2"] ;
506 -> 507 ;
508 [label=<gini = 0.0<br/>samples = 1<br/>value = [1, 0, 0, 0]<br/>class = Commercial>, fillcolor="#e58139ff"] ;
507 -> 508 ;
509 [label=<gini = 0.0<br/>samples = 20<br/>value = [0, 0, 20, 0]<br/>class = Residential>, fillcolor="#399de5ff"] ;
507 -> 509 ;
510 [label=<percentSidewalkArea &le; 0.028<br/>gini = 0.444<br/>samples = 3<br/>value = [2, 0, 1, 0]<br/>class = Commercial>, fillcolor="#e581397f"] ;
506 -> 510 ;
511 [label=<gini = 0.0<br/>samples = 1<br/>value = [0, 0, 1, 0]<br/>class = Residential>, fillcolor="#399de5ff"] ;
510 -> 511 ;
512 [label=<gini = 0.0<br/>samples = 2<br/>value = [2, 0, 0, 0]<br/>class = Commercial>, fillcolor="#e58139ff"] ;
510 -> 512 ;
513 [label=<gini = 0.0<br/>samples = 4<br/>value = [4, 0, 0, 0]<br/>class = Commercial>, fillcolor="#e58139ff"] ;
505 -> 513 ;
514 [label=<percentPaved DrivewayArea &le; 0.028<br/>gini = 0.658<br/>samples = 1770<br/>value = [737, 19, 590, 424]<br/>class = Commercial>, fillcolor="#e5813920"] ;
116 -> 514 ;
515 [label=<percentPaved ParkingArea &le; 0.505<br/>gini = 0.601<br/>samples = 1073<br/>value = [574, 17, 159, 323]<br/>class = Commercial>, fillcolor="#e5813955"] ;
514 -> 515 ;
516 [label=<percentStructureArea &le; 0.864<br/>gini = 0.639<br/>samples = 620<br/>value = [228, 10, 108, 274]<br/>class = Special Purpose>, fillcolor="#d739e51e"] ;
515 -> 516 ;
517 [label=<percentCompacted SoilArea &le; 1.125<br/>gini = 0.635<br/>samples = 560<br/>value = [177, 9, 106, 268]<br/>class = Special Purpose>, fillcolor="#d739e53d"] ;
516 -> 517 ;
518 [label=<zoneArea &le; 628845.688<br/>gini = 0.654<br/>samples = 505<br/>value = [174, 9, 106, 216]<br/>class = Special Purpose>, fillcolor="#d739e520"] ;
517 -> 518 ;
519 [label=<percentPaved ParkingArea &le; 0.196<br/>gini = 0.66<br/>samples = 443<br/>value = [169, 5, 104, 165]<br/>class = Commercial>, fillcolor="#e5813904"] ;
518 -> 519 ;
520 [label=<percentUnpaved DrivewayArea &le; 0.018<br/>gini = 0.652<br/>samples = 289<br/>value = [85, 3, 72, 129]<br/>class = Special Purpose>, fillcolor="#d739e537"] ;
519 -> 520 ;
521 [label=<percentStructureArea &le; 0.608<br/>gini = 0.617<br/>samples = 241<br/>value = [67, 1, 49, 124]<br/>class = Special Purpose>, fillcolor="#d739e554"] ;
520 -> 521 ;
522 [label=<percentUnpaved RoadArea &le; 0.128<br/>gini = 0.648<br/>samples = 194<br/>value = [62, 1, 45, 86]<br/>class = Special Purpose>, fillcolor="#d739e52e"] ;
521 -> 522 ;
523 [label=<percentPaved RoadArea &le; 0.249<br/>gini = 0.657<br/>samples = 183<br/>value = [62, 1, 45, 75]<br/>class = Special Purpose>, fillcolor="#d739e51b"] ;
522 -> 523 ;
524 [label=<StructureCount &le; 1.5<br/>gini = 0.663<br/>samples = 149<br/>value = [57, 1, 39, 52]<br/>class = Commercial>, fillcolor="#e581390d"] ;
523 -> 524 ;
525 [label=<zoneID &le; 400362304.0<br/>gini = 0.615<br/>samples = 75<br/>value = [38, 1, 12, 24]<br/>class = Commercial>, fillcolor="#e5813946"] ;
524 -> 525 ;
526 [label=<zoneID &le; 230858.5<br/>gini = 0.531<br/>samples = 51<br/>value = [32, 1, 5, 13]<br/>class = Commercial>, fillcolor="#e5813980"] ;
525 -> 526 ;
527 [label=<zoneArea &le; 9817.351<br/>gini = 0.628<br/>samples = 23<br/>value = [9, 0, 4, 10]<br/>class = Special Purpose>, fillcolor="#d739e512"] ;
526 -> 527 ;
528 [label=<Open StorageCount &le; 0.5<br/>gini = 0.406<br/>samples = 8<br/>value = [6, 0, 1, 1]<br/>class = Commercial>, fillcolor="#e58139b6"] ;
527 -> 528 ;
529 [label=<percentSidewalkArea &le; 0.275<br/>gini = 0.245<br/>samples = 7<br/>value = [6, 0, 1, 0]<br/>class = Commercial>, fillcolor="#e58139d4"] ;
528 -> 529 ;
530 [label=<gini = 0.0<br/>samples = 6<br/>value = [6, 0, 0, 0]<br/>class = Commercial>, fillcolor="#e58139ff"] ;
529 -> 530 ;
531 [label=<gini = 0.0<br/>samples = 1<br/>value = [0, 0, 1, 0]<br/>class = Residential>, fillcolor="#399de5ff"] ;
529 -> 531 ;
532 [label=<gini = 0.0<br/>samples = 1<br/>value = [0, 0, 0, 1]<br/>class = Special Purpose>, fillcolor="#d739e5ff"] ;
528 -> 532 ;
533 [label=<TankCount &le; 0.5<br/>gini = 0.56<br/>samples = 15<br/>value = [3, 0, 3, 9]<br/>class = Special Purpose>, fillcolor="#d739e57f"] ;
527 -> 533 ;
534 [label=<percentPaved DrivewayArea &le; 0.011<br/>gini = 0.462<br/>samples = 13<br/>value = [3, 0, 1, 9]<br/>class = Special Purpose>, fillcolor="#d739e599"] ;
533 -> 534 ;
535 [label=<Unpaved Athletic FieldCount &le; 0.5<br/>gini = 0.298<br/>samples = 11<br/>value = [2, 0, 0, 9]<br/>class = Special Purpose>, fillcolor="#d739e5c6"] ;
534 -> 535 ;
536 [label=<zoneID &le; 137855.5<br/>gini = 0.18<br/>samples = 10<br/>value = [1, 0, 0, 9]<br/>class = Special Purpose>, fillcolor="#d739e5e3"] ;
535 -> 536 ;
537 [label=<zoneID &le; 137704.5<br/>gini = 0.5<br/>samples = 2<br/>value = [1, 0, 0, 1]<br/>class = Commercial>, fillcolor="#e5813900"] ;
536 -> 537 ;
538 [label=<gini = 0.0<br/>samples = 1<br/>value = [0, 0, 0, 1]<br/>class = Special Purpose>, fillcolor="#d739e5ff"] ;
537 -> 538 ;
539 [label=<gini = 0.0<br/>samples = 1<br/>value = [1, 0, 0, 0]<br/>class = Commercial>, fillcolor="#e58139ff"] ;
537 -> 539 ;
540 [label=<gini = 0.0<br/>samples = 8<br/>value = [0, 0, 0, 8]<br/>class = Special Purpose>, fillcolor="#d739e5ff"] ;
536 -> 540 ;
541 [label=<gini = 0.0<br/>samples = 1<br/>value = [1, 0, 0, 0]<br/>class = Commercial>, fillcolor="#e58139ff"] ;
535 -> 541 ;
542 [label=<percentPavementArea &le; 0.008<br/>gini = 0.5<br/>samples = 2<br/>value = [1, 0, 1, 0]<br/>class = Commercial>, fillcolor="#e5813900"] ;
534 -> 542 ;
543 [label=<gini = 0.0<br/>samples = 1<br/>value = [0, 0, 1, 0]<br/>class = Residential>, fillcolor="#399de5ff"] ;
542 -> 543 ;
544 [label=<gini = 0.0<br/>samples = 1<br/>value = [1, 0, 0, 0]<br/>class = Commercial>, fillcolor="#e58139ff"] ;
542 -> 544 ;
545 [label=<gini = 0.0<br/>samples = 2<br/>value = [0, 0, 2, 0]<br/>class = Residential>, fillcolor="#399de5ff"] ;
533 -> 545 ;
546 [label=<percentSidewalkArea &le; 1.985<br/>gini = 0.311<br/>samples = 28<br/>value = [23, 1, 1, 3]<br/>class = Commercial>, fillcolor="#e58139cc"] ;
526 -> 546 ;
547 [label=<Gravel/SandpitCount &le; 1.0<br/>gini = 0.213<br/>samples = 26<br/>value = [23, 1, 1, 1]<br/>class = Commercial>, fillcolor="#e58139e0"] ;
546 -> 547 ;
548 [label=<Paved DrivewayCount &le; 0.5<br/>gini = 0.15<br/>samples = 25<br/>value = [23, 0, 1, 1]<br/>class = Commercial>, fillcolor="#e58139ea"] ;
547 -> 548 ;
549 [label=<percentSidewalkArea &le; 0.184<br/>gini = 0.08<br/>samples = 24<br/>value = [23, 0, 1, 0]<br/>class = Commercial>, fillcolor="#e58139f4"] ;
548 -> 549 ;
550 [label=<gini = 0.0<br/>samples = 21<br/>value = [21, 0, 0, 0]<br/>class = Commercial>, fillcolor="#e58139ff"] ;
549 -> 550 ;
551 [label=<percentSidewalkArea &le; 0.233<br/>gini = 0.444<br/>samples = 3<br/>value = [2, 0, 1, 0]<br/>class = Commercial>, fillcolor="#e581397f"] ;
549 -> 551 ;
552 [label=<gini = 0.0<br/>samples = 1<br/>value = [0, 0, 1, 0]<br/>class = Residential>, fillcolor="#399de5ff"] ;
551 -> 552 ;
553 [label=<gini = 0.0<br/>samples = 2<br/>value = [2, 0, 0, 0]<br/>class = Commercial>, fillcolor="#e58139ff"] ;
551 -> 553 ;
554 [label=<gini = 0.0<br/>samples = 1<br/>value = [0, 0, 0, 1]<br/>class = Special Purpose>, fillcolor="#d739e5ff"] ;
548 -> 554 ;
555 [label=<gini = 0.0<br/>samples = 1<br/>value = [0, 1, 0, 0]<br/>class = Industrial>, fillcolor="#47e539ff"] ;
547 -> 555 ;
556 [label=<gini = 0.0<br/>samples = 2<br/>value = [0, 0, 0, 2]<br/>class = Special Purpose>, fillcolor="#d739e5ff"] ;
546 -> 556 ;
557 [label=<zoneArea &le; 69889.928<br/>gini = 0.642<br/>samples = 24<br/>value = [6, 0, 7, 11]<br/>class = Special Purpose>, fillcolor="#d739e53c"] ;
525 -> 557 ;
558 [label=<percentStructureArea &le; 0.203<br/>gini = 0.639<br/>samples = 13<br/>value = [4, 0, 6, 3]<br/>class = Residential>, fillcolor="#399de539"] ;
557 -> 558 ;
559 [label=<zoneID &le; 400410912.0<br/>gini = 0.494<br/>samples = 9<br/>value = [2, 0, 6, 1]<br/>class = Residential>, fillcolor="#399de592"] ;
558 -> 559 ;
560 [label=<SidewalkCount &le; 1.5<br/>gini = 0.5<br/>samples = 2<br/>value = [1, 0, 0, 1]<br/>class = Commercial>, fillcolor="#e5813900"] ;
559 -> 560 ;
561 [label=<gini = 0.0<br/>samples = 1<br/>value = [0, 0, 0, 1]<br/>class = Special Purpose>, fillcolor="#d739e5ff"] ;
560 -> 561 ;
562 [label=<gini = 0.0<br/>samples = 1<br/>value = [1, 0, 0, 0]<br/>class = Commercial>, fillcolor="#e58139ff"] ;
560 -> 562 ;
563 [label=<percentOpen StorageArea &le; 0.277<br/>gini = 0.245<br/>samples = 7<br/>value = [1, 0, 6, 0]<br/>class = Residential>, fillcolor="#399de5d4"] ;
559 -> 563 ;
564 [label=<gini = 0.0<br/>samples = 6<br/>value = [0, 0, 6, 0]<br/>class = Residential>, fillcolor="#399de5ff"] ;
563 -> 564 ;
565 [label=<gini = 0.0<br/>samples = 1<br/>value = [1, 0, 0, 0]<br/>class = Commercial>, fillcolor="#e58139ff"] ;
563 -> 565 ;
566 [label=<Open SpaceCount &le; 0.5<br/>gini = 0.5<br/>samples = 4<br/>value = [2, 0, 0, 2]<br/>class = Commercial>, fillcolor="#e5813900"] ;
558 -> 566 ;
567 [label=<zoneArea &le; 8413.935<br/>gini = 0.444<br/>samples = 3<br/>value = [2, 0, 0, 1]<br/>class = Commercial>, fillcolor="#e581397f"] ;
566 -> 567 ;
568 [label=<gini = 0.0<br/>samples = 2<br/>value = [2, 0, 0, 0]<br/>class = Commercial>, fillcolor="#e58139ff"] ;
567 -> 568 ;
569 [label=<gini = 0.0<br/>samples = 1<br/>value = [0, 0, 0, 1]<br/>class = Special Purpose>, fillcolor="#d739e5ff"] ;
567 -> 569 ;
570 [label=<gini = 0.0<br/>samples = 1<br/>value = [0, 0, 0, 1]<br/>class = Special Purpose>, fillcolor="#d739e5ff"] ;
566 -> 570 ;
571 [label=<percentStructureArea &le; 0.004<br/>gini = 0.43<br/>samples = 11<br/>value = [2, 0, 1, 8]<br/>class = Special Purpose>, fillcolor="#d739e5aa"] ;
557 -> 571 ;
572 [label=<zoneArea &le; 289677.656<br/>gini = 0.198<br/>samples = 9<br/>value = [1, 0, 0, 8]<br/>class = Special Purpose>, fillcolor="#d739e5df"] ;
571 -> 572 ;
573 [label=<gini = 0.0<br/>samples = 8<br/>value = [0, 0, 0, 8]<br/>class = Special Purpose>, fillcolor="#d739e5ff"] ;
572 -> 573 ;
574 [label=<gini = 0.0<br/>samples = 1<br/>value = [1, 0, 0, 0]<br/>class = Commercial>, fillcolor="#e58139ff"] ;
572 -> 574 ;
575 [label=<SidewalkCount &le; 0.5<br/>gini = 0.5<br/>samples = 2<br/>value = [1, 0, 1, 0]<br/>class = Commercial>, fillcolor="#e5813900"] ;
571 -> 575 ;
576 [label=<gini = 0.0<br/>samples = 1<br/>value = [1, 0, 0, 0]<br/>class = Commercial>, fillcolor="#e58139ff"] ;
575 -> 576 ;
577 [label=<gini = 0.0<br/>samples = 1<br/>value = [0, 0, 1, 0]<br/>class = Residential>, fillcolor="#399de5ff"] ;
575 -> 577 ;
578 [label=<zoneArea &le; 11287.252<br/>gini = 0.658<br/>samples = 74<br/>value = [19, 0, 27, 28]<br/>class = Special Purpose>, fillcolor="#d739e505"] ;
524 -> 578 ;
579 [label=<zoneArea &le; 5263.376<br/>gini = 0.165<br/>samples = 11<br/>value = [1, 0, 10, 0]<br/>class = Residential>, fillcolor="#399de5e6"] ;
578 -> 579 ;
580 [label=<PatioCount &le; 0.5<br/>gini = 0.5<br/>samples = 2<br/>value = [1, 0, 1, 0]<br/>class = Commercial>, fillcolor="#e5813900"] ;
579 -> 580 ;
581 [label=<gini = 0.0<br/>samples = 1<br/>value = [0, 0, 1, 0]<br/>class = Residential>, fillcolor="#399de5ff"] ;
580 -> 581 ;
582 [label=<gini = 0.0<br/>samples = 1<br/>value = [1, 0, 0, 0]<br/>class = Commercial>, fillcolor="#e58139ff"] ;
580 -> 582 ;
583 [label=<gini = 0.0<br/>samples = 9<br/>value = [0, 0, 9, 0]<br/>class = Residential>, fillcolor="#399de5ff"] ;
579 -> 583 ;
584 [label=<zoneID &le; 400511408.0<br/>gini = 0.648<br/>samples = 63<br/>value = [18, 0, 17, 28]<br/>class = Special Purpose>, fillcolor="#d739e539"] ;
578 -> 584 ;
585 [label=<percentPaved DrivewayArea &le; 0.001<br/>gini = 0.632<br/>samples = 57<br/>value = [18, 0, 12, 27]<br/>class = Special Purpose>, fillcolor="#d739e53b"] ;
584 -> 585 ;
586 [label=<zoneID &le; 232539.5<br/>gini = 0.651<br/>samples = 43<br/>value = [17, 0, 10, 16]<br/>class = Commercial>, fillcolor="#e5813909"] ;
585 -> 586 ;
587 [label=<zoneID &le; 223304.0<br/>gini = 0.622<br/>samples = 24<br/>value = [5, 0, 7, 12]<br/>class = Special Purpose>, fillcolor="#d739e54b"] ;
586 -> 587 ;
588 [label=<percentPavementArea &le; 0.003<br/>gini = 0.562<br/>samples = 11<br/>value = [4, 0, 6, 1]<br/>class = Residential>, fillcolor="#399de549"] ;
587 -> 588 ;
589 [label=<percentOpen SpaceArea &le; 0.11<br/>gini = 0.245<br/>samples = 7<br/>value = [1, 0, 6, 0]<br/>class = Residential>, fillcolor="#399de5d4"] ;
588 -> 589 ;
590 [label=<gini = 0.0<br/>samples = 6<br/>value = [0, 0, 6, 0]<br/>class = Residential>, fillcolor="#399de5ff"] ;
589 -> 590 ;
591 [label=<gini = 0.0<br/>samples = 1<br/>value = [1, 0, 0, 0]<br/>class = Commercial>, fillcolor="#e58139ff"] ;
589 -> 591 ;
592 [label=<Unpaved Athletic FieldCount &le; 1.0<br/>gini = 0.375<br/>samples = 4<br/>value = [3, 0, 0, 1]<br/>class = Commercial>, fillcolor="#e58139aa"] ;
588 -> 592 ;
593 [label=<gini = 0.0<br/>samples = 3<br/>value = [3, 0, 0, 0]<br/>class = Commercial>, fillcolor="#e58139ff"] ;
592 -> 593 ;
594 [label=<gini = 0.0<br/>samples = 1<br/>value = [0, 0, 0, 1]<br/>class = Special Purpose>, fillcolor="#d739e5ff"] ;
592 -> 594 ;
595 [label=<percentUncovered DeckArea &le; 0.0<br/>gini = 0.272<br/>samples = 13<br/>value = [1, 0, 1, 11]<br/>class = Special Purpose>, fillcolor="#d739e5d4"] ;
587 -> 595 ;
596 [label=<percentUnpaved ParkingArea &le; 0.694<br/>gini = 0.153<br/>samples = 12<br/>value = [1, 0, 0, 11]<br/>class = Special Purpose>, fillcolor="#d739e5e8"] ;
595 -> 596 ;
597 [label=<gini = 0.0<br/>samples = 11<br/>value = [0, 0, 0, 11]<br/>class = Special Purpose>, fillcolor="#d739e5ff"] ;
596 -> 597 ;
598 [label=<gini = 0.0<br/>samples = 1<br/>value = [1, 0, 0, 0]<br/>class = Commercial>, fillcolor="#e58139ff"] ;
596 -> 598 ;
599 [label=<gini = 0.0<br/>samples = 1<br/>value = [0, 0, 1, 0]<br/>class = Residential>, fillcolor="#399de5ff"] ;
595 -> 599 ;
600 [label=<percentPatioArea &le; 0.009<br/>gini = 0.532<br/>samples = 19<br/>value = [12, 0, 3, 4]<br/>class = Commercial>, fillcolor="#e5813988"] ;
586 -> 600 ;
601 [label=<percentStructureArea &le; 0.377<br/>gini = 0.32<br/>samples = 15<br/>value = [12, 0, 0, 3]<br/>class = Commercial>, fillcolor="#e58139bf"] ;
600 -> 601 ;
602 [label=<BridgeCount &le; 0.5<br/>gini = 0.153<br/>samples = 12<br/>value = [11, 0, 0, 1]<br/>class = Commercial>, fillcolor="#e58139e8"] ;
601 -> 602 ;
603 [label=<gini = 0.0<br/>samples = 11<br/>value = [11, 0, 0, 0]<br/>class = Commercial>, fillcolor="#e58139ff"] ;
602 -> 603 ;
604 [label=<gini = 0.0<br/>samples = 1<br/>value = [0, 0, 0, 1]<br/>class = Special Purpose>, fillcolor="#d739e5ff"] ;
602 -> 604 ;
605 [label=<percentGravel/SandpitArea &le; 0.022<br/>gini = 0.444<br/>samples = 3<br/>value = [1, 0, 0, 2]<br/>class = Special Purpose>, fillcolor="#d739e57f"] ;
601 -> 605 ;
606 [label=<gini = 0.0<br/>samples = 2<br/>value = [0, 0, 0, 2]<br/>class = Special Purpose>, fillcolor="#d739e5ff"] ;
605 -> 606 ;
607 [label=<gini = 0.0<br/>samples = 1<br/>value = [1, 0, 0, 0]<br/>class = Commercial>, fillcolor="#e58139ff"] ;
605 -> 607 ;
608 [label=<percentStructureArea &le; 0.375<br/>gini = 0.375<br/>samples = 4<br/>value = [0, 0, 3, 1]<br/>class = Residential>, fillcolor="#399de5aa"] ;
600 -> 608 ;
609 [label=<gini = 0.0<br/>samples = 3<br/>value = [0, 0, 3, 0]<br/>class = Residential>, fillcolor="#399de5ff"] ;
608 -> 609 ;
610 [label=<gini = 0.0<br/>samples = 1<br/>value = [0, 0, 0, 1]<br/>class = Special Purpose>, fillcolor="#d739e5ff"] ;
608 -> 610 ;
611 [label=<percentSidewalkArea &le; 0.011<br/>gini = 0.357<br/>samples = 14<br/>value = [1, 0, 2, 11]<br/>class = Special Purpose>, fillcolor="#d739e5bf"] ;
585 -> 611 ;
612 [label=<percentPatioArea &le; 0.006<br/>gini = 0.64<br/>samples = 5<br/>value = [1, 0, 2, 2]<br/>class = Residential>, fillcolor="#399de500"] ;
611 -> 612 ;
613 [label=<gini = 0.0<br/>samples = 2<br/>value = [0, 0, 0, 2]<br/>class = Special Purpose>, fillcolor="#d739e5ff"] ;
612 -> 613 ;
614 [label=<percentUnpaved DrivewayArea &le; 0.009<br/>gini = 0.444<br/>samples = 3<br/>value = [1, 0, 2, 0]<br/>class = Residential>, fillcolor="#399de57f"] ;
612 -> 614 ;
615 [label=<gini = 0.0<br/>samples = 2<br/>value = [0, 0, 2, 0]<br/>class = Residential>, fillcolor="#399de5ff"] ;
614 -> 615 ;
616 [label=<gini = 0.0<br/>samples = 1<br/>value = [1, 0, 0, 0]<br/>class = Commercial>, fillcolor="#e58139ff"] ;
614 -> 616 ;
617 [label=<gini = 0.0<br/>samples = 9<br/>value = [0, 0, 0, 9]<br/>class = Special Purpose>, fillcolor="#d739e5ff"] ;
611 -> 617 ;
618 [label=<percentUncovered DeckArea &le; 0.03<br/>gini = 0.278<br/>samples = 6<br/>value = [0, 0, 5, 1]<br/>class = Residential>, fillcolor="#399de5cc"] ;
584 -> 618 ;
619 [label=<gini = 0.0<br/>samples = 5<br/>value = [0, 0, 5, 0]<br/>class = Residential>, fillcolor="#399de5ff"] ;
618 -> 619 ;
620 [label=<gini = 0.0<br/>samples = 1<br/>value = [0, 0, 0, 1]<br/>class = Special Purpose>, fillcolor="#d739e5ff"] ;
618 -> 620 ;
621 [label=<Paved ParkingCount &le; 1.5<br/>gini = 0.49<br/>samples = 34<br/>value = [5, 0, 6, 23]<br/>class = Special Purpose>, fillcolor="#d739e59b"] ;
523 -> 621 ;
622 [label=<percentPavementArea &le; 0.007<br/>gini = 0.443<br/>samples = 32<br/>value = [5, 0, 4, 23]<br/>class = Special Purpose>, fillcolor="#d739e5aa"] ;
621 -> 622 ;
623 [label=<percentPavementArea &le; 0.001<br/>gini = 0.58<br/>samples = 21<br/>value = [5, 0, 4, 12]<br/>class = Special Purpose>, fillcolor="#d739e570"] ;
622 -> 623 ;
624 [label=<zoneID &le; 400515120.0<br/>gini = 0.462<br/>samples = 13<br/>value = [1, 0, 3, 9]<br/>class = Special Purpose>, fillcolor="#d739e599"] ;
623 -> 624 ;
625 [label=<percentRecreation Court/Ball FieldArea &le; 0.019<br/>gini = 0.375<br/>samples = 12<br/>value = [0, 0, 3, 9]<br/>class = Special Purpose>, fillcolor="#d739e5aa"] ;
624 -> 625 ;
626 [label=<Open SpaceCount &le; 0.5<br/>gini = 0.298<br/>samples = 11<br/>value = [0, 0, 2, 9]<br/>class = Special Purpose>, fillcolor="#d739e5c6"] ;
625 -> 626 ;
627 [label=<In Ground PoolCount &le; 0.5<br/>gini = 0.18<br/>samples = 10<br/>value = [0, 0, 1, 9]<br/>class = Special Purpose>, fillcolor="#d739e5e3"] ;
626 -> 627 ;
628 [label=<gini = 0.0<br/>samples = 9<br/>value = [0, 0, 0, 9]<br/>class = Special Purpose>, fillcolor="#d739e5ff"] ;
627 -> 628 ;
629 [label=<gini = 0.0<br/>samples = 1<br/>value = [0, 0, 1, 0]<br/>class = Residential>, fillcolor="#399de5ff"] ;
627 -> 629 ;
630 [label=<gini = 0.0<br/>samples = 1<br/>value = [0, 0, 1, 0]<br/>class = Residential>, fillcolor="#399de5ff"] ;
626 -> 630 ;
631 [label=<gini = 0.0<br/>samples = 1<br/>value = [0, 0, 1, 0]<br/>class = Residential>, fillcolor="#399de5ff"] ;
625 -> 631 ;
632 [label=<gini = 0.0<br/>samples = 1<br/>value = [1, 0, 0, 0]<br/>class = Commercial>, fillcolor="#e58139ff"] ;
624 -> 632 ;
633 [label=<zoneID &le; 400227824.0<br/>gini = 0.594<br/>samples = 8<br/>value = [4, 0, 1, 3]<br/>class = Commercial>, fillcolor="#e5813933"] ;
623 -> 633 ;
634 [label=<gini = 0.0<br/>samples = 4<br/>value = [4, 0, 0, 0]<br/>class = Commercial>, fillcolor="#e58139ff"] ;
633 -> 634 ;
635 [label=<percentPavementArea &le; 0.002<br/>gini = 0.375<br/>samples = 4<br/>value = [0, 0, 1, 3]<br/>class = Special Purpose>, fillcolor="#d739e5aa"] ;
633 -> 635 ;
636 [label=<gini = 0.0<br/>samples = 1<br/>value = [0, 0, 1, 0]<br/>class = Residential>, fillcolor="#399de5ff"] ;
635 -> 636 ;
637 [label=<gini = 0.0<br/>samples = 3<br/>value = [0, 0, 0, 3]<br/>class = Special Purpose>, fillcolor="#d739e5ff"] ;
635 -> 637 ;
638 [label=<gini = 0.0<br/>samples = 11<br/>value = [0, 0, 0, 11]<br/>class = Special Purpose>, fillcolor="#d739e5ff"] ;
622 -> 638 ;
639 [label=<gini = 0.0<br/>samples = 2<br/>value = [0, 0, 2, 0]<br/>class = Residential>, fillcolor="#399de5ff"] ;
621 -> 639 ;
640 [label=<gini = 0.0<br/>samples = 11<br/>value = [0, 0, 0, 11]<br/>class = Special Purpose>, fillcolor="#d739e5ff"] ;
522 -> 640 ;
641 [label=<percentSidewalkArea &le; 0.226<br/>gini = 0.328<br/>samples = 47<br/>value = [5, 0, 4, 38]<br/>class = Special Purpose>, fillcolor="#d739e5c8"] ;
521 -> 641 ;
642 [label=<percentPaved ParkingArea &le; 0.123<br/>gini = 0.245<br/>samples = 44<br/>value = [3, 0, 3, 38]<br/>class = Special Purpose>, fillcolor="#d739e5da"] ;
641 -> 642 ;
643 [label=<percentStructureArea &le; 0.829<br/>gini = 0.145<br/>samples = 39<br/>value = [2, 0, 1, 36]<br/>class = Special Purpose>, fillcolor="#d739e5ea"] ;
642 -> 643 ;
644 [label=<percentCovered DeckArea &le; 0.003<br/>gini = 0.1<br/>samples = 38<br/>value = [2, 0, 0, 36]<br/>class = Special Purpose>, fillcolor="#d739e5f1"] ;
643 -> 644 ;
645 [label=<percentCompacted SoilArea &le; 0.169<br/>gini = 0.053<br/>samples = 37<br/>value = [1, 0, 0, 36]<br/>class = Special Purpose>, fillcolor="#d739e5f8"] ;
644 -> 645 ;
646 [label=<gini = 0.0<br/>samples = 34<br/>value = [0, 0, 0, 34]<br/>class = Special Purpose>, fillcolor="#d739e5ff"] ;
645 -> 646 ;
647 [label=<Paved RoadCount &le; 0.5<br/>gini = 0.444<br/>samples = 3<br/>value = [1, 0, 0, 2]<br/>class = Special Purpose>, fillcolor="#d739e57f"] ;
645 -> 647 ;
648 [label=<gini = 0.0<br/>samples = 2<br/>value = [0, 0, 0, 2]<br/>class = Special Purpose>, fillcolor="#d739e5ff"] ;
647 -> 648 ;
649 [label=<gini = 0.0<br/>samples = 1<br/>value = [1, 0, 0, 0]<br/>class = Commercial>, fillcolor="#e58139ff"] ;
647 -> 649 ;
650 [label=<gini = 0.0<br/>samples = 1<br/>value = [1, 0, 0, 0]<br/>class = Commercial>, fillcolor="#e58139ff"] ;
644 -> 650 ;
651 [label=<gini = 0.0<br/>samples = 1<br/>value = [0, 0, 1, 0]<br/>class = Residential>, fillcolor="#399de5ff"] ;
643 -> 651 ;
652 [label=<percentPatioArea &le; 0.013<br/>gini = 0.64<br/>samples = 5<br/>value = [1, 0, 2, 2]<br/>class = Residential>, fillcolor="#399de500"] ;
642 -> 652 ;
653 [label=<zoneID &le; 200291452.0<br/>gini = 0.444<br/>samples = 3<br/>value = [1, 0, 0, 2]<br/>class = Special Purpose>, fillcolor="#d739e57f"] ;
652 -> 653 ;
654 [label=<gini = 0.0<br/>samples = 2<br/>value = [0, 0, 0, 2]<br/>class = Special Purpose>, fillcolor="#d739e5ff"] ;
653 -> 654 ;
655 [label=<gini = 0.0<br/>samples = 1<br/>value = [1, 0, 0, 0]<br/>class = Commercial>, fillcolor="#e58139ff"] ;
653 -> 655 ;
656 [label=<gini = 0.0<br/>samples = 2<br/>value = [0, 0, 2, 0]<br/>class = Residential>, fillcolor="#399de5ff"] ;
652 -> 656 ;
657 [label=<percentSidewalkArea &le; 0.311<br/>gini = 0.444<br/>samples = 3<br/>value = [2, 0, 1, 0]<br/>class = Commercial>, fillcolor="#e581397f"] ;
641 -> 657 ;
658 [label=<gini = 0.0<br/>samples = 2<br/>value = [2, 0, 0, 0]<br/>class = Commercial>, fillcolor="#e58139ff"] ;
657 -> 658 ;
659 [label=<gini = 0.0<br/>samples = 1<br/>value = [0, 0, 1, 0]<br/>class = Residential>, fillcolor="#399de5ff"] ;
657 -> 659 ;
660 [label=<zoneID &le; 212609.5<br/>gini = 0.617<br/>samples = 48<br/>value = [18, 2, 23, 5]<br/>class = Residential>, fillcolor="#399de52b"] ;
520 -> 660 ;
661 [label=<StructureCount &le; 8.5<br/>gini = 0.219<br/>samples = 8<br/>value = [7, 1, 0, 0]<br/>class = Commercial>, fillcolor="#e58139db"] ;
660 -> 661 ;
662 [label=<gini = 0.0<br/>samples = 7<br/>value = [7, 0, 0, 0]<br/>class = Commercial>, fillcolor="#e58139ff"] ;
661 -> 662 ;
663 [label=<gini = 0.0<br/>samples = 1<br/>value = [0, 1, 0, 0]<br/>class = Industrial>, fillcolor="#47e539ff"] ;
661 -> 663 ;
664 [label=<percentCompacted SoilArea &le; 0.159<br/>gini = 0.578<br/>samples = 40<br/>value = [11, 1, 23, 5]<br/>class = Residential>, fillcolor="#399de56a"] ;
660 -> 664 ;
665 [label=<Unpaved RoadCount &le; 0.5<br/>gini = 0.548<br/>samples = 37<br/>value = [8, 1, 23, 5]<br/>class = Residential>, fillcolor="#399de584"] ;
664 -> 665 ;
666 [label=<zoneArea &le; 286334.641<br/>gini = 0.518<br/>samples = 35<br/>value = [6, 1, 23, 5]<br/>class = Residential>, fillcolor="#399de595"] ;
665 -> 666 ;
