digraph Tree {
node [shape=box, style="filled, rounded", color="black", fontname=helvetica] ;
edge [fontname=helvetica] ;
0 [label=<Paved DrivewayCount &le; 1.5<br/>gini = 0.577<br/>samples = 8548<br/>value = [3108, 103, 4539, 798]<br/>class = Residential>, fillcolor="#399de543"] ;
1 [label=<percentPaved ParkingArea &le; 0.471<br/>gini = 0.571<br/>samples = 4731<br/>value = [2725, 93, 1361, 552]<br/>class = Commercial>, fillcolor="#e5813967"] ;
0 -> 1 [labeldistance=2.5, labelangle=45, headlabel="True"] ;
2 [label=<percentStructureArea &le; 0.757<br/>gini = 0.637<br/>samples = 2622<br/>value = [1148, 48, 997, 429]<br/>class = Commercial>, fillcolor="#e5813918"] ;
1 -> 2 ;
3 [label=<percentStructureArea &le; 0.034<br/>gini = 0.648<br/>samples = 2184<br/>value = [788, 47, 945, 404]<br/>class = Residential>, fillcolor="#399de51d"] ;
2 -> 3 ;
4 [label=<percentCompacted SoilArea &le; 1.125<br/>gini = 0.632<br/>samples = 423<br/>value = [113, 16, 78, 216]<br/>class = Special Purpose>, fillcolor="#d739e555"] ;
3 -> 4 ;
5 [label=<PavementCount &le; 5.5<br/>gini = 0.662<br/>samples = 365<br/>value = [107, 16, 76, 166]<br/>class = Special Purpose>, fillcolor="#d739e53a"] ;
4 -> 5 ;
6 [label=<zoneArea &le; 36810.34<br/>gini = 0.679<br/>samples = 328<br/>value = [104, 15, 76, 133]<br/>class = Special Purpose>, fillcolor="#d739e521"] ;
5 -> 6 ;
7 [label=<Unpaved RoadCount &le; 0.5<br/>gini = 0.674<br/>samples = 145<br/>value = [59, 4, 41, 41]<br/>class = Commercial>, fillcolor="#e581392c"] ;
6 -> 7 ;
8 [label=<percentPaved RoadArea &le; 2.035<br/>gini = 0.667<br/>samples = 138<br/>value = [59, 4, 41, 34]<br/>class = Commercial>, fillcolor="#e581392f"] ;
7 -> 8 ;
9 [label=<percentMiscellaneousArea &le; 7.004<br/>gini = 0.647<br/>samples = 112<br/>value = [54, 4, 31, 23]<br/>class = Commercial>, fillcolor="#e5813948"] ;
8 -> 9 ;
10 [label=<zoneArea &le; 5350.924<br/>gini = 0.633<br/>samples = 108<br/>value = [54, 3, 31, 20]<br/>class = Commercial>, fillcolor="#e581394c"] ;
9 -> 10 ;
11 [label=<zoneArea &le; 603.327<br/>gini = 0.597<br/>samples = 23<br/>value = [8, 1, 12, 2]<br/>class = Residential>, fillcolor="#399de544"] ;
10 -> 11 ;
12 [label=<gini = 0.0<br/>samples = 3<br/>value = [3, 0, 0, 0]<br/>class = Commercial>, fillcolor="#e58139ff"] ;
11 -> 12 ;
13 [label=<zoneArea &le; 716.37<br/>gini = 0.565<br/>samples = 20<br/>value = [5, 1, 12, 2]<br/>class = Residential>, fillcolor="#399de577"] ;
11 -> 13 ;
14 [label=<gini = 0.0<br/>samples = 1<br/>value = [0, 0, 0, 1]<br/>class = Special Purpose>, fillcolor="#d739e5ff"] ;
13 -> 14 ;
15 [label=<percentSidewalkArea &le; 0.198<br/>gini = 0.526<br/>samples = 19<br/>value = [5, 1, 12, 1]<br/>class = Residential>, fillcolor="#399de57f"] ;
13 -> 15 ;
16 [label=<percentPaved DrivewayArea &le; 0.106<br/>gini = 0.593<br/>samples = 9<br/>value = [4, 1, 4, 0]<br/>class = Commercial>, fillcolor="#e5813900"] ;
15 -> 16 ;
17 [label=<percentPavementArea &le; 0.385<br/>gini = 0.571<br/>samples = 7<br/>value = [4, 1, 2, 0]<br/>class = Commercial>, fillcolor="#e5813966"] ;
16 -> 17 ;
18 [label=<gini = 0.0<br/>samples = 4<br/>value = [4, 0, 0, 0]<br/>class = Commercial>, fillcolor="#e58139ff"] ;
17 -> 18 ;
19 [label=<Recreation Court/Ball FieldCount &le; 0.5<br/>gini = 0.444<br/>samples = 3<br/>value = [0, 1, 2, 0]<br/>class = Residential>, fillcolor="#399de57f"] ;
17 -> 19 ;
20 [label=<zoneArea &le; 1190.647<br/>gini = 0.5<br/>samples = 2<br/>value = [0, 1, 1, 0]<br/>class = Industrial>, fillcolor="#47e53900"] ;
19 -> 20 ;
21 [label=<gini = 0.0<br/>samples = 1<br/>value = [0, 0, 1, 0]<br/>class = Residential>, fillcolor="#399de5ff"] ;
20 -> 21 ;
22 [label=<gini = 0.0<br/>samples = 1<br/>value = [0, 1, 0, 0]<br/>class = Industrial>, fillcolor="#47e539ff"] ;
20 -> 22 ;
23 [label=<gini = 0.0<br/>samples = 1<br/>value = [0, 0, 1, 0]<br/>class = Residential>, fillcolor="#399de5ff"] ;
19 -> 23 ;
24 [label=<gini = 0.0<br/>samples = 2<br/>value = [0, 0, 2, 0]<br/>class = Residential>, fillcolor="#399de5ff"] ;
16 -> 24 ;
25 [label=<zoneArea &le; 4179.204<br/>gini = 0.34<br/>samples = 10<br/>value = [1, 0, 8, 1]<br/>class = Residential>, fillcolor="#399de5c6"] ;
15 -> 25 ;
26 [label=<gini = 0.0<br/>samples = 6<br/>value = [0, 0, 6, 0]<br/>class = Residential>, fillcolor="#399de5ff"] ;
25 -> 26 ;
27 [label=<zoneArea &le; 4904.358<br/>gini = 0.625<br/>samples = 4<br/>value = [1, 0, 2, 1]<br/>class = Residential>, fillcolor="#399de555"] ;
25 -> 27 ;
28 [label=<SidewalkCount &le; 1.5<br/>gini = 0.5<br/>samples = 2<br/>value = [1, 0, 0, 1]<br/>class = Commercial>, fillcolor="#e5813900"] ;
27 -> 28 ;
29 [label=<gini = 0.0<br/>samples = 1<br/>value = [0, 0, 0, 1]<br/>class = Special Purpose>, fillcolor="#d739e5ff"] ;
28 -> 29 ;
30 [label=<gini = 0.0<br/>samples = 1<br/>value = [1, 0, 0, 0]<br/>class = Commercial>, fillcolor="#e58139ff"] ;
28 -> 30 ;
31 [label=<gini = 0.0<br/>samples = 2<br/>value = [0, 0, 2, 0]<br/>class = Residential>, fillcolor="#399de5ff"] ;
27 -> 31 ;
32 [label=<percentSidewalkArea &le; 0.068<br/>gini = 0.612<br/>samples = 85<br/>value = [46, 2, 19, 18]<br/>class = Commercial>, fillcolor="#e5813968"] ;
10 -> 32 ;
33 [label=<percentPaved DrivewayArea &le; 0.107<br/>gini = 0.545<br/>samples = 52<br/>value = [32, 1, 13, 6]<br/>class = Commercial>, fillcolor="#e581397c"] ;
32 -> 33 ;
34 [label=<percentCompacted SoilArea &le; 0.835<br/>gini = 0.503<br/>samples = 48<br/>value = [31, 0, 13, 4]<br/>class = Commercial>, fillcolor="#e5813983"] ;
33 -> 34 ;
35 [label=<StructureCount &le; 0.5<br/>gini = 0.484<br/>samples = 47<br/>value = [31, 0, 13, 3]<br/>class = Commercial>, fillcolor="#e5813987"] ;
34 -> 35 ;
36 [label=<percentUnpaved DrivewayArea &le; 0.805<br/>gini = 0.454<br/>samples = 40<br/>value = [28, 0, 9, 3]<br/>class = Commercial>, fillcolor="#e581399c"] ;
35 -> 36 ;
37 [label=<SidewalkCount &le; 0.5<br/>gini = 0.437<br/>samples = 39<br/>value = [28, 0, 8, 3]<br/>class = Commercial>, fillcolor="#e58139a5"] ;
36 -> 37 ;
38 [label=<percentPaved DrivewayArea &le; 0.053<br/>gini = 0.328<br/>samples = 26<br/>value = [21, 0, 3, 2]<br/>class = Commercial>, fillcolor="#e58139c8"] ;
37 -> 38 ;
39 [label=<percentCovered DeckArea &le; 0.002<br/>gini = 0.282<br/>samples = 25<br/>value = [21, 0, 2, 2]<br/>class = Commercial>, fillcolor="#e58139d3"] ;
38 -> 39 ;
40 [label=<percentPaved ParkingArea &le; 0.134<br/>gini = 0.226<br/>samples = 24<br/>value = [21, 0, 1, 2]<br/>class = Commercial>, fillcolor="#e58139dc"] ;
39 -> 40 ;
41 [label=<Open StorageCount &le; 0.5<br/>gini = 0.165<br/>samples = 22<br/>value = [20, 0, 0, 2]<br/>class = Commercial>, fillcolor="#e58139e6"] ;
40 -> 41 ;
42 [label=<PavementCount &le; 1.5<br/>gini = 0.091<br/>samples = 21<br/>value = [20, 0, 0, 1]<br/>class = Commercial>, fillcolor="#e58139f2"] ;
41 -> 42 ;
43 [label=<gini = 0.0<br/>samples = 18<br/>value = [18, 0, 0, 0]<br/>class = Commercial>, fillcolor="#e58139ff"] ;
42 -> 43 ;
44 [label=<percentPavementArea &le; 0.012<br/>gini = 0.444<br/>samples = 3<br/>value = [2, 0, 0, 1]<br/>class = Commercial>, fillcolor="#e581397f"] ;
42 -> 44 ;
45 [label=<gini = 0.0<br/>samples = 2<br/>value = [2, 0, 0, 0]<br/>class = Commercial>, fillcolor="#e58139ff"] ;
44 -> 45 ;
46 [label=<gini = 0.0<br/>samples = 1<br/>value = [0, 0, 0, 1]<br/>class = Special Purpose>, fillcolor="#d739e5ff"] ;
44 -> 46 ;
47 [label=<gini = 0.0<br/>samples = 1<br/>value = [0, 0, 0, 1]<br/>class = Special Purpose>, fillcolor="#d739e5ff"] ;
41 -> 47 ;
48 [label=<percentPaved ParkingArea &le; 0.223<br/>gini = 0.5<br/>samples = 2<br/>value = [1, 0, 1, 0]<br/>class = Commercial>, fillcolor="#e5813900"] ;
40 -> 48 ;
49 [label=<gini = 0.0<br/>samples = 1<br/>value = [0, 0, 1, 0]<br/>class = Residential>, fillcolor="#399de5ff"] ;
48 -> 49 ;
50 [label=<gini = 0.0<br/>samples = 1<br/>value = [1, 0, 0, 0]<br/>class = Commercial>, fillcolor="#e58139ff"] ;
48 -> 50 ;
51 [label=<gini = 0.0<br/>samples = 1<br/>value = [0, 0, 1, 0]<br/>class = Residential>, fillcolor="#399de5ff"] ;
39 -> 51 ;
52 [label=<gini = 0.0<br/>samples = 1<br/>value = [0, 0, 1, 0]<br/>class = Residential>, fillcolor="#399de5ff"] ;
38 -> 52 ;
53 [label=<PavementCount &le; 1.5<br/>gini = 0.556<br/>samples = 13<br/>value = [7, 0, 5, 1]<br/>class = Commercial>, fillcolor="#e5813940"] ;
37 -> 53 ;
54 [label=<PavementCount &le; 0.5<br/>gini = 0.512<br/>samples = 11<br/>value = [7, 0, 3, 1]<br/>class = Commercial>, fillcolor="#e5813980"] ;
53 -> 54 ;
55 [label=<zoneArea &le; 15165.925<br/>gini = 0.612<br/>samples = 7<br/>value = [3, 0, 3, 1]<br/>class = Commercial>, fillcolor="#e5813900"] ;
54 -> 55 ;
56 [label=<gini = 0.0<br/>samples = 2<br/>value = [0, 0, 2, 0]<br/>class = Residential>, fillcolor="#399de5ff"] ;
55 -> 56 ;
57 [label=<percentUnpaved Athletic FieldArea &le; 0.367<br/>gini = 0.56<br/>samples = 5<br/>value = [3, 0, 1, 1]<br/>class = Commercial>, fillcolor="#e581397f"] ;
55 -> 57 ;
58 [label=<percentSidewalkArea &le; 0.028<br/>gini = 0.375<br/>samples = 4<br/>value = [3, 0, 0, 1]<br/>class = Commercial>, fillcolor="#e58139aa"] ;
57 -> 58 ;
59 [label=<percentOpen SpaceArea &le; 0.155<br/>gini = 0.5<br/>samples = 2<br/>value = [1, 0, 0, 1]<br/>class = Commercial>, fillcolor="#e5813900"] ;
58 -> 59 ;
60 [label=<gini = 0.0<br/>samples = 1<br/>value = [0, 0, 0, 1]<br/>class = Special Purpose>, fillcolor="#d739e5ff"] ;
59 -> 60 ;
61 [label=<gini = 0.0<br/>samples = 1<br/>value = [1, 0, 0, 0]<br/>class = Commercial>, fillcolor="#e58139ff"] ;
59 -> 61 ;
62 [label=<gini = 0.0<br/>samples = 2<br/>value = [2, 0, 0, 0]<br/>class = Commercial>, fillcolor="#e58139ff"] ;
58 -> 62 ;
63 [label=<gini = 0.0<br/>samples = 1<br/>value = [0, 0, 1, 0]<br/>class = Residential>, fillcolor="#399de5ff"] ;
57 -> 63 ;
64 [label=<gini = 0.0<br/>samples = 4<br/>value = [4, 0, 0, 0]<br/>class = Commercial>, fillcolor="#e58139ff"] ;
54 -> 64 ;
65 [label=<gini = 0.0<br/>samples = 2<br/>value = [0, 0, 2, 0]<br/>class = Residential>, fillcolor="#399de5ff"] ;
53 -> 65 ;
66 [label=<gini = 0.0<br/>samples = 1<br/>value = [0, 0, 1, 0]<br/>class = Residential>, fillcolor="#399de5ff"] ;
36 -> 66 ;
67 [label=<zoneArea &le; 12902.129<br/>gini = 0.49<br/>samples = 7<br/>value = [3, 0, 4, 0]<br/>class = Residential>, fillcolor="#399de540"] ;
35 -> 67 ;
68 [label=<gini = 0.0<br/>samples = 2<br/>value = [0, 0, 2, 0]<br/>class = Residential>, fillcolor="#399de5ff"] ;
67 -> 68 ;
69 [label=<percentStructureArea &le; 0.025<br/>gini = 0.48<br/>samples = 5<br/>value = [3, 0, 2, 0]<br/>class = Commercial>, fillcolor="#e5813955"] ;
67 -> 69 ;
70 [label=<percentUnpaved DrivewayArea &le; 0.196<br/>gini = 0.444<br/>samples = 3<br/>value = [1, 0, 2, 0]<br/>class = Residential>, fillcolor="#399de57f"] ;
69 -> 70 ;
71 [label=<gini = 0.0<br/>samples = 2<br/>value = [0, 0, 2, 0]<br/>class = Residential>, fillcolor="#399de5ff"] ;
70 -> 71 ;
72 [label=<gini = 0.0<br/>samples = 1<br/>value = [1, 0, 0, 0]<br/>class = Commercial>, fillcolor="#e58139ff"] ;
70 -> 72 ;
73 [label=<gini = 0.0<br/>samples = 2<br/>value = [2, 0, 0, 0]<br/>class = Commercial>, fillcolor="#e58139ff"] ;
69 -> 73 ;
74 [label=<gini = 0.0<br/>samples = 1<br/>value = [0, 0, 0, 1]<br/>class = Special Purpose>, fillcolor="#d739e5ff"] ;
34 -> 74 ;
75 [label=<percentStructureArea &le; 0.026<br/>gini = 0.625<br/>samples = 4<br/>value = [1, 1, 0, 2]<br/>class = Special Purpose>, fillcolor="#d739e555"] ;
33 -> 75 ;
76 [label=<percentPaved DrivewayArea &le; 0.804<br/>gini = 0.444<br/>samples = 3<br/>value = [0, 1, 0, 2]<br/>class = Special Purpose>, fillcolor="#d739e57f"] ;
75 -> 76 ;
77 [label=<gini = 0.0<br/>samples = 2<br/>value = [0, 0, 0, 2]<br/>class = Special Purpose>, fillcolor="#d739e5ff"] ;
76 -> 77 ;
78 [label=<gini = 0.0<br/>samples = 1<br/>value = [0, 1, 0, 0]<br/>class = Industrial>, fillcolor="#47e539ff"] ;
76 -> 78 ;
79 [label=<gini = 0.0<br/>samples = 1<br/>value = [1, 0, 0, 0]<br/>class = Commercial>, fillcolor="#e58139ff"] ;
75 -> 79 ;
80 [label=<zoneArea &le; 15735.803<br/>gini = 0.654<br/>samples = 33<br/>value = [14, 1, 6, 12]<br/>class = Commercial>, fillcolor="#e5813918"] ;
32 -> 80 ;
81 [label=<BridgeCount &le; 0.5<br/>gini = 0.5<br/>samples = 14<br/>value = [9, 0, 1, 4]<br/>class = Commercial>, fillcolor="#e5813980"] ;
80 -> 81 ;
82 [label=<percentSidewalkArea &le; 0.136<br/>gini = 0.426<br/>samples = 13<br/>value = [9, 0, 0, 4]<br/>class = Commercial>, fillcolor="#e581398e"] ;
81 -> 82 ;
83 [label=<gini = 0.0<br/>samples = 4<br/>value = [4, 0, 0, 0]<br/>class = Commercial>, fillcolor="#e58139ff"] ;
82 -> 83 ;
84 [label=<SidewalkCount &le; 1.5<br/>gini = 0.494<br/>samples = 9<br/>value = [5, 0, 0, 4]<br/>class = Commercial>, fillcolor="#e5813933"] ;
82 -> 84 ;
85 [label=<percentSidewalkArea &le; 1.71<br/>gini = 0.49<br/>samples = 7<br/>value = [3, 0, 0, 4]<br/>class = Special Purpose>, fillcolor="#d739e540"] ;
84 -> 85 ;
86 [label=<percentSidewalkArea &le; 0.3<br/>gini = 0.48<br/>samples = 5<br/>value = [3, 0, 0, 2]<br/>class = Commercial>, fillcolor="#e5813955"] ;
85 -> 86 ;
87 [label=<Paved AlleyCount &le; 0.5<br/>gini = 0.444<br/>samples = 3<br/>value = [1, 0, 0, 2]<br/>class = Special Purpose>, fillcolor="#d739e57f"] ;
86 -> 87 ;
88 [label=<gini = 0.0<br/>samples = 2<br/>value = [0, 0, 0, 2]<br/>class = Special Purpose>, fillcolor="#d739e5ff"] ;
87 -> 88 ;
89 [label=<gini = 0.0<br/>samples = 1<br/>value = [1, 0, 0, 0]<br/>class = Commercial>, fillcolor="#e58139ff"] ;
87 -> 89 ;
90 [label=<gini = 0.0<br/>samples = 2<br/>value = [2, 0, 0, 0]<br/>class = Commercial>, fillcolor="#e58139ff"] ;
86 -> 90 ;
91 [label=<gini = 0.0<br/>samples = 2<br/>value = [0, 0, 0, 2]<br/>class = Special Purpose>, fillcolor="#d739e5ff"] ;
85 -> 91 ;
92 [label=<gini = 0.0<br/>samples = 2<br/>value = [2, 0, 0, 0]<br/>class = Commercial>, fillcolor="#e58139ff"] ;
84 -> 92 ;
93 [label=<gini = 0.0<br/>samples = 1<br/>value = [0, 0, 1, 0]<br/>class = Residential>, fillcolor="#399de5ff"] ;
81 -> 93 ;
94 [label=<percentSidewalkArea &le; 0.098<br/>gini = 0.681<br/>samples = 19<br/>value = [5, 1, 5, 8]<br/>class = Special Purpose>, fillcolor="#d739e537"] ;
80 -> 94 ;
95 [label=<gini = 0.0<br/>samples = 4<br/>value = [0, 0, 0, 4]<br/>class = Special Purpose>, fillcolor="#d739e5ff"] ;
94 -> 95 ;
96 [label=<SidewalkCount &le; 2.5<br/>gini = 0.702<br/>samples = 15<br/>value = [5, 1, 5, 4]<br/>class = Commercial>, fillcolor="#e5813900"] ;
94 -> 96 ;
97 [label=<percentPavementArea &le; 0.001<br/>gini = 0.675<br/>samples = 13<br/>value = [5, 1, 5, 2]<br/>class = Commercial>, fillcolor="#e5813900"] ;
96 -> 97 ;
98 [label=<SidewalkCount &le; 1.5<br/>gini = 0.617<br/>samples = 9<br/>value = [2, 1, 5, 1]<br/>class = Residential>, fillcolor="#399de56d"] ;
97 -> 98 ;
99 [label=<zoneArea &le; 17798.713<br/>gini = 0.449<br/>samples = 7<br/>value = [0, 1, 5, 1]<br/>class = Residential>, fillcolor="#399de5aa"] ;
98 -> 99 ;
100 [label=<gini = 0.0<br/>samples = 1<br/>value = [0, 0, 0, 1]<br/>class = Special Purpose>, fillcolor="#d739e5ff"] ;
99 -> 100 ;
101 [label=<zoneArea &le; 25010.211<br/>gini = 0.278<br/>samples = 6<br/>value = [0, 1, 5, 0]<br/>class = Residential>, fillcolor="#399de5cc"] ;
99 -> 101 ;
102 [label=<gini = 0.0<br/>samples = 4<br/>value = [0, 0, 4, 0]<br/>class = Residential>, fillcolor="#399de5ff"] ;
101 -> 102 ;
103 [label=<percentSidewalkArea &le; 0.559<br/>gini = 0.5<br/>samples = 2<br/>value = [0, 1, 1, 0]<br/>class = Industrial>, fillcolor="#47e53900"] ;
101 -> 103 ;
104 [label=<gini = 0.0<br/>samples = 1<br/>value = [0, 1, 0, 0]<br/>class = Industrial>, fillcolor="#47e539ff"] ;
103 -> 104 ;
105 [label=<gini = 0.0<br/>samples = 1<br/>value = [0, 0, 1, 0]<br/>class = Residential>, fillcolor="#399de5ff"] ;
103 -> 105 ;
106 [label=<gini = 0.0<br/>samples = 2<br/>value = [2, 0, 0, 0]<br/>class = Commercial>, fillcolor="#e58139ff"] ;
98 -> 106 ;
107 [label=<percentPavementArea &le; 0.046<br/>gini = 0.375<br/>samples = 4<br/>value = [3, 0, 0, 1]<br/>class = Commercial>, fillcolor="#e58139aa"] ;
97 -> 107 ;
108 [label=<gini = 0.0<br/>samples = 3<br/>value = [3, 0, 0, 0]<br/>class = Commercial>, fillcolor="#e58139ff"] ;
107 -> 108 ;
109 [label=<gini = 0.0<br/>samples = 1<br/>value = [0, 0, 0, 1]<br/>class = Special Purpose>, fillcolor="#d739e5ff"] ;
107 -> 109 ;
110 [label=<gini = 0.0<br/>samples = 2<br/>value = [0, 0, 0, 2]<br/>class = Special Purpose>, fillcolor="#d739e5ff"] ;
96 -> 110 ;
111 [label=<zoneArea &le; 14853.529<br/>gini = 0.375<br/>samples = 4<br/>value = [0, 1, 0, 3]<br/>class = Special Purpose>, fillcolor="#d739e5aa"] ;
9 -> 111 ;
112 [label=<gini = 0.0<br/>samples = 1<br/>value = [0, 1, 0, 0]<br/>class = Industrial>, fillcolor="#47e539ff"] ;
111 -> 112 ;
113 [label=<gini = 0.0<br/>samples = 3<br/>value = [0, 0, 0, 3]<br/>class = Special Purpose>, fillcolor="#d739e5ff"] ;
111 -> 113 ;
114 [label=<percentPavementArea &le; 0.002<br/>gini = 0.636<br/>samples = 26<br/>value = [5, 0, 10, 11]<br/>class = Special Purpose>, fillcolor="#d739e510"] ;
8 -> 114 ;
115 [label=<BridgeCount &le; 0.5<br/>gini = 0.576<br/>samples = 19<br/>value = [2, 0, 10, 7]<br/>class = Residential>, fillcolor="#399de540"] ;
114 -> 115 ;
116 [label=<percentPaved DrivewayArea &le; 1.4<br/>gini = 0.554<br/>samples = 17<br/>value = [2, 0, 10, 5]<br/>class = Residential>, fillcolor="#399de56a"] ;
115 -> 116 ;
117 [label=<zoneArea &le; 1990.731<br/>gini = 0.508<br/>samples = 16<br/>value = [1, 0, 10, 5]<br/>class = Residential>, fillcolor="#399de574"] ;
116 -> 117 ;
118 [label=<gini = 0.0<br/>samples = 1<br/>value = [1, 0, 0, 0]<br/>class = Commercial>, fillcolor="#e58139ff"] ;
117 -> 118 ;
119 [label=<StructureCount &le; 0.5<br/>gini = 0.444<br/>samples = 15<br/>value = [0, 0, 10, 5]<br/>class = Residential>, fillcolor="#399de57f"] ;
117 -> 119 ;
120 [label=<Uncovered DeckCount &le; 0.5<br/>gini = 0.408<br/>samples = 14<br/>value = [0, 0, 10, 4]<br/>class = Residential>, fillcolor="#399de599"] ;
119 -> 120 ;
121 [label=<percentSidewalkArea &le; 0.014<br/>gini = 0.355<br/>samples = 13<br/>value = [0, 0, 10, 3]<br/>class = Residential>, fillcolor="#399de5b3"] ;
120 -> 121 ;
122 [label=<zoneArea &le; 10119.612<br/>gini = 0.49<br/>samples = 7<br/>value = [0, 0, 4, 3]<br/>class = Residential>, fillcolor="#399de540"] ;
121 -> 122 ;
123 [label=<gini = 0.0<br/>samples = 2<br/>value = [0, 0, 2, 0]<br/>class = Residential>, fillcolor="#399de5ff"] ;
122 -> 123 ;
124 [label=<zoneArea &le; 17662.354<br/>gini = 0.48<br/>samples = 5<br/>value = [0, 0, 2, 3]<br/>class = Special Purpose>, fillcolor="#d739e555"] ;
122 -> 124 ;
125 [label=<gini = 0.0<br/>samples = 2<br/>value = [0, 0, 0, 2]<br/>class = Special Purpose>, fillcolor="#d739e5ff"] ;
124 -> 125 ;
126 [label=<percentPaved DrivewayArea &le; 0.018<br/>gini = 0.444<br/>samples = 3<br/>value = [0, 0, 2, 1]<br/>class = Residential>, fillcolor="#399de57f"] ;
124 -> 126 ;
127 [label=<gini = 0.0<br/>samples = 2<br/>value = [0, 0, 2, 0]<br/>class = Residential>, fillcolor="#399de5ff"] ;
126 -> 127 ;
128 [label=<gini = 0.0<br/>samples = 1<br/>value = [0, 0, 0, 1]<br/>class = Special Purpose>, fillcolor="#d739e5ff"] ;
126 -> 128 ;
129 [label=<gini = 0.0<br/>samples = 6<br/>value = [0, 0, 6, 0]<br/>class = Residential>, fillcolor="#399de5ff"] ;
121 -> 129 ;
130 [label=<gini = 0.0<br/>samples = 1<br/>value = [0, 0, 0, 1]<br/>class = Special Purpose>, fillcolor="#d739e5ff"] ;
120 -> 130 ;
131 [label=<gini = 0.0<br/>samples = 1<br/>value = [0, 0, 0, 1]<br/>class = Special Purpose>, fillcolor="#d739e5ff"] ;
119 -> 131 ;
132 [label=<gini = 0.0<br/>samples = 1<br/>value = [1, 0, 0, 0]<br/>class = Commercial>, fillcolor="#e58139ff"] ;
116 -> 132 ;
133 [label=<gini = 0.0<br/>samples = 2<br/>value = [0, 0, 0, 2]<br/>class = Special Purpose>, fillcolor="#d739e5ff"] ;
115 -> 133 ;
134 [label=<percentSidewalkArea &le; 0.008<br/>gini = 0.49<br/>samples = 7<br/>value = [3, 0, 0, 4]<br/>class = Special Purpose>, fillcolor="#d739e540"] ;
114 -> 134 ;
135 [label=<gini = 0.0<br/>samples = 2<br/>value = [2, 0, 0, 0]<br/>class = Commercial>, fillcolor="#e58139ff"] ;
134 -> 135 ;
136 [label=<percentBridgeArea &le; 1.741<br/>gini = 0.32<br/>samples = 5<br/>value = [1, 0, 0, 4]<br/>class = Special Purpose>, fillcolor="#d739e5bf"] ;
134 -> 136 ;
137 [label=<gini = 0.0<br/>samples = 4<br/>value = [0, 0, 0, 4]<br/>class = Special Purpose>, fillcolor="#d739e5ff"] ;
136 -> 137 ;
138 [label=<gini = 0.0<br/>samples = 1<br/>value = [1, 0, 0, 0]<br/>class = Commercial>, fillcolor="#e58139ff"] ;
136 -> 138 ;
139 [label=<gini = 0.0<br/>samples = 7<br/>value = [0, 0, 0, 7]<br/>class = Special Purpose>, fillcolor="#d739e5ff"] ;
7 -> 139 ;
140 [label=<StructureCount &le; 6.5<br/>gini = 0.647<br/>samples = 183<br/>value = [45, 11, 35, 92]<br/>class = Special Purpose>, fillcolor="#d739e557"] ;
6 -> 140 ;
141 [label=<percentSidewalkArea &le; 0.023<br/>gini = 0.625<br/>samples = 173<br/>value = [45, 8, 29, 91]<br/>class = Special Purpose>, fillcolor="#d739e55c"] ;
140 -> 141 ;
142 [label=<percentPaved ParkingArea &le; 0.019<br/>gini = 0.675<br/>samples = 117<br/>value = [35, 7, 24, 51]<br/>class = Special Purpose>, fillcolor="#d739e532"] ;
141 -> 142 ;
143 [label=<Unpaved RoadCount &le; 1.5<br/>gini = 0.661<br/>samples = 98<br/>value = [23, 6, 22, 47]<br/>class = Special Purpose>, fillcolor="#d739e552"] ;
142 -> 143 ;
144 [label=<percentStructureArea &le; 0.005<br/>gini = 0.635<br/>samples = 94<br/>value = [23, 2, 22, 47]<br/>class = Special Purpose>, fillcolor="#d739e556"] ;
143 -> 144 ;
145 [label=<percentCompacted SoilArea &le; 0.592<br/>gini = 0.6<br/>samples = 74<br/>value = [19, 2, 12, 41]<br/>class = Special Purpose>, fillcolor="#d739e566"] ;
144 -> 145 ;
146 [label=<percentSidewalkArea &le; 0.018<br/>gini = 0.569<br/>samples = 69<br/>value = [15, 1, 12, 41]<br/>class = Special Purpose>, fillcolor="#d739e57b"] ;
145 -> 146 ;
147 [label=<percentUnpaved DrivewayArea &le; 0.025<br/>gini = 0.539<br/>samples = 65<br/>value = [12, 1, 11, 41]<br/>class = Special Purpose>, fillcolor="#d739e58c"] ;
146 -> 147 ;
148 [label=<percentStructureArea &le; 0.0<br/>gini = 0.52<br/>samples = 63<br/>value = [12, 1, 9, 41]<br/>class = Special Purpose>, fillcolor="#d739e591"] ;
147 -> 148 ;
149 [label=<percentPaved DitchArea &le; 0.281<br/>gini = 0.427<br/>samples = 45<br/>value = [6, 0, 6, 33]<br/>class = Special Purpose>, fillcolor="#d739e5b1"] ;
148 -> 149 ;
150 [label=<Open SpaceCount &le; 0.5<br/>gini = 0.406<br/>samples = 44<br/>value = [6, 0, 5, 33]<br/>class = Special Purpose>, fillcolor="#d739e5b5"] ;
149 -> 150 ;
151 [label=<Unpaved ParkingCount &le; 0.5<br/>gini = 0.383<br/>samples = 43<br/>value = [6, 0, 4, 33]<br/>class = Special Purpose>, fillcolor="#d739e5ba"] ;
150 -> 151 ;
152 [label=<percentPavementArea &le; 0.02<br/>gini = 0.357<br/>samples = 42<br/>value = [6, 0, 3, 33]<br/>class = Special Purpose>, fillcolor="#d739e5bf"] ;
151 -> 152 ;
153 [label=<percentPaved DrivewayArea &le; 0.028<br/>gini = 0.332<br/>samples = 41<br/>value = [5, 0, 3, 33]<br/>class = Special Purpose>, fillcolor="#d739e5c6"] ;
152 -> 153 ;
154 [label=<percentSidewalkArea &le; 0.002<br/>gini = 0.304<br/>samples = 40<br/>value = [4, 0, 3, 33]<br/>class = Special Purpose>, fillcolor="#d739e5cd"] ;
153 -> 154 ;
155 [label=<percentUnpaved RoadArea &le; 0.338<br/>gini = 0.179<br/>samples = 31<br/>value = [2, 0, 1, 28]<br/>class = Special Purpose>, fillcolor="#d739e5e5"] ;
154 -> 155 ;
156 [label=<Paved RoadCount &le; 1.5<br/>gini = 0.128<br/>samples = 29<br/>value = [2, 0, 0, 27]<br/>class = Special Purpose>, fillcolor="#d739e5ec"] ;
155 -> 156 ;
157 [label=<percentPavementArea &le; 0.008<br/>gini = 0.074<br/>samples = 26<br/>value = [1, 0, 0, 25]<br/>class = Special Purpose>, fillcolor="#d739e5f5"] ;
156 -> 157 ;
158 [label=<gini = 0.0<br/>samples = 23<br/>value = [0, 0, 0, 23]<br/>class = Special Purpose>, fillcolor="#d739e5ff"] ;
157 -> 158 ;
159 [label=<PavementCount &le; 1.5<br/>gini = 0.444<br/>samples = 3<br/>value = [1, 0, 0, 2]<br/>class = Special Purpose>, fillcolor="#d739e57f"] ;
157 -> 159 ;
160 [label=<gini = 0.0<br/>samples = 1<br/>value = [1, 0, 0, 0]<br/>class = Commercial>, fillcolor="#e58139ff"] ;
159 -> 160 ;
161 [label=<gini = 0.0<br/>samples = 2<br/>value = [0, 0, 0, 2]<br/>class = Special Purpose>, fillcolor="#d739e5ff"] ;
159 -> 161 ;
162 [label=<percentPaved RoadArea &le; 4.718<br/>gini = 0.444<br/>samples = 3<br/>value = [1, 0, 0, 2]<br/>class = Special Purpose>, fillcolor="#d739e57f"] ;
156 -> 162 ;
163 [label=<gini = 0.0<br/>samples = 1<br/>value = [1, 0, 0, 0]<br/>class = Commercial>, fillcolor="#e58139ff"] ;
162 -> 163 ;
164 [label=<gini = 0.0<br/>samples = 2<br/>value = [0, 0, 0, 2]<br/>class = Special Purpose>, fillcolor="#d739e5ff"] ;
162 -> 164 ;
165 [label=<zoneArea &le; 97857.984<br/>gini = 0.5<br/>samples = 2<br/>value = [0, 0, 1, 1]<br/>class = Residential>, fillcolor="#399de500"] ;
155 -> 165 ;
166 [label=<gini = 0.0<br/>samples = 1<br/>value = [0, 0, 0, 1]<br/>class = Special Purpose>, fillcolor="#d739e5ff"] ;
165 -> 166 ;
167 [label=<gini = 0.0<br/>samples = 1<br/>value = [0, 0, 1, 0]<br/>class = Residential>, fillcolor="#399de5ff"] ;
165 -> 167 ;
168 [label=<percentPaved RoadArea &le; 7.255<br/>gini = 0.593<br/>samples = 9<br/>value = [2, 0, 2, 5]<br/>class = Special Purpose>, fillcolor="#d739e56d"] ;
154 -> 168 ;
169 [label=<Paved RoadCount &le; 0.5<br/>gini = 0.667<br/>samples = 6<br/>value = [2, 0, 2, 2]<br/>class = Commercial>, fillcolor="#e5813900"] ;
168 -> 169 ;
170 [label=<percentSidewalkArea &le; 0.012<br/>gini = 0.5<br/>samples = 4<br/>value = [0, 0, 2, 2]<br/>class = Residential>, fillcolor="#399de500"] ;
169 -> 170 ;
171 [label=<gini = 0.0<br/>samples = 2<br/>value = [0, 0, 2, 0]<br/>class = Residential>, fillcolor="#399de5ff"] ;
170 -> 171 ;
172 [label=<gini = 0.0<br/>samples = 2<br/>value = [0, 0, 0, 2]<br/>class = Special Purpose>, fillcolor="#d739e5ff"] ;
170 -> 172 ;
173 [label=<gini = 0.0<br/>samples = 2<br/>value = [2, 0, 0, 0]<br/>class = Commercial>, fillcolor="#e58139ff"] ;
169 -> 173 ;
174 [label=<gini = 0.0<br/>samples = 3<br/>value = [0, 0, 0, 3]<br/>class = Special Purpose>, fillcolor="#d739e5ff"] ;
168 -> 174 ;
175 [label=<gini = 0.0<br/>samples = 1<br/>value = [1, 0, 0, 0]<br/>class = Commercial>, fillcolor="#e58139ff"] ;
153 -> 175 ;
176 [label=<gini = 0.0<br/>samples = 1<br/>value = [1, 0, 0, 0]<br/>class = Commercial>, fillcolor="#e58139ff"] ;
152 -> 176 ;
177 [label=<gini = 0.0<br/>samples = 1<br/>value = [0, 0, 1, 0]<br/>class = Residential>, fillcolor="#399de5ff"] ;
151 -> 177 ;
178 [label=<gini = 0.0<br/>samples = 1<br/>value = [0, 0, 1, 0]<br/>class = Residential>, fillcolor="#399de5ff"] ;
150 -> 178 ;
179 [label=<gini = 0.0<br/>samples = 1<br/>value = [0, 0, 1, 0]<br/>class = Residential>, fillcolor="#399de5ff"] ;
149 -> 179 ;
180 [label=<percentSidewalkArea &le; 0.003<br/>gini = 0.66<br/>samples = 18<br/>value = [6, 1, 3, 8]<br/>class = Special Purpose>, fillcolor="#d739e52a"] ;
148 -> 180 ;
181 [label=<percentPaved RoadArea &le; 0.136<br/>gini = 0.568<br/>samples = 9<br/>value = [5, 1, 3, 0]<br/>class = Commercial>, fillcolor="#e5813955"] ;
180 -> 181 ;
182 [label=<percentUnpaved DrivewayArea &le; 0.011<br/>gini = 0.278<br/>samples = 6<br/>value = [5, 1, 0, 0]<br/>class = Commercial>, fillcolor="#e58139cc"] ;
181 -> 182 ;
183 [label=<gini = 0.0<br/>samples = 5<br/>value = [5, 0, 0, 0]<br/>class = Commercial>, fillcolor="#e58139ff"] ;
182 -> 183 ;
184 [label=<gini = 0.0<br/>samples = 1<br/>value = [0, 1, 0, 0]<br/>class = Industrial>, fillcolor="#47e539ff"] ;
182 -> 184 ;
185 [label=<gini = 0.0<br/>samples = 3<br/>value = [0, 0, 3, 0]<br/>class = Residential>, fillcolor="#399de5ff"] ;
181 -> 185 ;
186 [label=<percentPaved RoadArea &le; 26.965<br/>gini = 0.198<br/>samples = 9<br/>value = [1, 0, 0, 8]<br/>class = Special Purpose>, fillcolor="#d739e5df"] ;
180 -> 186 ;
187 [label=<gini = 0.0<br/>samples = 8<br/>value = [0, 0, 0, 8]<br/>class = Special Purpose>, fillcolor="#d739e5ff"] ;
186 -> 187 ;
188 [label=<gini = 0.0<br/>samples = 1<br/>value = [1, 0, 0, 0]<br/>class = Commercial>, fillcolor="#e58139ff"] ;
186 -> 188 ;
189 [label=<gini = 0.0<br/>samples = 2<br/>value = [0, 0, 2, 0]<br/>class = Residential>, fillcolor="#399de5ff"] ;
147 -> 189 ;
190 [label=<percentOpen SpaceArea &le; 0.019<br/>gini = 0.375<br/>samples = 4<br/>value = [3, 0, 1, 0]<br/>class = Commercial>, fillcolor="#e58139aa"] ;
146 -> 190 ;
191 [label=<gini = 0.0<br/>samples = 3<br/>value = [3, 0, 0, 0]<br/>class = Commercial>, fillcolor="#e58139ff"] ;
190 -> 191 ;
192 [label=<gini = 0.0<br/>samples = 1<br/>value = [0, 0, 1, 0]<br/>class = Residential>, fillcolor="#399de5ff"] ;
190 -> 192 ;
193 [label=<percentCompacted SoilArea &le; 1.009<br/>gini = 0.32<br/>samples = 5<br/>value = [4, 1, 0, 0]<br/>class = Commercial>, fillcolor="#e58139bf"] ;
145 -> 193 ;
194 [label=<gini = 0.0<br/>samples = 4<br/>value = [4, 0, 0, 0]<br/>class = Commercial>, fillcolor="#e58139ff"] ;
193 -> 194 ;
195 [label=<gini = 0.0<br/>samples = 1<br/>value = [0, 1, 0, 0]<br/>class = Industrial>, fillcolor="#47e539ff"] ;
193 -> 195 ;
196 [label=<percentPavementArea &le; 0.012<br/>gini = 0.62<br/>samples = 20<br/>value = [4, 0, 10, 6]<br/>class = Residential>, fillcolor="#399de549"] ;
144 -> 196 ;
197 [label=<Paved RoadCount &le; 1.5<br/>gini = 0.567<br/>samples = 17<br/>value = [4, 0, 10, 3]<br/>class = Residential>, fillcolor="#399de576"] ;
196 -> 197 ;
198 [label=<StructureCount &le; 5.0<br/>gini = 0.48<br/>samples = 15<br/>value = [4, 0, 10, 1]<br/>class = Residential>, fillcolor="#399de58b"] ;
197 -> 198 ;
199 [label=<percentUnpaved ParkingArea &le; 0.552<br/>gini = 0.379<br/>samples = 13<br/>value = [2, 0, 10, 1]<br/>class = Residential>, fillcolor="#399de5b9"] ;
198 -> 199 ;
200 [label=<zoneArea &le; 57841.67<br/>gini = 0.278<br/>samples = 12<br/>value = [2, 0, 10, 0]<br/>class = Residential>, fillcolor="#399de5cc"] ;
199 -> 200 ;
201 [label=<gini = 0.0<br/>samples = 1<br/>value = [1, 0, 0, 0]<br/>class = Commercial>, fillcolor="#e58139ff"] ;
200 -> 201 ;
202 [label=<percentStructureArea &le; 0.008<br/>gini = 0.165<br/>samples = 11<br/>value = [1, 0, 10, 0]<br/>class = Residential>, fillcolor="#399de5e6"] ;
200 -> 202 ;
203 [label=<StructureCount &le; 2.5<br/>gini = 0.444<br/>samples = 3<br/>value = [1, 0, 2, 0]<br/>class = Residential>, fillcolor="#399de57f"] ;
202 -> 203 ;
204 [label=<gini = 0.0<br/>samples = 2<br/>value = [0, 0, 2, 0]<br/>class = Residential>, fillcolor="#399de5ff"] ;
203 -> 204 ;
205 [label=<gini = 0.0<br/>samples = 1<br/>value = [1, 0, 0, 0]<br/>class = Commercial>, fillcolor="#e58139ff"] ;
203 -> 205 ;
206 [label=<gini = 0.0<br/>samples = 8<br/>value = [0, 0, 8, 0]<br/>class = Residential>, fillcolor="#399de5ff"] ;
202 -> 206 ;
207 [label=<gini = 0.0<br/>samples = 1<br/>value = [0, 0, 0, 1]<br/>class = Special Purpose>, fillcolor="#d739e5ff"] ;
199 -> 207 ;
208 [label=<gini = 0.0<br/>samples = 2<br/>value = [2, 0, 0, 0]<br/>class = Commercial>, fillcolor="#e58139ff"] ;
198 -> 208 ;
209 [label=<gini = 0.0<br/>samples = 2<br/>value = [0, 0, 0, 2]<br/>class = Special Purpose>, fillcolor="#d739e5ff"] ;
197 -> 209 ;
210 [label=<gini = 0.0<br/>samples = 3<br/>value = [0, 0, 0, 3]<br/>class = Special Purpose>, fillcolor="#d739e5ff"] ;
196 -> 210 ;
211 [label=<gini = 0.0<br/>samples = 4<br/>value = [0, 4, 0, 0]<br/>class = Industrial>, fillcolor="#47e539ff"] ;
143 -> 211 ;
212 [label=<StructureCount &le; 0.5<br/>gini = 0.543<br/>samples = 19<br/>value = [12, 1, 2, 4]<br/>class = Commercial>, fillcolor="#e5813988"] ;
142 -> 212 ;
213 [label=<Paved RoadCount &le; 0.5<br/>gini = 0.653<br/>samples = 7<br/>value = [2, 0, 2, 3]<br/>class = Special Purpose>, fillcolor="#d739e533"] ;
212 -> 213 ;
214 [label=<PatioCount &le; 0.5<br/>gini = 0.611<br/>samples = 6<br/>value = [2, 0, 1, 3]<br/>class = Special Purpose>, fillcolor="#d739e540"] ;
213 -> 214 ;
215 [label=<percentPaved ParkingArea &le; 0.048<br/>gini = 0.48<br/>samples = 5<br/>value = [2, 0, 0, 3]<br/>class = Special Purpose>, fillcolor="#d739e555"] ;
214 -> 215 ;
216 [label=<gini = 0.0<br/>samples = 1<br/>value = [1, 0, 0, 0]<br/>class = Commercial>, fillcolor="#e58139ff"] ;
215 -> 216 ;
217 [label=<percentPaved ParkingArea &le; 0.355<br/>gini = 0.375<br/>samples = 4<br/>value = [1, 0, 0, 3]<br/>class = Special Purpose>, fillcolor="#d739e5aa"] ;
215 -> 217 ;
218 [label=<gini = 0.0<br/>samples = 3<br/>value = [0, 0, 0, 3]<br/>class = Special Purpose>, fillcolor="#d739e5ff"] ;
217 -> 218 ;
219 [label=<gini = 0.0<br/>samples = 1<br/>value = [1, 0, 0, 0]<br/>class = Commercial>, fillcolor="#e58139ff"] ;
217 -> 219 ;
220 [label=<gini = 0.0<br/>samples = 1<br/>value = [0, 0, 1, 0]<br/>class = Residential>, fillcolor="#399de5ff"] ;
214 -> 220 ;
221 [label=<gini = 0.0<br/>samples = 1<br/>value = [0, 0, 1, 0]<br/>class = Residential>, fillcolor="#399de5ff"] ;
213 -> 221 ;
222 [label=<percentOpen SpaceArea &le; 0.004<br/>gini = 0.292<br/>samples = 12<br/>value = [10, 1, 0, 1]<br/>class = Commercial>, fillcolor="#e58139d1"] ;
212 -> 222 ;
223 [label=<gini = 0.0<br/>samples = 10<br/>value = [10, 0, 0, 0]<br/>class = Commercial>, fillcolor="#e58139ff"] ;
222 -> 223 ;
224 [label=<percentStructureArea &le; 0.03<br/>gini = 0.5<br/>samples = 2<br/>value = [0, 1, 0, 1]<br/>class = Industrial>, fillcolor="#47e53900"] ;
222 -> 224 ;
225 [label=<gini = 0.0<br/>samples = 1<br/>value = [0, 0, 0, 1]<br/>class = Special Purpose>, fillcolor="#d739e5ff"] ;
224 -> 225 ;
226 [label=<gini = 0.0<br/>samples = 1<br/>value = [0, 1, 0, 0]<br/>class = Industrial>, fillcolor="#47e539ff"] ;
224 -> 226 ;
227 [label=<zoneArea &le; 74291.238<br/>gini = 0.45<br/>samples = 56<br/>value = [10, 1, 5, 40]<br/>class = Special Purpose>, fillcolor="#d739e5a6"] ;
141 -> 227 ;
228 [label=<zoneArea &le; 50642.107<br/>gini = 0.608<br/>samples = 21<br/>value = [8, 0, 3, 10]<br/>class = Special Purpose>, fillcolor="#d739e527"] ;
227 -> 228 ;
229 [label=<percentSidewalkArea &le; 0.512<br/>gini = 0.34<br/>samples = 10<br/>value = [1, 0, 1, 8]<br/>class = Special Purpose>, fillcolor="#d739e5c6"] ;
228 -> 229 ;
230 [label=<percentMedian > 10 FeetArea &le; 0.024<br/>gini = 0.198<br/>samples = 9<br/>value = [0, 0, 1, 8]<br/>class = Special Purpose>, fillcolor="#d739e5df"] ;
229 -> 230 ;
231 [label=<gini = 0.0<br/>samples = 8<br/>value = [0, 0, 0, 8]<br/>class = Special Purpose>, fillcolor="#d739e5ff"] ;
230 -> 231 ;
232 [label=<gini = 0.0<br/>samples = 1<br/>value = [0, 0, 1, 0]<br/>class = Residential>, fillcolor="#399de5ff"] ;
230 -> 232 ;
233 [label=<gini = 0.0<br/>samples = 1<br/>value = [1, 0, 0, 0]<br/>class = Commercial>, fillcolor="#e58139ff"] ;
229 -> 233 ;
234 [label=<percentPavementArea &le; 0.0<br/>gini = 0.529<br/>samples = 11<br/>value = [7, 0, 2, 2]<br/>class = Commercial>, fillcolor="#e581398e"] ;
228 -> 234 ;
235 [label=<gini = 0.0<br/>samples = 4<br/>value = [4, 0, 0, 0]<br/>class = Commercial>, fillcolor="#e58139ff"] ;
234 -> 235 ;
236 [label=<percentPavementArea &le; 0.006<br/>gini = 0.653<br/>samples = 7<br/>value = [3, 0, 2, 2]<br/>class = Commercial>, fillcolor="#e5813933"] ;
234 -> 236 ;
237 [label=<gini = 0.0<br/>samples = 2<br/>value = [0, 0, 2, 0]<br/>class = Residential>, fillcolor="#399de5ff"] ;
236 -> 237 ;
238 [label=<PatioCount &le; 0.5<br/>gini = 0.48<br/>samples = 5<br/>value = [3, 0, 0, 2]<br/>class = Commercial>, fillcolor="#e5813955"] ;
236 -> 238 ;
239 [label=<percentMedian > 10 FeetArea &le; 0.009<br/>gini = 0.444<br/>samples = 3<br/>value = [1, 0, 0, 2]<br/>class = Special Purpose>, fillcolor="#d739e57f"] ;
238 -> 239 ;
240 [label=<gini = 0.0<br/>samples = 2<br/>value = [0, 0, 0, 2]<br/>class = Special Purpose>, fillcolor="#d739e5ff"] ;
239 -> 240 ;
241 [label=<gini = 0.0<br/>samples = 1<br/>value = [1, 0, 0, 0]<br/>class = Commercial>, fillcolor="#e58139ff"] ;
239 -> 241 ;
242 [label=<gini = 0.0<br/>samples = 2<br/>value = [2, 0, 0, 0]<br/>class = Commercial>, fillcolor="#e58139ff"] ;
238 -> 242 ;
243 [label=<percentTankArea &le; 0.0<br/>gini = 0.258<br/>samples = 35<br/>value = [2, 1, 2, 30]<br/>class = Special Purpose>, fillcolor="#d739e5d8"] ;
227 -> 243 ;
244 [label=<StructureCount &le; 5.5<br/>gini = 0.216<br/>samples = 34<br/>value = [2, 1, 1, 30]<br/>class = Special Purpose>, fillcolor="#d739e5df"] ;
243 -> 244 ;
245 [label=<percentUnpaved RoadArea &le; 0.376<br/>gini = 0.169<br/>samples = 33<br/>value = [2, 1, 0, 30]<br/>class = Special Purpose>, fillcolor="#d739e5e6"] ;
244 -> 245 ;
246 [label=<percentPaved RoadArea &le; 5.561<br/>gini = 0.119<br/>samples = 32<br/>value = [1, 1, 0, 30]<br/>class = Special Purpose>, fillcolor="#d739e5ef"] ;
245 -> 246 ;
247 [label=<percentBridgeArea &le; 0.057<br/>gini = 0.069<br/>samples = 28<br/>value = [0, 1, 0, 27]<br/>class = Special Purpose>, fillcolor="#d739e5f6"] ;
246 -> 247 ;
248 [label=<gini = 0.0<br/>samples = 24<br/>value = [0, 0, 0, 24]<br/>class = Special Purpose>, fillcolor="#d739e5ff"] ;
247 -> 248 ;
249 [label=<percentPavementArea &le; 0.021<br/>gini = 0.375<br/>samples = 4<br/>value = [0, 1, 0, 3]<br/>class = Special Purpose>, fillcolor="#d739e5aa"] ;
247 -> 249 ;
250 [label=<gini = 0.0<br/>samples = 3<br/>value = [0, 0, 0, 3]<br/>class = Special Purpose>, fillcolor="#d739e5ff"] ;
249 -> 250 ;
251 [label=<gini = 0.0<br/>samples = 1<br/>value = [0, 1, 0, 0]<br/>class = Industrial>, fillcolor="#47e539ff"] ;
249 -> 251 ;
252 [label=<zoneArea &le; 159258.258<br/>gini = 0.375<br/>samples = 4<br/>value = [1, 0, 0, 3]<br/>class = Special Purpose>, fillcolor="#d739e5aa"] ;
246 -> 252 ;
253 [label=<gini = 0.0<br/>samples = 3<br/>value = [0, 0, 0, 3]<br/>class = Special Purpose>, fillcolor="#d739e5ff"] ;
252 -> 253 ;
254 [label=<gini = 0.0<br/>samples = 1<br/>value = [1, 0, 0, 0]<br/>class = Commercial>, fillcolor="#e58139ff"] ;
252 -> 254 ;
255 [label=<gini = 0.0<br/>samples = 1<br/>value = [1, 0, 0, 0]<br/>class = Commercial>, fillcolor="#e58139ff"] ;
245 -> 255 ;
256 [label=<gini = 0.0<br/>samples = 1<br/>value = [0, 0, 1, 0]<br/>class = Residential>, fillcolor="#399de5ff"] ;
244 -> 256 ;
257 [label=<gini = 0.0<br/>samples = 1<br/>value = [0, 0, 1, 0]<br/>class = Residential>, fillcolor="#399de5ff"] ;
243 -> 257 ;
258 [label=<percentPavementArea &le; 0.0<br/>gini = 0.54<br/>samples = 10<br/>value = [0, 3, 6, 1]<br/>class = Residential>, fillcolor="#399de56d"] ;
140 -> 258 ;
259 [label=<zoneArea &le; 2383316.469<br/>gini = 0.56<br/>samples = 5<br/>value = [0, 3, 1, 1]<br/>class = Industrial>, fillcolor="#47e5397f"] ;
258 -> 259 ;
260 [label=<gini = 0.0<br/>samples = 3<br/>value = [0, 3, 0, 0]<br/>class = Industrial>, fillcolor="#47e539ff"] ;
259 -> 260 ;
261 [label=<TankCount &le; 5.5<br/>gini = 0.5<br/>samples = 2<br/>value = [0, 0, 1, 1]<br/>class = Residential>, fillcolor="#399de500"] ;
259 -> 261 ;
262 [label=<gini = 0.0<br/>samples = 1<br/>value = [0, 0, 0, 1]<br/>class = Special Purpose>, fillcolor="#d739e5ff"] ;
261 -> 262 ;
263 [label=<gini = 0.0<br/>samples = 1<br/>value = [0, 0, 1, 0]<br/>class = Residential>, fillcolor="#399de5ff"] ;
261 -> 263 ;
264 [label=<gini = 0.0<br/>samples = 5<br/>value = [0, 0, 5, 0]<br/>class = Residential>, fillcolor="#399de5ff"] ;
258 -> 264 ;
265 [label=<percentCompacted SoilArea &le; 0.109<br/>gini = 0.197<br/>samples = 37<br/>value = [3, 1, 0, 33]<br/>class = Special Purpose>, fillcolor="#d739e5e1"] ;
5 -> 265 ;
266 [label=<percentPaved DrivewayArea &le; 0.007<br/>gini = 0.109<br/>samples = 35<br/>value = [1, 1, 0, 33]<br/>class = Special Purpose>, fillcolor="#d739e5f0"] ;
265 -> 266 ;
267 [label=<percentBridgeArea &le; 0.69<br/>gini = 0.057<br/>samples = 34<br/>value = [1, 0, 0, 33]<br/>class = Special Purpose>, fillcolor="#d739e5f7"] ;
266 -> 267 ;
268 [label=<gini = 0.0<br/>samples = 33<br/>value = [0, 0, 0, 33]<br/>class = Special Purpose>, fillcolor="#d739e5ff"] ;
267 -> 268 ;
269 [label=<gini = 0.0<br/>samples = 1<br/>value = [1, 0, 0, 0]<br/>class = Commercial>, fillcolor="#e58139ff"] ;
267 -> 269 ;
270 [label=<gini = 0.0<br/>samples = 1<br/>value = [0, 1, 0, 0]<br/>class = Industrial>, fillcolor="#47e539ff"] ;
266 -> 270 ;
271 [label=<gini = 0.0<br/>samples = 2<br/>value = [2, 0, 0, 0]<br/>class = Commercial>, fillcolor="#e58139ff"] ;
265 -> 271 ;
272 [label=<zoneArea &le; 10846.797<br/>gini = 0.245<br/>samples = 58<br/>value = [6, 0, 2, 50]<br/>class = Special Purpose>, fillcolor="#d739e5d8"] ;
4 -> 272 ;
273 [label=<percentPaved RoadArea &le; 44.478<br/>gini = 0.64<br/>samples = 5<br/>value = [2, 0, 2, 1]<br/>class = Commercial>, fillcolor="#e5813900"] ;
272 -> 273 ;
274 [label=<percentCompacted SoilArea &le; 3.333<br/>gini = 0.444<br/>samples = 3<br/>value = [2, 0, 0, 1]<br/>class = Commercial>, fillcolor="#e581397f"] ;
273 -> 274 ;
275 [label=<gini = 0.0<br/>samples = 1<br/>value = [0, 0, 0, 1]<br/>class = Special Purpose>, fillcolor="#d739e5ff"] ;
274 -> 275 ;
276 [label=<gini = 0.0<br/>samples = 2<br/>value = [2, 0, 0, 0]<br/>class = Commercial>, fillcolor="#e58139ff"] ;
274 -> 276 ;
277 [label=<gini = 0.0<br/>samples = 2<br/>value = [0, 0, 2, 0]<br/>class = Residential>, fillcolor="#399de5ff"] ;
273 -> 277 ;
278 [label=<StructureCount &le; 0.5<br/>gini = 0.14<br/>samples = 53<br/>value = [4, 0, 0, 49]<br/>class = Special Purpose>, fillcolor="#d739e5ea"] ;
272 -> 278 ;
279 [label=<percentPavementArea &le; 2.363<br/>gini = 0.075<br/>samples = 51<br/>value = [2, 0, 0, 49]<br/>class = Special Purpose>, fillcolor="#d739e5f5"] ;
278 -> 279 ;
280 [label=<zoneArea &le; 11347.618<br/>gini = 0.039<br/>samples = 50<br/>value = [1, 0, 0, 49]<br/>class = Special Purpose>, fillcolor="#d739e5fa"] ;
279 -> 280 ;
281 [label=<percentCompacted SoilArea &le; 2.192<br/>gini = 0.444<br/>samples = 3<br/>value = [1, 0, 0, 2]<br/>class = Special Purpose>, fillcolor="#d739e57f"] ;
280 -> 281 ;
282 [label=<gini = 0.0<br/>samples = 2<br/>value = [0, 0, 0, 2]<br/>class = Special Purpose>, fillcolor="#d739e5ff"] ;
281 -> 282 ;
283 [label=<gini = 0.0<br/>samples = 1<br/>value = [1, 0, 0, 0]<br/>class = Commercial>, fillcolor="#e58139ff"] ;
281 -> 283 ;
284 [label=<gini = 0.0<br/>samples = 47<br/>value = [0, 0, 0, 47]<br/>class = Special Purpose>, fillcolor="#d739e5ff"] ;
280 -> 284 ;
285 [label=<gini = 0.0<br/>samples = 1<br/>value = [1, 0, 0, 0]<br/>class = Commercial>, fillcolor="#e58139ff"] ;
279 -> 285 ;
286 [label=<gini = 0.0<br/>samples = 2<br/>value = [2, 0, 0, 0]<br/>class = Commercial>, fillcolor="#e58139ff"] ;
278 -> 286 ;
287 [label=<percentPaved ParkingArea &le; 0.08<br/>gini = 0.599<br/>samples = 1761<br/>value = [675, 31, 867, 188]<br/>class = Residential>, fillcolor="#399de52d"] ;
3 -> 287 ;
288 [label=<percentPaved DrivewayArea &le; 0.003<br/>gini = 0.508<br/>samples = 864<br/>value = [232, 6, 555, 71]<br/>class = Residential>, fillcolor="#399de582"] ;
287 -> 288 ;
289 [label=<percentUnpaved DrivewayArea &le; 0.021<br/>gini = 0.637<br/>samples = 329<br/>value = [110, 6, 154, 59]<br/>class = Residential>, fillcolor="#399de533"] ;
288 -> 289 ;
290 [label=<zoneArea &le; 10402.687<br/>gini = 0.669<br/>samples = 211<br/>value = [77, 3, 76, 55]<br/>class = Commercial>, fillcolor="#e5813902"] ;
289 -> 290 ;
291 [label=<Paved AlleyCount &le; 0.5<br/>gini = 0.571<br/>samples = 75<br/>value = [36, 1, 33, 5]<br/>class = Commercial>, fillcolor="#e5813912"] ;
290 -> 291 ;
292 [label=<percentPavementArea &le; 0.034<br/>gini = 0.569<br/>samples = 69<br/>value = [36, 1, 27, 5]<br/>class = Commercial>, fillcolor="#e5813937"] ;
291 -> 292 ;
293 [label=<percentUnpaved ParkingArea &le; 0.128<br/>gini = 0.581<br/>samples = 64<br/>value = [31, 1, 27, 5]<br/>class = Commercial>, fillcolor="#e581391c"] ;
292 -> 293 ;
294 [label=<percentStructureArea &le; 0.537<br/>gini = 0.575<br/>samples = 58<br/>value = [26, 0, 27, 5]<br/>class = Residential>, fillcolor="#399de508"] ;
293 -> 294 ;
295 [label=<percentPatioArea &le; 0.034<br/>gini = 0.531<br/>samples = 41<br/>value = [16, 0, 23, 2]<br/>class = Residential>, fillcolor="#399de547"] ;
294 -> 295 ;
296 [label=<percentStructureArea &le; 0.397<br/>gini = 0.557<br/>samples = 32<br/>value = [15, 0, 15, 2]<br/>class = Commercial>, fillcolor="#e5813900"] ;
295 -> 296 ;
297 [label=<SidewalkCount &le; 2.5<br/>gini = 0.503<br/>samples = 21<br/>value = [13, 0, 7, 1]<br/>class = Commercial>, fillcolor="#e581396d"] ;
296 -> 297 ;
298 [label=<percentSidewalkArea &le; 0.289<br/>gini = 0.426<br/>samples = 18<br/>value = [13, 0, 4, 1]<br/>class = Commercial>, fillcolor="#e58139a4"] ;
297 -> 298 ;
299 [label=<zoneArea &le; 2434.175<br/>gini = 0.231<br/>samples = 15<br/>value = [13, 0, 2, 0]<br/>class = Commercial>, fillcolor="#e58139d8"] ;
298 -> 299 ;
300 [label=<zoneArea &le; 1555.716<br/>gini = 0.444<br/>samples = 3<br/>value = [1, 0, 2, 0]<br/>class = Residential>, fillcolor="#399de57f"] ;
299 -> 300 ;
301 [label=<gini = 0.0<br/>samples = 1<br/>value = [1, 0, 0, 0]<br/>class = Commercial>, fillcolor="#e58139ff"] ;
300 -> 301 ;
302 [label=<gini = 0.0<br/>samples = 2<br/>value = [0, 0, 2, 0]<br/>class = Residential>, fillcolor="#399de5ff"] ;
300 -> 302 ;
303 [label=<gini = 0.0<br/>samples = 12<br/>value = [12, 0, 0, 0]<br/>class = Commercial>, fillcolor="#e58139ff"] ;
299 -> 303 ;
304 [label=<percentStructureArea &le; 0.231<br/>gini = 0.444<br/>samples = 3<br/>value = [0, 0, 2, 1]<br/>class = Residential>, fillcolor="#399de57f"] ;
298 -> 304 ;
305 [label=<gini = 0.0<br/>samples = 1<br/>value = [0, 0, 0, 1]<br/>class = Special Purpose>, fillcolor="#d739e5ff"] ;
304 -> 305 ;
306 [label=<gini = 0.0<br/>samples = 2<br/>value = [0, 0, 2, 0]<br/>class = Residential>, fillcolor="#399de5ff"] ;
304 -> 306 ;
307 [label=<gini = 0.0<br/>samples = 3<br/>value = [0, 0, 3, 0]<br/>class = Residential>, fillcolor="#399de5ff"] ;
297 -> 307 ;
308 [label=<percentSidewalkArea &le; 0.481<br/>gini = 0.43<br/>samples = 11<br/>value = [2, 0, 8, 1]<br/>class = Residential>, fillcolor="#399de5aa"] ;
296 -> 308 ;
309 [label=<StructureCount &le; 4.0<br/>gini = 0.198<br/>samples = 9<br/>value = [1, 0, 8, 0]<br/>class = Residential>, fillcolor="#399de5df"] ;
308 -> 309 ;
310 [label=<gini = 0.0<br/>samples = 8<br/>value = [0, 0, 8, 0]<br/>class = Residential>, fillcolor="#399de5ff"] ;
309 -> 310 ;
311 [label=<gini = 0.0<br/>samples = 1<br/>value = [1, 0, 0, 0]<br/>class = Commercial>, fillcolor="#e58139ff"] ;
309 -> 311 ;
312 [label=<percentSidewalkArea &le; 1.745<br/>gini = 0.5<br/>samples = 2<br/>value = [1, 0, 0, 1]<br/>class = Commercial>, fillcolor="#e5813900"] ;
308 -> 312 ;
313 [label=<gini = 0.0<br/>samples = 1<br/>value = [1, 0, 0, 0]<br/>class = Commercial>, fillcolor="#e58139ff"] ;
312 -> 313 ;
314 [label=<gini = 0.0<br/>samples = 1<br/>value = [0, 0, 0, 1]<br/>class = Special Purpose>, fillcolor="#d739e5ff"] ;
312 -> 314 ;
315 [label=<percentPatioArea &le; 1.159<br/>gini = 0.198<br/>samples = 9<br/>value = [1, 0, 8, 0]<br/>class = Residential>, fillcolor="#399de5df"] ;
295 -> 315 ;
316 [label=<gini = 0.0<br/>samples = 8<br/>value = [0, 0, 8, 0]<br/>class = Residential>, fillcolor="#399de5ff"] ;
315 -> 316 ;
317 [label=<gini = 0.0<br/>samples = 1<br/>value = [1, 0, 0, 0]<br/>class = Commercial>, fillcolor="#e58139ff"] ;
315 -> 317 ;
318 [label=<Paved RoadCount &le; 0.5<br/>gini = 0.567<br/>samples = 17<br/>value = [10, 0, 4, 3]<br/>class = Commercial>, fillcolor="#e5813976"] ;
294 -> 318 ;
319 [label=<zoneArea &le; 2671.057<br/>gini = 0.48<br/>samples = 15<br/>value = [10, 0, 4, 1]<br/>class = Commercial>, fillcolor="#e581398b"] ;
318 -> 319 ;
320 [label=<percentStructureArea &le; 0.618<br/>gini = 0.5<br/>samples = 2<br/>value = [0, 0, 1, 1]<br/>class = Residential>, fillcolor="#399de500"] ;
319 -> 320 ;
321 [label=<gini = 0.0<br/>samples = 1<br/>value = [0, 0, 0, 1]<br/>class = Special Purpose>, fillcolor="#d739e5ff"] ;
320 -> 321 ;
322 [label=<gini = 0.0<br/>samples = 1<br/>value = [0, 0, 1, 0]<br/>class = Residential>, fillcolor="#399de5ff"] ;
320 -> 322 ;
323 [label=<percentUncovered DeckArea &le; 0.032<br/>gini = 0.355<br/>samples = 13<br/>value = [10, 0, 3, 0]<br/>class = Commercial>, fillcolor="#e58139b3"] ;
319 -> 323 ;
324 [label=<PatioCount &le; 0.5<br/>gini = 0.278<br/>samples = 12<br/>value = [10, 0, 2, 0]<br/>class = Commercial>, fillcolor="#e58139cc"] ;
323 -> 324 ;
325 [label=<gini = 0.0<br/>samples = 7<br/>value = [7, 0, 0, 0]<br/>class = Commercial>, fillcolor="#e58139ff"] ;
324 -> 325 ;
326 [label=<zoneArea &le; 6275.607<br/>gini = 0.48<br/>samples = 5<br/>value = [3, 0, 2, 0]<br/>class = Commercial>, fillcolor="#e5813955"] ;
324 -> 326 ;
327 [label=<gini = 0.0<br/>samples = 3<br/>value = [3, 0, 0, 0]<br/>class = Commercial>, fillcolor="#e58139ff"] ;
326 -> 327 ;
328 [label=<gini = 0.0<br/>samples = 2<br/>value = [0, 0, 2, 0]<br/>class = Residential>, fillcolor="#399de5ff"] ;
326 -> 328 ;
329 [label=<gini = 0.0<br/>samples = 1<br/>value = [0, 0, 1, 0]<br/>class = Residential>, fillcolor="#399de5ff"] ;
323 -> 329 ;
330 [label=<gini = 0.0<br/>samples = 2<br/>value = [0, 0, 0, 2]<br/>class = Special Purpose>, fillcolor="#d739e5ff"] ;
318 -> 330 ;
331 [label=<percentCompacted SoilArea &le; 14.017<br/>gini = 0.278<br/>samples = 6<br/>value = [5, 1, 0, 0]<br/>class = Commercial>, fillcolor="#e58139cc"] ;
293 -> 331 ;
332 [label=<gini = 0.0<br/>samples = 5<br/>value = [5, 0, 0, 0]<br/>class = Commercial>, fillcolor="#e58139ff"] ;
331 -> 332 ;
333 [label=<gini = 0.0<br/>samples = 1<br/>value = [0, 1, 0, 0]<br/>class = Industrial>, fillcolor="#47e539ff"] ;
331 -> 333 ;
334 [label=<gini = 0.0<br/>samples = 5<br/>value = [5, 0, 0, 0]<br/>class = Commercial>, fillcolor="#e58139ff"] ;
292 -> 334 ;
335 [label=<gini = 0.0<br/>samples = 6<br/>value = [0, 0, 6, 0]<br/>class = Residential>, fillcolor="#399de5ff"] ;
291 -> 335 ;
336 [label=<percentStructureArea &le; 0.422<br/>gini = 0.674<br/>samples = 136<br/>value = [41, 2, 43, 50]<br/>class = Special Purpose>, fillcolor="#d739e513"] ;
290 -> 336 ;
337 [label=<percentStructureArea &le; 0.165<br/>gini = 0.663<br/>samples = 90<br/>value = [24, 2, 39, 25]<br/>class = Residential>, fillcolor="#399de537"] ;
336 -> 337 ;
338 [label=<percentPaved DitchArea &le; 0.0<br/>gini = 0.665<br/>samples = 44<br/>value = [16, 2, 8, 18]<br/>class = Special Purpose>, fillcolor="#d739e512"] ;
337 -> 338 ;
339 [label=<percentPavementArea &le; 0.097<br/>gini = 0.676<br/>samples = 38<br/>value = [16, 2, 8, 12]<br/>class = Commercial>, fillcolor="#e5813927"] ;
338 -> 339 ;
340 [label=<zoneArea &le; 19222.405<br/>gini = 0.643<br/>samples = 33<br/>value = [15, 2, 4, 12]<br/>class = Commercial>, fillcolor="#e5813924"] ;
339 -> 340 ;
341 [label=<gini = 0.0<br/>samples = 5<br/>value = [5, 0, 0, 0]<br/>class = Commercial>, fillcolor="#e58139ff"] ;
340 -> 341 ;
342 [label=<zoneArea &le; 46367.375<br/>gini = 0.663<br/>samples = 28<br/>value = [10, 2, 4, 12]<br/>class = Special Purpose>, fillcolor="#d739e51c"] ;
340 -> 342 ;
343 [label=<zoneArea &le; 25280.159<br/>gini = 0.46<br/>samples = 10<br/>value = [0, 1, 2, 7]<br/>class = Special Purpose>, fillcolor="#d739e59f"] ;
342 -> 343 ;
344 [label=<percentUnpaved ParkingArea &le; 0.729<br/>gini = 0.444<br/>samples = 3<br/>value = [0, 1, 2, 0]<br/>class = Residential>, fillcolor="#399de57f"] ;
343 -> 344 ;
345 [label=<gini = 0.0<br/>samples = 2<br/>value = [0, 0, 2, 0]<br/>class = Residential>, fillcolor="#399de5ff"] ;
344 -> 345 ;
346 [label=<gini = 0.0<br/>samples = 1<br/>value = [0, 1, 0, 0]<br/>class = Industrial>, fillcolor="#47e539ff"] ;
344 -> 346 ;
347 [label=<gini = 0.0<br/>samples = 7<br/>value = [0, 0, 0, 7]<br/>class = Special Purpose>, fillcolor="#d739e5ff"] ;
343 -> 347 ;
348 [label=<percentSidewalkArea &le; 0.017<br/>gini = 0.599<br/>samples = 18<br/>value = [10, 1, 2, 5]<br/>class = Commercial>, fillcolor="#e5813962"] ;
342 -> 348 ;
349 [label=<Unpaved ParkingCount &le; 1.5<br/>gini = 0.403<br/>samples = 12<br/>value = [9, 1, 2, 0]<br/>class = Commercial>, fillcolor="#e58139b2"] ;
348 -> 349 ;
350 [label=<zoneArea &le; 126567.656<br/>gini = 0.298<br/>samples = 11<br/>value = [9, 0, 2, 0]<br/>class = Commercial>, fillcolor="#e58139c6"] ;
349 -> 350 ;
351 [label=<StructureCount &le; 2.5<br/>gini = 0.48<br/>samples = 5<br/>value = [3, 0, 2, 0]<br/>class = Commercial>, fillcolor="#e5813955"] ;
350 -> 351 ;
352 [label=<gini = 0.0<br/>samples = 3<br/>value = [3, 0, 0, 0]<br/>class = Commercial>, fillcolor="#e58139ff"] ;
351 -> 352 ;
353 [label=<gini = 0.0<br/>samples = 2<br/>value = [0, 0, 2, 0]<br/>class = Residential>, fillcolor="#399de5ff"] ;
351 -> 353 ;
354 [label=<gini = 0.0<br/>samples = 6<br/>value = [6, 0, 0, 0]<br/>class = Commercial>, fillcolor="#e58139ff"] ;
350 -> 354 ;
355 [label=<gini = 0.0<br/>samples = 1<br/>value = [0, 1, 0, 0]<br/>class = Industrial>, fillcolor="#47e539ff"] ;
349 -> 355 ;
356 [label=<percentUnpaved ParkingArea &le; 0.812<br/>gini = 0.278<br/>samples = 6<br/>value = [1, 0, 0, 5]<br/>class = Special Purpose>, fillcolor="#d739e5cc"] ;
348 -> 356 ;
357 [label=<gini = 0.0<br/>samples = 5<br/>value = [0, 0, 0, 5]<br/>class = Special Purpose>, fillcolor="#d739e5ff"] ;
356 -> 357 ;
358 [label=<gini = 0.0<br/>samples = 1<br/>value = [1, 0, 0, 0]<br/>class = Commercial>, fillcolor="#e58139ff"] ;
356 -> 358 ;
359 [label=<zoneArea &le; 54425.242<br/>gini = 0.32<br/>samples = 5<br/>value = [1, 0, 4, 0]<br/>class = Residential>, fillcolor="#399de5bf"] ;
339 -> 359 ;
360 [label=<gini = 0.0<br/>samples = 3<br/>value = [0, 0, 3, 0]<br/>class = Residential>, fillcolor="#399de5ff"] ;
359 -> 360 ;
361 [label=<StructureCount &le; 2.0<br/>gini = 0.5<br/>samples = 2<br/>value = [1, 0, 1, 0]<br/>class = Commercial>, fillcolor="#e5813900"] ;
359 -> 361 ;
362 [label=<gini = 0.0<br/>samples = 1<br/>value = [1, 0, 0, 0]<br/>class = Commercial>, fillcolor="#e58139ff"] ;
361 -> 362 ;
363 [label=<gini = 0.0<br/>samples = 1<br/>value = [0, 0, 1, 0]<br/>class = Residential>, fillcolor="#399de5ff"] ;
361 -> 363 ;
364 [label=<gini = 0.0<br/>samples = 6<br/>value = [0, 0, 0, 6]<br/>class = Special Purpose>, fillcolor="#d739e5ff"] ;
338 -> 364 ;
365 [label=<percentUnpaved ParkingArea &le; 0.528<br/>gini = 0.492<br/>samples = 46<br/>value = [8, 0, 31, 7]<br/>class = Residential>, fillcolor="#399de59a"] ;
337 -> 365 ;
366 [label=<percentPaved ParkingArea &le; 0.045<br/>gini = 0.46<br/>samples = 44<br/>value = [6, 0, 31, 7]<br/>class = Residential>, fillcolor="#399de5a5"] ;
365 -> 366 ;
367 [label=<zoneArea &le; 10766.041<br/>gini = 0.413<br/>samples = 39<br/>value = [6, 0, 29, 4]<br/>class = Residential>, fillcolor="#399de5b2"] ;
366 -> 367 ;
368 [label=<gini = 0.0<br/>samples = 1<br/>value = [0, 0, 0, 1]<br/>class = Special Purpose>, fillcolor="#d739e5ff"] ;
367 -> 368 ;
369 [label=<percentSidewalkArea &le; 0.508<br/>gini = 0.386<br/>samples = 38<br/>value = [6, 0, 29, 3]<br/>class = Residential>, fillcolor="#399de5b7"] ;
367 -> 369 ;
370 [label=<PavementCount &le; 6.5<br/>gini = 0.356<br/>samples = 37<br/>value = [6, 0, 29, 2]<br/>class = Residential>, fillcolor="#399de5bd"] ;
369 -> 370 ;
371 [label=<percentPaved DitchArea &le; 6.425<br/>gini = 0.329<br/>samples = 36<br/>value = [5, 0, 29, 2]<br/>class = Residential>, fillcolor="#399de5c5"] ;
370 -> 371 ;
372 [label=<Unpaved Athletic FieldCount &le; 0.5<br/>gini = 0.297<br/>samples = 35<br/>value = [4, 0, 29, 2]<br/>class = Residential>, fillcolor="#399de5ce"] ;
371 -> 372 ;
373 [label=<PatioCount &le; 0.5<br/>gini = 0.261<br/>samples = 34<br/>value = [3, 0, 29, 2]<br/>class = Residential>, fillcolor="#399de5d6"] ;
372 -> 373 ;
374 [label=<zoneArea &le; 26841.302<br/>gini = 0.457<br/>samples = 17<br/>value = [3, 0, 12, 2]<br/>class = Residential>, fillcolor="#399de5a4"] ;
373 -> 374 ;
375 [label=<percentStructureArea &le; 0.172<br/>gini = 0.26<br/>samples = 13<br/>value = [2, 0, 11, 0]<br/>class = Residential>, fillcolor="#399de5d1"] ;
374 -> 375 ;
376 [label=<gini = 0.0<br/>samples = 1<br/>value = [1, 0, 0, 0]<br/>class = Commercial>, fillcolor="#e58139ff"] ;
375 -> 376 ;
377 [label=<zoneArea &le; 12068.128<br/>gini = 0.153<br/>samples = 12<br/>value = [1, 0, 11, 0]<br/>class = Residential>, fillcolor="#399de5e8"] ;
375 -> 377 ;
378 [label=<StructureCount &le; 2.5<br/>gini = 0.375<br/>samples = 4<br/>value = [1, 0, 3, 0]<br/>class = Residential>, fillcolor="#399de5aa"] ;
377 -> 378 ;
379 [label=<gini = 0.0<br/>samples = 3<br/>value = [0, 0, 3, 0]<br/>class = Residential>, fillcolor="#399de5ff"] ;
378 -> 379 ;
380 [label=<gini = 0.0<br/>samples = 1<br/>value = [1, 0, 0, 0]<br/>class = Commercial>, fillcolor="#e58139ff"] ;
378 -> 380 ;
381 [label=<gini = 0.0<br/>samples = 8<br/>value = [0, 0, 8, 0]<br/>class = Residential>, fillcolor="#399de5ff"] ;
377 -> 381 ;
382 [label=<percentPavementArea &le; 0.018<br/>gini = 0.625<br/>samples = 4<br/>value = [1, 0, 1, 2]<br/>class = Special Purpose>, fillcolor="#d739e555"] ;
374 -> 382 ;
383 [label=<gini = 0.0<br/>samples = 2<br/>value = [0, 0, 0, 2]<br/>class = Special Purpose>, fillcolor="#d739e5ff"] ;
382 -> 383 ;
384 [label=<PavementCount &le; 1.5<br/>gini = 0.5<br/>samples = 2<br/>value = [1, 0, 1, 0]<br/>class = Commercial>, fillcolor="#e5813900"] ;
382 -> 384 ;
385 [label=<gini = 0.0<br/>samples = 1<br/>value = [1, 0, 0, 0]<br/>class = Commercial>, fillcolor="#e58139ff"] ;
384 -> 385 ;
386 [label=<gini = 0.0<br/>samples = 1<br/>value = [0, 0, 1, 0]<br/>class = Residential>, fillcolor="#399de5ff"] ;
384 -> 386 ;
387 [label=<gini = 0.0<br/>samples = 17<br/>value = [0, 0, 17, 0]<br/>class = Residential>, fillcolor="#399de5ff"] ;
373 -> 387 ;
388 [label=<gini = 0.0<br/>samples = 1<br/>value = [1, 0, 0, 0]<br/>class = Commercial>, fillcolor="#e58139ff"] ;
372 -> 388 ;
389 [label=<gini = 0.0<br/>samples = 1<br/>value = [1, 0, 0, 0]<br/>class = Commercial>, fillcolor="#e58139ff"] ;
371 -> 389 ;
390 [label=<gini = 0.0<br/>samples = 1<br/>value = [1, 0, 0, 0]<br/>class = Commercial>, fillcolor="#e58139ff"] ;
370 -> 390 ;
391 [label=<gini = 0.0<br/>samples = 1<br/>value = [0, 0, 0, 1]<br/>class = Special Purpose>, fillcolor="#d739e5ff"] ;
369 -> 391 ;
392 [label=<percentUncovered DeckArea &le; 0.001<br/>gini = 0.48<br/>samples = 5<br/>value = [0, 0, 2, 3]<br/>class = Special Purpose>, fillcolor="#d739e555"] ;
366 -> 392 ;
393 [label=<gini = 0.0<br/>samples = 2<br/>value = [0, 0, 2, 0]<br/>class = Residential>, fillcolor="#399de5ff"] ;
392 -> 393 ;
394 [label=<gini = 0.0<br/>samples = 3<br/>value = [0, 0, 0, 3]<br/>class = Special Purpose>, fillcolor="#d739e5ff"] ;
392 -> 394 ;
395 [label=<gini = 0.0<br/>samples = 2<br/>value = [2, 0, 0, 0]<br/>class = Commercial>, fillcolor="#e58139ff"] ;
365 -> 395 ;
396 [label=<percentPavementArea &le; 0.008<br/>gini = 0.56<br/>samples = 46<br/>value = [17, 0, 4, 25]<br/>class = Special Purpose>, fillcolor="#d739e546"] ;
336 -> 396 ;
397 [label=<BridgeCount &le; 0.5<br/>gini = 0.452<br/>samples = 34<br/>value = [7, 0, 3, 24]<br/>class = Special Purpose>, fillcolor="#d739e5a1"] ;
396 -> 397 ;
398 [label=<percentSidewalkArea &le; 0.202<br/>gini = 0.375<br/>samples = 31<br/>value = [4, 0, 3, 24]<br/>class = Special Purpose>, fillcolor="#d739e5bd"] ;
397 -> 398 ;
399 [label=<percentOpen SpaceArea &le; 0.11<br/>gini = 0.269<br/>samples = 26<br/>value = [1, 0, 3, 22]<br/>class = Special Purpose>, fillcolor="#d739e5d3"] ;
398 -> 399 ;
400 [label=<percentUnpaved DrivewayArea &le; 0.005<br/>gini = 0.211<br/>samples = 25<br/>value = [0, 0, 3, 22]<br/>class = Special Purpose>, fillcolor="#d739e5dc"] ;
399 -> 400 ;
401 [label=<Unpaved ParkingCount &le; 0.5<br/>gini = 0.153<br/>samples = 24<br/>value = [0, 0, 2, 22]<br/>class = Special Purpose>, fillcolor="#d739e5e8"] ;
400 -> 401 ;
402 [label=<zoneArea &le; 34738.289<br/>gini = 0.087<br/>samples = 22<br/>value = [0, 0, 1, 21]<br/>class = Special Purpose>, fillcolor="#d739e5f3"] ;
401 -> 402 ;
403 [label=<gini = 0.0<br/>samples = 15<br/>value = [0, 0, 0, 15]<br/>class = Special Purpose>, fillcolor="#d739e5ff"] ;
402 -> 403 ;
404 [label=<percentSidewalkArea &le; 0.106<br/>gini = 0.245<br/>samples = 7<br/>value = [0, 0, 1, 6]<br/>class = Special Purpose>, fillcolor="#d739e5d4"] ;
402 -> 404 ;
405 [label=<gini = 0.0<br/>samples = 6<br/>value = [0, 0, 0, 6]<br/>class = Special Purpose>, fillcolor="#d739e5ff"] ;
404 -> 405 ;
406 [label=<gini = 0.0<br/>samples = 1<br/>value = [0, 0, 1, 0]<br/>class = Residential>, fillcolor="#399de5ff"] ;
404 -> 406 ;
407 [label=<percentStructureArea &le; 0.729<br/>gini = 0.5<br/>samples = 2<br/>value = [0, 0, 1, 1]<br/>class = Residential>, fillcolor="#399de500"] ;
401 -> 407 ;
408 [label=<gini = 0.0<br/>samples = 1<br/>value = [0, 0, 1, 0]<br/>class = Residential>, fillcolor="#399de5ff"] ;
407 -> 408 ;
409 [label=<gini = 0.0<br/>samples = 1<br/>value = [0, 0, 0, 1]<br/>class = Special Purpose>, fillcolor="#d739e5ff"] ;
407 -> 409 ;
410 [label=<gini = 0.0<br/>samples = 1<br/>value = [0, 0, 1, 0]<br/>class = Residential>, fillcolor="#399de5ff"] ;
400 -> 410 ;
411 [label=<gini = 0.0<br/>samples = 1<br/>value = [1, 0, 0, 0]<br/>class = Commercial>, fillcolor="#e58139ff"] ;
399 -> 411 ;
412 [label=<zoneArea &le; 12194.37<br/>gini = 0.48<br/>samples = 5<br/>value = [3, 0, 0, 2]<br/>class = Commercial>, fillcolor="#e5813955"] ;
398 -> 412 ;
413 [label=<gini = 0.0<br/>samples = 2<br/>value = [0, 0, 0, 2]<br/>class = Special Purpose>, fillcolor="#d739e5ff"] ;
412 -> 413 ;
414 [label=<gini = 0.0<br/>samples = 3<br/>value = [3, 0, 0, 0]<br/>class = Commercial>, fillcolor="#e58139ff"] ;
412 -> 414 ;
415 [label=<gini = 0.0<br/>samples = 3<br/>value = [3, 0, 0, 0]<br/>class = Commercial>, fillcolor="#e58139ff"] ;
397 -> 415 ;
416 [label=<PavementCount &le; 4.5<br/>gini = 0.292<br/>samples = 12<br/>value = [10, 0, 1, 1]<br/>class = Commercial>, fillcolor="#e58139d1"] ;
396 -> 416 ;
417 [label=<zoneArea &le; 29549.652<br/>gini = 0.165<br/>samples = 11<br/>value = [10, 0, 1, 0]<br/>class = Commercial>, fillcolor="#e58139e6"] ;
416 -> 417 ;
418 [label=<PavementCount &le; 1.5<br/>gini = 0.444<br/>samples = 3<br/>value = [2, 0, 1, 0]<br/>class = Commercial>, fillcolor="#e581397f"] ;
417 -> 418 ;
419 [label=<gini = 0.0<br/>samples = 2<br/>value = [2, 0, 0, 0]<br/>class = Commercial>, fillcolor="#e58139ff"] ;
418 -> 419 ;
420 [label=<gini = 0.0<br/>samples = 1<br/>value = [0, 0, 1, 0]<br/>class = Residential>, fillcolor="#399de5ff"] ;
418 -> 420 ;
421 [label=<gini = 0.0<br/>samples = 8<br/>value = [8, 0, 0, 0]<br/>class = Commercial>, fillcolor="#e58139ff"] ;
417 -> 421 ;
422 [label=<gini = 0.0<br/>samples = 1<br/>value = [0, 0, 0, 1]<br/>class = Special Purpose>, fillcolor="#d739e5ff"] ;
416 -> 422 ;
423 [label=<percentUnpaved ParkingArea &le; 0.153<br/>gini = 0.483<br/>samples = 118<br/>value = [33, 3, 78, 4]<br/>class = Residential>, fillcolor="#399de587"] ;
289 -> 423 ;
424 [label=<percentUnpaved DrivewayArea &le; 0.559<br/>gini = 0.458<br/>samples = 111<br/>value = [27, 3, 77, 4]<br/>class = Residential>, fillcolor="#399de598"] ;
423 -> 424 ;
425 [label=<PatioCount &le; 1.5<br/>gini = 0.439<br/>samples = 109<br/>value = [27, 3, 77, 2]<br/>class = Residential>, fillcolor="#399de59b"] ;
424 -> 425 ;
426 [label=<StructureCount &le; 5.5<br/>gini = 0.502<br/>samples = 80<br/>value = [24, 3, 51, 2]<br/>class = Residential>, fillcolor="#399de57b"] ;
425 -> 426 ;
427 [label=<percentUncovered DeckArea &le; 0.004<br/>gini = 0.517<br/>samples = 66<br/>value = [24, 1, 39, 2]<br/>class = Residential>, fillcolor="#399de55b"] ;
426 -> 427 ;
428 [label=<percentSidewalkArea &le; 0.08<br/>gini = 0.55<br/>samples = 52<br/>value = [22, 1, 27, 2]<br/>class = Residential>, fillcolor="#399de52b"] ;
427 -> 428 ;
429 [label=<percentUnpaved DrivewayArea &le; 0.224<br/>gini = 0.515<br/>samples = 38<br/>value = [13, 1, 23, 1]<br/>class = Residential>, fillcolor="#399de566"] ;
428 -> 429 ;
430 [label=<percentPaved RoadArea &le; 194.02<br/>gini = 0.479<br/>samples = 33<br/>value = [9, 1, 22, 1]<br/>class = Residential>, fillcolor="#399de58a"] ;
429 -> 430 ;
431 [label=<percentSidewalkArea &le; 0.013<br/>gini = 0.414<br/>samples = 27<br/>value = [5, 1, 20, 1]<br/>class = Residential>, fillcolor="#399de5ae"] ;
430 -> 431 ;
432 [label=<percentUnpaved DrivewayArea &le; 0.036<br/>gini = 0.578<br/>samples = 16<br/>value = [5, 1, 9, 1]<br/>class = Residential>, fillcolor="#399de55d"] ;
431 -> 432 ;
433 [label=<gini = 0.0<br/>samples = 1<br/>value = [0, 0, 0, 1]<br/>class = Special Purpose>, fillcolor="#d739e5ff"] ;
432 -> 433 ;
434 [label=<percentUnpaved DrivewayArea &le; 0.15<br/>gini = 0.524<br/>samples = 15<br/>value = [5, 1, 9, 0]<br/>class = Residential>, fillcolor="#399de566"] ;
432 -> 434 ;
435 [label=<Uncovered DeckCount &le; 0.5<br/>gini = 0.459<br/>samples = 14<br/>value = [5, 0, 9, 0]<br/>class = Residential>, fillcolor="#399de571"] ;
434 -> 435 ;
436 [label=<percentStructureArea &le; 0.23<br/>gini = 0.426<br/>samples = 13<br/>value = [4, 0, 9, 0]<br/>class = Residential>, fillcolor="#399de58e"] ;
435 -> 436 ;
437 [label=<zoneArea &le; 10458.982<br/>gini = 0.494<br/>samples = 9<br/>value = [4, 0, 5, 0]<br/>class = Residential>, fillcolor="#399de533"] ;
436 -> 437 ;
438 [label=<gini = 0.0<br/>samples = 2<br/>value = [2, 0, 0, 0]<br/>class = Commercial>, fillcolor="#e58139ff"] ;
437 -> 438 ;
439 [label=<StructureCount &le; 1.5<br/>gini = 0.408<br/>samples = 7<br/>value = [2, 0, 5, 0]<br/>class = Residential>, fillcolor="#399de599"] ;
437 -> 439 ;
440 [label=<gini = 0.0<br/>samples = 1<br/>value = [1, 0, 0, 0]<br/>class = Commercial>, fillcolor="#e58139ff"] ;
439 -> 440 ;
441 [label=<percentSidewalkArea &le; 0.006<br/>gini = 0.278<br/>samples = 6<br/>value = [1, 0, 5, 0]<br/>class = Residential>, fillcolor="#399de5cc"] ;
439 -> 441 ;
442 [label=<gini = 0.0<br/>samples = 5<br/>value = [0, 0, 5, 0]<br/>class = Residential>, fillcolor="#399de5ff"] ;
441 -> 442 ;
443 [label=<gini = 0.0<br/>samples = 1<br/>value = [1, 0, 0, 0]<br/>class = Commercial>, fillcolor="#e58139ff"] ;
441 -> 443 ;
444 [label=<gini = 0.0<br/>samples = 4<br/>value = [0, 0, 4, 0]<br/>class = Residential>, fillcolor="#399de5ff"] ;
436 -> 444 ;
445 [label=<gini = 0.0<br/>samples = 1<br/>value = [1, 0, 0, 0]<br/>class = Commercial>, fillcolor="#e58139ff"] ;
435 -> 445 ;
446 [label=<gini = 0.0<br/>samples = 1<br/>value = [0, 1, 0, 0]<br/>class = Industrial>, fillcolor="#47e539ff"] ;
434 -> 446 ;
447 [label=<gini = 0.0<br/>samples = 11<br/>value = [0, 0, 11, 0]<br/>class = Residential>, fillcolor="#399de5ff"] ;
431 -> 447 ;
448 [label=<percentPaved RoadArea &le; 371.347<br/>gini = 0.444<br/>samples = 6<br/>value = [4, 0, 2, 0]<br/>class = Commercial>, fillcolor="#e581397f"] ;
430 -> 448 ;
449 [label=<gini = 0.0<br/>samples = 4<br/>value = [4, 0, 0, 0]<br/>class = Commercial>, fillcolor="#e58139ff"] ;
448 -> 449 ;
450 [label=<gini = 0.0<br/>samples = 2<br/>value = [0, 0, 2, 0]<br/>class = Residential>, fillcolor="#399de5ff"] ;
448 -> 450 ;
451 [label=<StructureCount &le; 4.5<br/>gini = 0.32<br/>samples = 5<br/>value = [4, 0, 1, 0]<br/>class = Commercial>, fillcolor="#e58139bf"] ;
429 -> 451 ;
452 [label=<gini = 0.0<br/>samples = 4<br/>value = [4, 0, 0, 0]<br/>class = Commercial>, fillcolor="#e58139ff"] ;
451 -> 452 ;
453 [label=<gini = 0.0<br/>samples = 1<br/>value = [0, 0, 1, 0]<br/>class = Residential>, fillcolor="#399de5ff"] ;
451 -> 453 ;
454 [label=<SidewalkCount &le; 1.5<br/>gini = 0.5<br/>samples = 14<br/>value = [9, 0, 4, 1]<br/>class = Commercial>, fillcolor="#e5813980"] ;
428 -> 454 ;
455 [label=<percentPaved AlleyArea &le; 0.61<br/>gini = 0.594<br/>samples = 8<br/>value = [3, 0, 4, 1]<br/>class = Residential>, fillcolor="#399de533"] ;
454 -> 455 ;
456 [label=<percentUnpaved DrivewayArea &le; 0.205<br/>gini = 0.49<br/>samples = 7<br/>value = [3, 0, 4, 0]<br/>class = Residential>, fillcolor="#399de540"] ;
455 -> 456 ;
457 [label=<percentSidewalkArea &le; 0.167<br/>gini = 0.48<br/>samples = 5<br/>value = [3, 0, 2, 0]<br/>class = Commercial>, fillcolor="#e5813955"] ;
456 -> 457 ;
458 [label=<percentPaved AlleyArea &le; 0.297<br/>gini = 0.444<br/>samples = 3<br/>value = [1, 0, 2, 0]<br/>class = Residential>, fillcolor="#399de57f"] ;
457 -> 458 ;
459 [label=<gini = 0.0<br/>samples = 2<br/>value = [0, 0, 2, 0]<br/>class = Residential>, fillcolor="#399de5ff"] ;
458 -> 459 ;
460 [label=<gini = 0.0<br/>samples = 1<br/>value = [1, 0, 0, 0]<br/>class = Commercial>, fillcolor="#e58139ff"] ;
458 -> 460 ;
461 [label=<gini = 0.0<br/>samples = 2<br/>value = [2, 0, 0, 0]<br/>class = Commercial>, fillcolor="#e58139ff"] ;
457 -> 461 ;
462 [label=<gini = 0.0<br/>samples = 2<br/>value = [0, 0, 2, 0]<br/>class = Residential>, fillcolor="#399de5ff"] ;
456 -> 462 ;
463 [label=<gini = 0.0<br/>samples = 1<br/>value = [0, 0, 0, 1]<br/>class = Special Purpose>, fillcolor="#d739e5ff"] ;
455 -> 463 ;
464 [label=<gini = 0.0<br/>samples = 6<br/>value = [6, 0, 0, 0]<br/>class = Commercial>, fillcolor="#e58139ff"] ;
454 -> 464 ;
465 [label=<percentPatioArea &le; 0.029<br/>gini = 0.245<br/>samples = 14<br/>value = [2, 0, 12, 0]<br/>class = Residential>, fillcolor="#399de5d4"] ;
427 -> 465 ;
466 [label=<gini = 0.0<br/>samples = 9<br/>value = [0, 0, 9, 0]<br/>class = Residential>, fillcolor="#399de5ff"] ;
465 -> 466 ;
467 [label=<percentPatioArea &le; 0.043<br/>gini = 0.48<br/>samples = 5<br/>value = [2, 0, 3, 0]<br/>class = Residential>, fillcolor="#399de555"] ;
465 -> 467 ;
468 [label=<gini = 0.0<br/>samples = 2<br/>value = [2, 0, 0, 0]<br/>class = Commercial>, fillcolor="#e58139ff"] ;
467 -> 468 ;
469 [label=<gini = 0.0<br/>samples = 3<br/>value = [0, 0, 3, 0]<br/>class = Residential>, fillcolor="#399de5ff"] ;
467 -> 469 ;
470 [label=<percentSidewalkArea &le; 0.071<br/>gini = 0.245<br/>samples = 14<br/>value = [0, 2, 12, 0]<br/>class = Residential>, fillcolor="#399de5d4"] ;
426 -> 470 ;
471 [label=<percentStructureArea &le; 0.05<br/>gini = 0.142<br/>samples = 13<br/>value = [0, 1, 12, 0]<br/>class = Residential>, fillcolor="#399de5ea"] ;
470 -> 471 ;
472 [label=<gini = 0.0<br/>samples = 1<br/>value = [0, 1, 0, 0]<br/>class = Industrial>, fillcolor="#47e539ff"] ;
471 -> 472 ;
473 [label=<gini = 0.0<br/>samples = 12<br/>value = [0, 0, 12, 0]<br/>class = Residential>, fillcolor="#399de5ff"] ;
471 -> 473 ;
474 [label=<gini = 0.0<br/>samples = 1<br/>value = [0, 1, 0, 0]<br/>class = Industrial>, fillcolor="#47e539ff"] ;
470 -> 474 ;
475 [label=<percentUnpaved RoadArea &le; 0.053<br/>gini = 0.185<br/>samples = 29<br/>value = [3, 0, 26, 0]<br/>class = Residential>, fillcolor="#399de5e2"] ;
425 -> 475 ;
476 [label=<percentOpen StorageArea &le; 0.057<br/>gini = 0.133<br/>samples = 28<br/>value = [2, 0, 26, 0]<br/>class = Residential>, fillcolor="#399de5eb"] ;
475 -> 476 ;
477 [label=<percentStructureArea &le; 0.112<br/>gini = 0.071<br/>samples = 27<br/>value = [1, 0, 26, 0]<br/>class = Residential>, fillcolor="#399de5f5"] ;
476 -> 477 ;
478 [label=<percentStructureArea &le; 0.108<br/>gini = 0.375<br/>samples = 4<br/>value = [1, 0, 3, 0]<br/>class = Residential>, fillcolor="#399de5aa"] ;
477 -> 478 ;
479 [label=<gini = 0.0<br/>samples = 3<br/>value = [0, 0, 3, 0]<br/>class = Residential>, fillcolor="#399de5ff"] ;
478 -> 479 ;
480 [label=<gini = 0.0<br/>samples = 1<br/>value = [1, 0, 0, 0]<br/>class = Commercial>, fillcolor="#e58139ff"] ;
478 -> 480 ;
481 [label=<gini = 0.0<br/>samples = 23<br/>value = [0, 0, 23, 0]<br/>class = Residential>, fillcolor="#399de5ff"] ;
477 -> 481 ;
482 [label=<gini = 0.0<br/>samples = 1<br/>value = [1, 0, 0, 0]<br/>class = Commercial>, fillcolor="#e58139ff"] ;
476 -> 482 ;
483 [label=<gini = 0.0<br/>samples = 1<br/>value = [1, 0, 0, 0]<br/>class = Commercial>, fillcolor="#e58139ff"] ;
475 -> 483 ;
484 [label=<gini = 0.0<br/>samples = 2<br/>value = [0, 0, 0, 2]<br/>class = Special Purpose>, fillcolor="#d739e5ff"] ;
424 -> 484 ;
485 [label=<zoneArea &le; 8805.643<br/>gini = 0.245<br/>samples = 7<br/>value = [6, 0, 1, 0]<br/>class = Commercial>, fillcolor="#e58139d4"] ;
423 -> 485 ;
486 [label=<gini = 0.0<br/>samples = 1<br/>value = [0, 0, 1, 0]<br/>class = Residential>, fillcolor="#399de5ff"] ;
485 -> 486 ;
487 [label=<gini = 0.0<br/>samples = 6<br/>value = [6, 0, 0, 0]<br/>class = Commercial>, fillcolor="#e58139ff"] ;
485 -> 487 ;
488 [label=<StructureCount &le; 1.5<br/>gini = 0.386<br/>samples = 535<br/>value = [122, 0, 401, 12]<br/>class = Residential>, fillcolor="#399de5ac"] ;
288 -> 488 ;
489 [label=<percentSidewalkArea &le; 0.255<br/>gini = 0.5<br/>samples = 115<br/>value = [43, 0, 69, 3]<br/>class = Residential>, fillcolor="#399de55c"] ;
488 -> 489 ;
490 [label=<percentPaved DrivewayArea &le; 0.1<br/>gini = 0.483<br/>samples = 104<br/>value = [35, 0, 66, 3]<br/>class = Residential>, fillcolor="#399de573"] ;
489 -> 490 ;
491 [label=<SidewalkCount &le; 3.5<br/>gini = 0.369<br/>samples = 48<br/>value = [9, 0, 37, 2]<br/>class = Residential>, fillcolor="#399de5b7"] ;
490 -> 491 ;
492 [label=<zoneArea &le; 9841.686<br/>gini = 0.32<br/>samples = 45<br/>value = [9, 0, 36, 0]<br/>class = Residential>, fillcolor="#399de5bf"] ;
491 -> 492 ;
493 [label=<percentPaved DrivewayArea &le; 0.031<br/>gini = 0.444<br/>samples = 21<br/>value = [7, 0, 14, 0]<br/>class = Residential>, fillcolor="#399de57f"] ;
492 -> 493 ;
494 [label=<gini = 0.0<br/>samples = 2<br/>value = [2, 0, 0, 0]<br/>class = Commercial>, fillcolor="#e58139ff"] ;
493 -> 494 ;
495 [label=<percentPatioArea &le; 0.014<br/>gini = 0.388<br/>samples = 19<br/>value = [5, 0, 14, 0]<br/>class = Residential>, fillcolor="#399de5a4"] ;
493 -> 495 ;
496 [label=<percentStructureArea &le; 0.612<br/>gini = 0.245<br/>samples = 14<br/>value = [2, 0, 12, 0]<br/>class = Residential>, fillcolor="#399de5d4"] ;
495 -> 496 ;
497 [label=<zoneArea &le; 7932.059<br/>gini = 0.142<br/>samples = 13<br/>value = [1, 0, 12, 0]<br/>class = Residential>, fillcolor="#399de5ea"] ;
496 -> 497 ;
498 [label=<gini = 0.0<br/>samples = 9<br/>value = [0, 0, 9, 0]<br/>class = Residential>, fillcolor="#399de5ff"] ;
497 -> 498 ;
499 [label=<zoneArea &le; 8105.796<br/>gini = 0.375<br/>samples = 4<br/>value = [1, 0, 3, 0]<br/>class = Residential>, fillcolor="#399de5aa"] ;
497 -> 499 ;
500 [label=<gini = 0.0<br/>samples = 1<br/>value = [1, 0, 0, 0]<br/>class = Commercial>, fillcolor="#e58139ff"] ;
499 -> 500 ;
501 [label=<gini = 0.0<br/>samples = 3<br/>value = [0, 0, 3, 0]<br/>class = Residential>, fillcolor="#399de5ff"] ;
499 -> 501 ;
502 [label=<gini = 0.0<br/>samples = 1<br/>value = [1, 0, 0, 0]<br/>class = Commercial>, fillcolor="#e58139ff"] ;
496 -> 502 ;
503 [label=<percentStructureArea &le; 0.322<br/>gini = 0.48<br/>samples = 5<br/>value = [3, 0, 2, 0]<br/>class = Commercial>, fillcolor="#e5813955"] ;
495 -> 503 ;
504 [label=<gini = 0.0<br/>samples = 3<br/>value = [3, 0, 0, 0]<br/>class = Commercial>, fillcolor="#e58139ff"] ;
503 -> 504 ;
505 [label=<gini = 0.0<br/>samples = 2<br/>value = [0, 0, 2, 0]<br/>class = Residential>, fillcolor="#399de5ff"] ;
503 -> 505 ;
506 [label=<percentUncovered DeckArea &le; 0.047<br/>gini = 0.153<br/>samples = 24<br/>value = [2, 0, 22, 0]<br/>class = Residential>, fillcolor="#399de5e8"] ;
492 -> 506 ;
507 [label=<percentSidewalkArea &le; 0.243<br/>gini = 0.083<br/>samples = 23<br/>value = [1, 0, 22, 0]<br/>class = Residential>, fillcolor="#399de5f3"] ;
506 -> 507 ;
508 [label=<gini = 0.0<br/>samples = 21<br/>value = [0, 0, 21, 0]<br/>class = Residential>, fillcolor="#399de5ff"] ;
507 -> 508 ;
509 [label=<percentPaved DrivewayArea &le; 0.031<br/>gini = 0.5<br/>samples = 2<br/>value = [1, 0, 1, 0]<br/>class = Commercial>, fillcolor="#e5813900"] ;
507 -> 509 ;
510 [label=<gini = 0.0<br/>samples = 1<br/>value = [1, 0, 0, 0]<br/>class = Commercial>, fillcolor="#e58139ff"] ;
509 -> 510 ;
511 [label=<gini = 0.0<br/>samples = 1<br/>value = [0, 0, 1, 0]<br/>class = Residential>, fillcolor="#399de5ff"] ;
509 -> 511 ;
512 [label=<gini = 0.0<br/>samples = 1<br/>value = [1, 0, 0, 0]<br/>class = Commercial>, fillcolor="#e58139ff"] ;
506 -> 512 ;
513 [label=<PatioCount &le; 1.0<br/>gini = 0.444<br/>samples = 3<br/>value = [0, 0, 1, 2]<br/>class = Special Purpose>, fillcolor="#d739e57f"] ;
491 -> 513 ;
514 [label=<gini = 0.0<br/>samples = 2<br/>value = [0, 0, 0, 2]<br/>class = Special Purpose>, fillcolor="#d739e5ff"] ;
513 -> 514 ;
515 [label=<gini = 0.0<br/>samples = 1<br/>value = [0, 0, 1, 0]<br/>class = Residential>, fillcolor="#399de5ff"] ;
513 -> 515 ;
516 [label=<zoneArea &le; 5294.362<br/>gini = 0.516<br/>samples = 56<br/>value = [26, 0, 29, 1]<br/>class = Residential>, fillcolor="#399de51a"] ;
490 -> 516 ;
517 [label=<percentPatioArea &le; 0.069<br/>gini = 0.219<br/>samples = 8<br/>value = [1, 0, 7, 0]<br/>class = Residential>, fillcolor="#399de5db"] ;
516 -> 517 ;
518 [label=<gini = 0.0<br/>samples = 7<br/>value = [0, 0, 7, 0]<br/>class = Residential>, fillcolor="#399de5ff"] ;
517 -> 518 ;
519 [label=<gini = 0.0<br/>samples = 1<br/>value = [1, 0, 0, 0]<br/>class = Commercial>, fillcolor="#e58139ff"] ;
517 -> 519 ;
520 [label=<percentPaved DrivewayArea &le; 0.416<br/>gini = 0.518<br/>samples = 48<br/>value = [25, 0, 22, 1]<br/>class = Commercial>, fillcolor="#e581391d"] ;
516 -> 520 ;
521 [label=<zoneArea &le; 11121.809<br/>gini = 0.521<br/>samples = 43<br/>value = [20, 0, 22, 1]<br/>class = Residential>, fillcolor="#399de516"] ;
520 -> 521 ;
522 [label=<zoneArea &le; 8548.833<br/>gini = 0.518<br/>samples = 28<br/>value = [16, 0, 11, 1]<br/>class = Commercial>, fillcolor="#e581394b"] ;
521 -> 522 ;
523 [label=<percentCompacted SoilArea &le; 0.764<br/>gini = 0.541<br/>samples = 23<br/>value = [11, 0, 11, 1]<br/>class = Commercial>, fillcolor="#e5813900"] ;
522 -> 523 ;
524 [label=<percentPatioArea &le; 0.008<br/>gini = 0.5<br/>samples = 22<br/>value = [11, 0, 11, 0]<br/>class = Commercial>, fillcolor="#e5813900"] ;
523 -> 524 ;
525 [label=<percentStructureArea &le; 0.393<br/>gini = 0.484<br/>samples = 17<br/>value = [7, 0, 10, 0]<br/>class = Residential>, fillcolor="#399de54d"] ;
524 -> 525 ;
526 [label=<percentPaved DrivewayArea &le; 0.271<br/>gini = 0.444<br/>samples = 15<br/>value = [5, 0, 10, 0]<br/>class = Residential>, fillcolor="#399de57f"] ;
525 -> 526 ;
527 [label=<zoneArea &le; 6366.043<br/>gini = 0.355<br/>samples = 13<br/>value = [3, 0, 10, 0]<br/>class = Residential>, fillcolor="#399de5b3"] ;
526 -> 527 ;
528 [label=<percentStructureArea &le; 0.246<br/>gini = 0.48<br/>samples = 5<br/>value = [3, 0, 2, 0]<br/>class = Commercial>, fillcolor="#e5813955"] ;
527 -> 528 ;
529 [label=<gini = 0.0<br/>samples = 2<br/>value = [0, 0, 2, 0]<br/>class = Residential>, fillcolor="#399de5ff"] ;
528 -> 529 ;
530 [label=<gini = 0.0<br/>samples = 3<br/>value = [3, 0, 0, 0]<br/>class = Commercial>, fillcolor="#e58139ff"] ;
528 -> 530 ;
531 [label=<gini = 0.0<br/>samples = 8<br/>value = [0, 0, 8, 0]<br/>class = Residential>, fillcolor="#399de5ff"] ;
527 -> 531 ;
532 [label=<gini = 0.0<br/>samples = 2<br/>value = [2, 0, 0, 0]<br/>class = Commercial>, fillcolor="#e58139ff"] ;
526 -> 532 ;
533 [label=<gini = 0.0<br/>samples = 2<br/>value = [2, 0, 0, 0]<br/>class = Commercial>, fillcolor="#e58139ff"] ;
525 -> 533 ;
534 [label=<percentSidewalkArea &le; 0.179<br/>gini = 0.32<br/>samples = 5<br/>value = [4, 0, 1, 0]<br/>class = Commercial>, fillcolor="#e58139bf"] ;
524 -> 534 ;
535 [label=<gini = 0.0<br/>samples = 4<br/>value = [4, 0, 0, 0]<br/>class = Commercial>, fillcolor="#e58139ff"] ;
534 -> 535 ;
536 [label=<gini = 0.0<br/>samples = 1<br/>value = [0, 0, 1, 0]<br/>class = Residential>, fillcolor="#399de5ff"] ;
534 -> 536 ;
537 [label=<gini = 0.0<br/>samples = 1<br/>value = [0, 0, 0, 1]<br/>class = Special Purpose>, fillcolor="#d739e5ff"] ;
523 -> 537 ;
538 [label=<gini = 0.0<br/>samples = 5<br/>value = [5, 0, 0, 0]<br/>class = Commercial>, fillcolor="#e58139ff"] ;
522 -> 538 ;
539 [label=<percentSidewalkArea &le; 0.019<br/>gini = 0.391<br/>samples = 15<br/>value = [4, 0, 11, 0]<br/>class = Residential>, fillcolor="#399de5a2"] ;
521 -> 539 ;
540 [label=<percentPatioArea &le; 0.018<br/>gini = 0.494<br/>samples = 9<br/>value = [4, 0, 5, 0]<br/>class = Residential>, fillcolor="#399de533"] ;
539 -> 540 ;
541 [label=<zoneArea &le; 13129.952<br/>gini = 0.444<br/>samples = 6<br/>value = [4, 0, 2, 0]<br/>class = Commercial>, fillcolor="#e581397f"] ;
540 -> 541 ;
542 [label=<gini = 0.0<br/>samples = 2<br/>value = [0, 0, 2, 0]<br/>class = Residential>, fillcolor="#399de5ff"] ;
541 -> 542 ;
543 [label=<gini = 0.0<br/>samples = 4<br/>value = [4, 0, 0, 0]<br/>class = Commercial>, fillcolor="#e58139ff"] ;
541 -> 543 ;
544 [label=<gini = 0.0<br/>samples = 3<br/>value = [0, 0, 3, 0]<br/>class = Residential>, fillcolor="#399de5ff"] ;
540 -> 544 ;
545 [label=<gini = 0.0<br/>samples = 6<br/>value = [0, 0, 6, 0]<br/>class = Residential>, fillcolor="#399de5ff"] ;
539 -> 545 ;
546 [label=<gini = 0.0<br/>samples = 5<br/>value = [5, 0, 0, 0]<br/>class = Commercial>, fillcolor="#e58139ff"] ;
520 -> 546 ;
547 [label=<percentSidewalkArea &le; 0.337<br/>gini = 0.397<br/>samples = 11<br/>value = [8, 0, 3, 0]<br/>class = Commercial>, fillcolor="#e581399f"] ;
489 -> 547 ;
548 [label=<gini = 0.0<br/>samples = 7<br/>value = [7, 0, 0, 0]<br/>class = Commercial>, fillcolor="#e58139ff"] ;
547 -> 548 ;
549 [label=<percentPaved DrivewayArea &le; 0.036<br/>gini = 0.375<br/>samples = 4<br/>value = [1, 0, 3, 0]<br/>class = Residential>, fillcolor="#399de5aa"] ;
547 -> 549 ;
550 [label=<gini = 0.0<br/>samples = 1<br/>value = [1, 0, 0, 0]<br/>class = Commercial>, fillcolor="#e58139ff"] ;
549 -> 550 ;
551 [label=<gini = 0.0<br/>samples = 3<br/>value = [0, 0, 3, 0]<br/>class = Residential>, fillcolor="#399de5ff"] ;
549 -> 551 ;
552 [label=<percentStructureArea &le; 0.618<br/>gini = 0.339<br/>samples = 420<br/>value = [79, 0, 332, 9]<br/>class = Residential>, fillcolor="#399de5bd"] ;
488 -> 552 ;
553 [label=<PatioCount &le; 4.5<br/>gini = 0.316<br/>samples = 397<br/>value = [68, 0, 321, 8]<br/>class = Residential>, fillcolor="#399de5c4"] ;
552 -> 553 ;
554 [label=<percentStructureArea &le; 0.182<br/>gini = 0.307<br/>samples = 393<br/>value = [68, 0, 320, 5]<br/>class = Residential>, fillcolor="#399de5c6"] ;
553 -> 554 ;
555 [label=<percentPatioArea &le; 0.024<br/>gini = 0.473<br/>samples = 58<br/>value = [18, 0, 38, 2]<br/>class = Residential>, fillcolor="#399de57f"] ;
554 -> 555 ;
556 [label=<Open StorageCount &le; 0.5<br/>gini = 0.402<br/>samples = 45<br/>value = [11, 0, 33, 1]<br/>class = Residential>, fillcolor="#399de5a5"] ;
555 -> 556 ;
557 [label=<percentPaved ParkingArea &le; 0.049<br/>gini = 0.367<br/>samples = 43<br/>value = [9, 0, 33, 1]<br/>class = Residential>, fillcolor="#399de5b4"] ;
556 -> 557 ;
558 [label=<zoneArea &le; 203875.164<br/>gini = 0.309<br/>samples = 38<br/>value = [6, 0, 31, 1]<br/>class = Residential>, fillcolor="#399de5c7"] ;
557 -> 558 ;
559 [label=<zoneArea &le; 13781.967<br/>gini = 0.239<br/>samples = 36<br/>value = [5, 0, 31, 0]<br/>class = Residential>, fillcolor="#399de5d6"] ;
558 -> 559 ;
560 [label=<percentSidewalkArea &le; 0.095<br/>gini = 0.5<br/>samples = 6<br/>value = [3, 0, 3, 0]<br/>class = Commercial>, fillcolor="#e5813900"] ;
559 -> 560 ;
561 [label=<percentSidewalkArea &le; 0.01<br/>gini = 0.375<br/>samples = 4<br/>value = [1, 0, 3, 0]<br/>class = Residential>, fillcolor="#399de5aa"] ;
560 -> 561 ;
562 [label=<gini = 0.0<br/>samples = 1<br/>value = [1, 0, 0, 0]<br/>class = Commercial>, fillcolor="#e58139ff"] ;
561 -> 562 ;
563 [label=<gini = 0.0<br/>samples = 3<br/>value = [0, 0, 3, 0]<br/>class = Residential>, fillcolor="#399de5ff"] ;
561 -> 563 ;
564 [label=<gini = 0.0<br/>samples = 2<br/>value = [2, 0, 0, 0]<br/>class = Commercial>, fillcolor="#e58139ff"] ;
560 -> 564 ;
565 [label=<percentUnpaved DrivewayArea &le; 0.048<br/>gini = 0.124<br/>samples = 30<br/>value = [2, 0, 28, 0]<br/>class = Residential>, fillcolor="#399de5ed"] ;
559 -> 565 ;
566 [label=<gini = 0.0<br/>samples = 23<br/>value = [0, 0, 23, 0]<br/>class = Residential>, fillcolor="#399de5ff"] ;
565 -> 566 ;
567 [label=<percentPavementArea &le; 0.008<br/>gini = 0.408<br/>samples = 7<br/>value = [2, 0, 5, 0]<br/>class = Residential>, fillcolor="#399de599"] ;
565 -> 567 ;
568 [label=<gini = 0.0<br/>samples = 5<br/>value = [0, 0, 5, 0]<br/>class = Residential>, fillcolor="#399de5ff"] ;
567 -> 568 ;
569 [label=<gini = 0.0<br/>samples = 2<br/>value = [2, 0, 0, 0]<br/>class = Commercial>, fillcolor="#e58139ff"] ;
567 -> 569 ;
570 [label=<percentUnpaved Athletic FieldArea &le; 0.084<br/>gini = 0.5<br/>samples = 2<br/>value = [1, 0, 0, 1]<br/>class = Commercial>, fillcolor="#e5813900"] ;
558 -> 570 ;
571 [label=<gini = 0.0<br/>samples = 1<br/>value = [1, 0, 0, 0]<br/>class = Commercial>, fillcolor="#e58139ff"] ;
570 -> 571 ;
572 [label=<gini = 0.0<br/>samples = 1<br/>value = [0, 0, 0, 1]<br/>class = Special Purpose>, fillcolor="#d739e5ff"] ;
570 -> 572 ;
573 [label=<Open SpaceCount &le; 0.5<br/>gini = 0.48<br/>samples = 5<br/>value = [3, 0, 2, 0]<br/>class = Commercial>, fillcolor="#e5813955"] ;
557 -> 573 ;
574 [label=<gini = 0.0<br/>samples = 3<br/>value = [3, 0, 0, 0]<br/>class = Commercial>, fillcolor="#e58139ff"] ;
573 -> 574 ;
575 [label=<gini = 0.0<br/>samples = 2<br/>value = [0, 0, 2, 0]<br/>class = Residential>, fillcolor="#399de5ff"] ;
573 -> 575 ;
576 [label=<gini = 0.0<br/>samples = 2<br/>value = [2, 0, 0, 0]<br/>class = Commercial>, fillcolor="#e58139ff"] ;
556 -> 576 ;
577 [label=<percentStructureArea &le; 0.104<br/>gini = 0.556<br/>samples = 13<br/>value = [7, 0, 5, 1]<br/>class = Commercial>, fillcolor="#e5813940"] ;
555 -> 577 ;
578 [label=<gini = 0.0<br/>samples = 3<br/>value = [0, 0, 3, 0]<br/>class = Residential>, fillcolor="#399de5ff"] ;
577 -> 578 ;
579 [label=<zoneArea &le; 22884.279<br/>gini = 0.46<br/>samples = 10<br/>value = [7, 0, 2, 1]<br/>class = Commercial>, fillcolor="#e581399f"] ;
577 -> 579 ;
580 [label=<gini = 0.0<br/>samples = 6<br/>value = [6, 0, 0, 0]<br/>class = Commercial>, fillcolor="#e58139ff"] ;
579 -> 580 ;
581 [label=<percentPaved DrivewayArea &le; 0.018<br/>gini = 0.625<br/>samples = 4<br/>value = [1, 0, 2, 1]<br/>class = Residential>, fillcolor="#399de555"] ;
579 -> 581 ;
582 [label=<percentSidewalkArea &le; 0.027<br/>gini = 0.5<br/>samples = 2<br/>value = [1, 0, 0, 1]<br/>class = Commercial>, fillcolor="#e5813900"] ;
581 -> 582 ;
583 [label=<gini = 0.0<br/>samples = 1<br/>value = [0, 0, 0, 1]<br/>class = Special Purpose>, fillcolor="#d739e5ff"] ;
582 -> 583 ;
584 [label=<gini = 0.0<br/>samples = 1<br/>value = [1, 0, 0, 0]<br/>class = Commercial>, fillcolor="#e58139ff"] ;
582 -> 584 ;
585 [label=<gini = 0.0<br/>samples = 2<br/>value = [0, 0, 2, 0]<br/>class = Residential>, fillcolor="#399de5ff"] ;
581 -> 585 ;
586 [label=<percentPavementArea &le; 0.209<br/>gini = 0.269<br/>samples = 335<br/>value = [50, 0, 282, 3]<br/>class = Residential>, fillcolor="#399de5d0"] ;
554 -> 586 ;
587 [label=<percentPaved AlleyArea &le; 0.458<br/>gini = 0.262<br/>samples = 333<br/>value = [48, 0, 282, 3]<br/>class = Residential>, fillcolor="#399de5d1"] ;
586 -> 587 ;
588 [label=<PavementCount &le; 5.5<br/>gini = 0.243<br/>samples = 314<br/>value = [41, 0, 270, 3]<br/>class = Residential>, fillcolor="#399de5d6"] ;
587 -> 588 ;
589 [label=<percentCompacted SoilArea &le; 0.465<br/>gini = 0.239<br/>samples = 313<br/>value = [41, 0, 270, 2]<br/>class = Residential>, fillcolor="#399de5d7"] ;
588 -> 589 ;
590 [label=<percentPaved DrivewayArea &le; 0.022<br/>gini = 0.231<br/>samples = 310<br/>value = [39, 0, 269, 2]<br/>class = Residential>, fillcolor="#399de5d8"] ;
589 -> 590 ;
591 [label=<gini = 0.0<br/>samples = 49<br/>value = [0, 0, 49, 0]<br/>class = Residential>, fillcolor="#399de5ff"] ;
590 -> 591 ;
592 [label=<percentPaved DrivewayArea &le; 0.023<br/>gini = 0.267<br/>samples = 261<br/>value = [39, 0, 220, 2]<br/>class = Residential>, fillcolor="#399de5d0"] ;
590 -> 592 ;
593 [label=<gini = 0.0<br/>samples = 2<br/>value = [2, 0, 0, 0]<br/>class = Commercial>, fillcolor="#e58139ff"] ;
592 -> 593 ;
594 [label=<percentPaved ParkingArea &le; 0.076<br/>gini = 0.258<br/>samples = 259<br/>value = [37, 0, 220, 2]<br/>class = Residential>, fillcolor="#399de5d2"] ;
592 -> 594 ;
595 [label=<Open StorageCount &le; 1.5<br/>gini = 0.253<br/>samples = 258<br/>value = [36, 0, 220, 2]<br/>class = Residential>, fillcolor="#399de5d3"] ;
594 -> 595 ;
596 [label=<percentPaved DrivewayArea &le; 0.233<br/>gini = 0.249<br/>samples = 257<br/>value = [35, 0, 220, 2]<br/>class = Residential>, fillcolor="#399de5d4"] ;
595 -> 596 ;
597 [label=<percentPatioArea &le; 0.11<br/>gini = 0.226<br/>samples = 234<br/>value = [28, 0, 204, 2]<br/>class = Residential>, fillcolor="#399de5da"] ;
596 -> 597 ;
598 [label=<percentPatioArea &le; 0.001<br/>gini = 0.205<br/>samples = 218<br/>value = [23, 0, 193, 2]<br/>class = Residential>, fillcolor="#399de5de"] ;
597 -> 598 ;
599 [label=<StructureCount &le; 4.5<br/>gini = 0.285<br/>samples = 113<br/>value = [17, 0, 94, 2]<br/>class = Residential>, fillcolor="#399de5cd"] ;
598 -> 599 ;
600 [label=<zoneArea &le; 9918.872<br/>gini = 0.246<br/>samples = 100<br/>value = [12, 0, 86, 2]<br/>class = Residential>, fillcolor="#399de5d6"] ;
599 -> 600 ;
601 [label=<percentStructureArea &le; 0.278<br/>gini = 0.359<br/>samples = 57<br/>value = [12, 0, 44, 1]<br/>class = Residential>, fillcolor="#399de5b5"] ;
600 -> 601 ;
602 [label=<zoneArea &le; 9300.966<br/>gini = 0.444<br/>samples = 6<br/>value = [4, 0, 2, 0]<br/>class = Commercial>, fillcolor="#e581397f"] ;
601 -> 602 ;
603 [label=<gini = 0.0<br/>samples = 4<br/>value = [4, 0, 0, 0]<br/>class = Commercial>, fillcolor="#e58139ff"] ;
602 -> 603 ;
604 [label=<gini = 0.0<br/>samples = 2<br/>value = [0, 0, 2, 0]<br/>class = Residential>, fillcolor="#399de5ff"] ;
602 -> 604 ;
605 [label=<percentUncovered DeckArea &le; 0.092<br/>gini = 0.297<br/>samples = 51<br/>value = [8, 0, 42, 1]<br/>class = Residential>, fillcolor="#399de5ca"] ;
601 -> 605 ;
606 [label=<percentPavementArea &le; 0.026<br/>gini = 0.269<br/>samples = 50<br/>value = [8, 0, 42, 0]<br/>class = Residential>, fillcolor="#399de5ce"] ;
605 -> 606 ;
607 [label=<percentCompacted SoilArea &le; 0.115<br/>gini = 0.245<br/>samples = 49<br/>value = [7, 0, 42, 0]<br/>class = Residential>, fillcolor="#399de5d4"] ;
606 -> 607 ;
608 [label=<zoneArea &le; 9814.452<br/>gini = 0.219<br/>samples = 48<br/>value = [6, 0, 42, 0]<br/>class = Residential>, fillcolor="#399de5db"] ;
607 -> 608 ;
609 [label=<percentStructureArea &le; 0.382<br/>gini = 0.19<br/>samples = 47<br/>value = [5, 0, 42, 0]<br/>class = Residential>, fillcolor="#399de5e1"] ;
608 -> 609 ;
610 [label=<percentStructureArea &le; 0.307<br/>gini = 0.308<br/>samples = 21<br/>value = [4, 0, 17, 0]<br/>class = Residential>, fillcolor="#399de5c3"] ;
609 -> 610 ;
611 [label=<gini = 0.0<br/>samples = 10<br/>value = [0, 0, 10, 0]<br/>class = Residential>, fillcolor="#399de5ff"] ;
610 -> 611 ;
612 [label=<percentSidewalkArea &le; 0.009<br/>gini = 0.463<br/>samples = 11<br/>value = [4, 0, 7, 0]<br/>class = Residential>, fillcolor="#399de56d"] ;
610 -> 612 ;
613 [label=<gini = 0.0<br/>samples = 2<br/>value = [2, 0, 0, 0]<br/>class = Commercial>, fillcolor="#e58139ff"] ;
612 -> 613 ;
614 [label=<percentSidewalkArea &le; 0.157<br/>gini = 0.346<br/>samples = 9<br/>value = [2, 0, 7, 0]<br/>class = Residential>, fillcolor="#399de5b6"] ;
612 -> 614 ;
615 [label=<zoneArea &le; 6081.708<br/>gini = 0.219<br/>samples = 8<br/>value = [1, 0, 7, 0]<br/>class = Residential>, fillcolor="#399de5db"] ;
614 -> 615 ;
616 [label=<gini = 0.0<br/>samples = 1<br/>value = [1, 0, 0, 0]<br/>class = Commercial>, fillcolor="#e58139ff"] ;
615 -> 616 ;
617 [label=<gini = 0.0<br/>samples = 7<br/>value = [0, 0, 7, 0]<br/>class = Residential>, fillcolor="#399de5ff"] ;
615 -> 617 ;
618 [label=<gini = 0.0<br/>samples = 1<br/>value = [1, 0, 0, 0]<br/>class = Commercial>, fillcolor="#e58139ff"] ;
614 -> 618 ;
619 [label=<SidewalkCount &le; 0.5<br/>gini = 0.074<br/>samples = 26<br/>value = [1, 0, 25, 0]<br/>class = Residential>, fillcolor="#399de5f5"] ;
609 -> 619 ;
620 [label=<StructureCount &le; 2.5<br/>gini = 0.198<br/>samples = 9<br/>value = [1, 0, 8, 0]<br/>class = Residential>, fillcolor="#399de5df"] ;
619 -> 620 ;
621 [label=<gini = 0.0<br/>samples = 6<br/>value = [0, 0, 6, 0]<br/>class = Residential>, fillcolor="#399de5ff"] ;
620 -> 621 ;
622 [label=<percentStructureArea &le; 0.523<br/>gini = 0.444<br/>samples = 3<br/>value = [1, 0, 2, 0]<br/>class = Residential>, fillcolor="#399de57f"] ;
620 -> 622 ;
623 [label=<gini = 0.0<br/>samples = 1<br/>value = [1, 0, 0, 0]<br/>class = Commercial>, fillcolor="#e58139ff"] ;
622 -> 623 ;
624 [label=<gini = 0.0<br/>samples = 2<br/>value = [0, 0, 2, 0]<br/>class = Residential>, fillcolor="#399de5ff"] ;
622 -> 624 ;
625 [label=<gini = 0.0<br/>samples = 17<br/>value = [0, 0, 17, 0]<br/>class = Residential>, fillcolor="#399de5ff"] ;
619 -> 625 ;
626 [label=<gini = 0.0<br/>samples = 1<br/>value = [1, 0, 0, 0]<br/>class = Commercial>, fillcolor="#e58139ff"] ;
608 -> 626 ;
627 [label=<gini = 0.0<br/>samples = 1<br/>value = [1, 0, 0, 0]<br/>class = Commercial>, fillcolor="#e58139ff"] ;
607 -> 627 ;
628 [label=<gini = 0.0<br/>samples = 1<br/>value = [1, 0, 0, 0]<br/>class = Commercial>, fillcolor="#e58139ff"] ;
606 -> 628 ;
629 [label=<gini = 0.0<br/>samples = 1<br/>value = [0, 0, 0, 1]<br/>class = Special Purpose>, fillcolor="#d739e5ff"] ;
605 -> 629 ;
630 [label=<SidewalkCount &le; 2.5<br/>gini = 0.045<br/>samples = 43<br/>value = [0, 0, 42, 1]<br/>class = Residential>, fillcolor="#399de5f9"] ;
600 -> 630 ;
631 [label=<gini = 0.0<br/>samples = 38<br/>value = [0, 0, 38, 0]<br/>class = Residential>, fillcolor="#399de5ff"] ;
630 -> 631 ;
632 [label=<percentStructureArea &le; 0.475<br/>gini = 0.32<br/>samples = 5<br/>value = [0, 0, 4, 1]<br/>class = Residential>, fillcolor="#399de5bf"] ;
630 -> 632 ;
633 [label=<gini = 0.0<br/>samples = 4<br/>value = [0, 0, 4, 0]<br/>class = Residential>, fillcolor="#399de5ff"] ;
632 -> 633 ;
634 [label=<gini = 0.0<br/>samples = 1<br/>value = [0, 0, 0, 1]<br/>class = Special Purpose>, fillcolor="#d739e5ff"] ;
632 -> 634 ;
635 [label=<zoneArea &le; 18531.291<br/>gini = 0.473<br/>samples = 13<br/>value = [5, 0, 8, 0]<br/>class = Residential>, fillcolor="#399de560"] ;
599 -> 635 ;
636 [label=<gini = 0.0<br/>samples = 4<br/>value = [4, 0, 0, 0]<br/>class = Commercial>, fillcolor="#e58139ff"] ;
635 -> 636 ;
637 [label=<percentSidewalkArea &le; 0.006<br/>gini = 0.198<br/>samples = 9<br/>value = [1, 0, 8, 0]<br/>class = Residential>, fillcolor="#399de5df"] ;
635 -> 637 ;
638 [label=<gini = 0.0<br/>samples = 1<br/>value = [1, 0, 0, 0]<br/>class = Commercial>, fillcolor="#e58139ff"] ;
637 -> 638 ;
639 [label=<gini = 0.0<br/>samples = 8<br/>value = [0, 0, 8, 0]<br/>class = Residential>, fillcolor="#399de5ff"] ;
637 -> 639 ;
640 [label=<percentPavementArea &le; 0.001<br/>gini = 0.108<br/>samples = 105<br/>value = [6, 0, 99, 0]<br/>class = Residential>, fillcolor="#399de5f0"] ;
598 -> 640 ;
641 [label=<Unpaved DrivewayCount &le; 3.5<br/>gini = 0.046<br/>samples = 85<br/>value = [2, 0, 83, 0]<br/>class = Residential>, fillcolor="#399de5f9"] ;
640 -> 641 ;
642 [label=<percentSidewalkArea &le; 0.231<br/>gini = 0.024<br/>samples = 84<br/>value = [1, 0, 83, 0]<br/>class = Residential>, fillcolor="#399de5fc"] ;
641 -> 642 ;
643 [label=<gini = 0.0<br/>samples = 81<br/>value = [0, 0, 81, 0]<br/>class = Residential>, fillcolor="#399de5ff"] ;
642 -> 643 ;
644 [label=<zoneArea &le; 13704.547<br/>gini = 0.444<br/>samples = 3<br/>value = [1, 0, 2, 0]<br/>class = Residential>, fillcolor="#399de57f"] ;
642 -> 644 ;
645 [label=<gini = 0.0<br/>samples = 2<br/>value = [0, 0, 2, 0]<br/>class = Residential>, fillcolor="#399de5ff"] ;
644 -> 645 ;
646 [label=<gini = 0.0<br/>samples = 1<br/>value = [1, 0, 0, 0]<br/>class = Commercial>, fillcolor="#e58139ff"] ;
644 -> 646 ;
647 [label=<gini = 0.0<br/>samples = 1<br/>value = [1, 0, 0, 0]<br/>class = Commercial>, fillcolor="#e58139ff"] ;
641 -> 647 ;
648 [label=<percentStructureArea &le; 0.271<br/>gini = 0.32<br/>samples = 20<br/>value = [4, 0, 16, 0]<br/>class = Residential>, fillcolor="#399de5bf"] ;
640 -> 648 ;
649 [label=<StructureCount &le; 2.5<br/>gini = 0.48<br/>samples = 5<br/>value = [3, 0, 2, 0]<br/>class = Commercial>, fillcolor="#e5813955"] ;
648 -> 649 ;
650 [label=<gini = 0.0<br/>samples = 2<br/>value = [0, 0, 2, 0]<br/>class = Residential>, fillcolor="#399de5ff"] ;
649 -> 650 ;
651 [label=<gini = 0.0<br/>samples = 3<br/>value = [3, 0, 0, 0]<br/>class = Commercial>, fillcolor="#e58139ff"] ;
649 -> 651 ;
652 [label=<percentPaved DrivewayArea &le; 0.067<br/>gini = 0.124<br/>samples = 15<br/>value = [1, 0, 14, 0]<br/>class = Residential>, fillcolor="#399de5ed"] ;
648 -> 652 ;
653 [label=<gini = 0.0<br/>samples = 12<br/>value = [0, 0, 12, 0]<br/>class = Residential>, fillcolor="#399de5ff"] ;
652 -> 653 ;
654 [label=<percentPaved DrivewayArea &le; 0.082<br/>gini = 0.444<br/>samples = 3<br/>value = [1, 0, 2, 0]<br/>class = Residential>, fillcolor="#399de57f"] ;
652 -> 654 ;
655 [label=<gini = 0.0<br/>samples = 1<br/>value = [1, 0, 0, 0]<br/>class = Commercial>, fillcolor="#e58139ff"] ;
654 -> 655 ;
656 [label=<gini = 0.0<br/>samples = 2<br/>value = [0, 0, 2, 0]<br/>class = Residential>, fillcolor="#399de5ff"] ;
654 -> 656 ;
657 [label=<percentPatioArea &le; 0.153<br/>gini = 0.43<br/>samples = 16<br/>value = [5, 0, 11, 0]<br/>class = Residential>, fillcolor="#399de58b"] ;
597 -> 657 ;
658 [label=<percentPaved DrivewayArea &le; 0.067<br/>gini = 0.469<br/>samples = 8<br/>value = [5, 0, 3, 0]<br/>class = Commercial>, fillcolor="#e5813966"] ;
657 -> 658 ;
659 [label=<gini = 0.0<br/>samples = 5<br/>value = [5, 0, 0, 0]<br/>class = Commercial>, fillcolor="#e58139ff"] ;
658 -> 659 ;
660 [label=<gini = 0.0<br/>samples = 3<br/>value = [0, 0, 3, 0]<br/>class = Residential>, fillcolor="#399de5ff"] ;
658 -> 660 ;
661 [label=<gini = 0.0<br/>samples = 8<br/>value = [0, 0, 8, 0]<br/>class = Residential>, fillcolor="#399de5ff"] ;
657 -> 661 ;
662 [label=<percentStructureArea &le; 0.238<br/>gini = 0.423<br/>samples = 23<br/>value = [7, 0, 16, 0]<br/>class = Residential>, fillcolor="#399de58f"] ;
596 -> 662 ;
663 [label=<gini = 0.0<br/>samples = 2<br/>value = [2, 0, 0, 0]<br/>class = Commercial>, fillcolor="#e58139ff"] ;
662 -> 663 ;
664 [label=<percentSidewalkArea &le; 0.058<br/>gini = 0.363<br/>samples = 21<br/>value = [5, 0, 16, 0]<br/>class = Residential>, fillcolor="#399de5af"] ;
662 -> 664 ;
665 [label=<percentCovered DeckArea &le; 0.008<br/>gini = 0.142<br/>samples = 13<br/>value = [1, 0, 12, 0]<br/>class = Residential>, fillcolor="#399de5ea"] ;
664 -> 665 ;
666 [label=<gini = 0.0<br/>samples = 12<br/>value = [0, 0, 12, 0]<br/>class = Residential>, fillcolor="#399de5ff"] ;
665 -> 666 ;
667 [label=<gini = 0.0<br/>samples = 1<br/>value = [1, 0, 0, 0]<br/>class = Commercial>, fillcolor="#e58139ff"] ;
665 -> 667 ;
668 [label=<percentSidewalkArea &le; 0.126<br/>gini = 0.5<br/>samples = 8<br/>value = [4, 0, 4, 0]<br/>class = Commercial>, fillcolor="#e5813900"] ;
664 -> 668 ;
669 [label=<gini = 0.0<br/>samples = 3<br/>value = [3, 0, 0, 0]<br/>class = Commercial>, fillcolor="#e58139ff"] ;
