digraph Tree {
node [shape=box] ;
0 [label="X[1] <= 7.5\ngini = 0.577\nsamples = 8548\nvalue = [3108, 103, 4539, 798]"] ;
1 [label="X[1] <= 1.5\ngini = 0.59\nsamples = 5208\nvalue = [2758, 76, 1779, 595]"] ;
0 -> 1 [labeldistance=2.5, labelangle=45, headlabel="True"] ;
2 [label="X[1] <= 0.5\ngini = 0.532\nsamples = 1931\nvalue = [1229, 31, 394, 277]"] ;
1 -> 2 ;
3 [label="X[0] <= 10199.596\ngini = 0.661\nsamples = 480\nvalue = [194, 14, 95, 177]"] ;
2 -> 3 ;
4 [label="X[0] <= 4076.764\ngini = 0.584\nsamples = 133\nvalue = [75, 3, 38, 17]"] ;
3 -> 4 ;
5 [label="X[0] <= 3550.405\ngini = 0.613\nsamples = 44\nvalue = [21, 2, 17, 4]"] ;
4 -> 5 ;
6 [label="X[0] <= 3437.539\ngini = 0.606\nsamples = 40\nvalue = [21, 2, 13, 4]"] ;
5 -> 6 ;
7 [label="X[0] <= 3157.326\ngini = 0.59\nsamples = 39\nvalue = [21, 2, 13, 3]"] ;
6 -> 7 ;
8 [label="X[0] <= 2103.218\ngini = 0.61\nsamples = 36\nvalue = [18, 2, 13, 3]"] ;
7 -> 8 ;
9 [label="X[0] <= 1987.816\ngini = 0.583\nsamples = 26\nvalue = [15, 2, 7, 2]"] ;
8 -> 9 ;
10 [label="X[0] <= 189.228\ngini = 0.554\nsamples = 25\nvalue = [15, 1, 7, 2]"] ;
9 -> 10 ;
11 [label="gini = 0.0\nsamples = 1\nvalue = [0, 0, 1, 0]"] ;
10 -> 11 ;
12 [label="X[0] <= 645.145\ngini = 0.538\nsamples = 24\nvalue = [15, 1, 6, 2]"] ;
10 -> 12 ;
13 [label="gini = 0.0\nsamples = 4\nvalue = [4, 0, 0, 0]"] ;
12 -> 13 ;
14 [label="X[0] <= 829.106\ngini = 0.595\nsamples = 20\nvalue = [11, 1, 6, 2]"] ;
12 -> 14 ;
15 [label="X[0] <= 716.37\ngini = 0.444\nsamples = 3\nvalue = [0, 0, 2, 1]"] ;
14 -> 15 ;
16 [label="gini = 0.0\nsamples = 1\nvalue = [0, 0, 0, 1]"] ;
15 -> 16 ;
17 [label="gini = 0.0\nsamples = 2\nvalue = [0, 0, 2, 0]"] ;
15 -> 17 ;
18 [label="X[0] <= 1574.629\ngini = 0.519\nsamples = 17\nvalue = [11, 1, 4, 1]"] ;
14 -> 18 ;
19 [label="X[0] <= 1117.865\ngini = 0.375\nsamples = 12\nvalue = [9, 0, 3, 0]"] ;
18 -> 19 ;
20 [label="X[0] <= 987.748\ngini = 0.5\nsamples = 4\nvalue = [2, 0, 2, 0]"] ;
19 -> 20 ;
21 [label="gini = 0.0\nsamples = 2\nvalue = [2, 0, 0, 0]"] ;
20 -> 21 ;
22 [label="gini = 0.0\nsamples = 2\nvalue = [0, 0, 2, 0]"] ;
20 -> 22 ;
23 [label="X[0] <= 1192.217\ngini = 0.219\nsamples = 8\nvalue = [7, 0, 1, 0]"] ;
19 -> 23 ;
24 [label="gini = 0.0\nsamples = 4\nvalue = [4, 0, 0, 0]"] ;
23 -> 24 ;
25 [label="X[0] <= 1242.386\ngini = 0.375\nsamples = 4\nvalue = [3, 0, 1, 0]"] ;
23 -> 25 ;
26 [label="gini = 0.0\nsamples = 1\nvalue = [0, 0, 1, 0]"] ;
25 -> 26 ;
27 [label="gini = 0.0\nsamples = 3\nvalue = [3, 0, 0, 0]"] ;
25 -> 27 ;
28 [label="X[0] <= 1765.696\ngini = 0.72\nsamples = 5\nvalue = [2, 1, 1, 1]"] ;
18 -> 28 ;
29 [label="X[0] <= 1656.563\ngini = 0.5\nsamples = 2\nvalue = [0, 1, 1, 0]"] ;
28 -> 29 ;
30 [label="gini = 0.0\nsamples = 1\nvalue = [0, 1, 0, 0]"] ;
29 -> 30 ;
31 [label="gini = 0.0\nsamples = 1\nvalue = [0, 0, 1, 0]"] ;
29 -> 31 ;
32 [label="X[0] <= 1849.107\ngini = 0.444\nsamples = 3\nvalue = [2, 0, 0, 1]"] ;
28 -> 32 ;
33 [label="gini = 0.0\nsamples = 1\nvalue = [1, 0, 0, 0]"] ;
32 -> 33 ;
34 [label="X[0] <= 1886.118\ngini = 0.5\nsamples = 2\nvalue = [1, 0, 0, 1]"] ;
32 -> 34 ;
35 [label="gini = 0.0\nsamples = 1\nvalue = [0, 0, 0, 1]"] ;
34 -> 35 ;
36 [label="gini = 0.0\nsamples = 1\nvalue = [1, 0, 0, 0]"] ;
34 -> 36 ;
37 [label="gini = 0.0\nsamples = 1\nvalue = [0, 1, 0, 0]"] ;
9 -> 37 ;
38 [label="X[0] <= 3040.456\ngini = 0.54\nsamples = 10\nvalue = [3, 0, 6, 1]"] ;
8 -> 38 ;
39 [label="X[0] <= 2290.532\ngini = 0.444\nsamples = 9\nvalue = [3, 0, 6, 0]"] ;
38 -> 39 ;
40 [label="gini = 0.0\nsamples = 3\nvalue = [0, 0, 3, 0]"] ;
39 -> 40 ;
41 [label="X[0] <= 2333.379\ngini = 0.5\nsamples = 6\nvalue = [3, 0, 3, 0]"] ;
39 -> 41 ;
42 [label="gini = 0.0\nsamples = 1\nvalue = [1, 0, 0, 0]"] ;
41 -> 42 ;
43 [label="X[0] <= 2363.312\ngini = 0.48\nsamples = 5\nvalue = [2, 0, 3, 0]"] ;
41 -> 43 ;
44 [label="gini = 0.0\nsamples = 1\nvalue = [0, 0, 1, 0]"] ;
43 -> 44 ;
45 [label="X[0] <= 2546.41\ngini = 0.5\nsamples = 4\nvalue = [2, 0, 2, 0]"] ;
43 -> 45 ;
46 [label="gini = 0.0\nsamples = 1\nvalue = [1, 0, 0, 0]"] ;
45 -> 46 ;
47 [label="X[0] <= 2810.952\ngini = 0.444\nsamples = 3\nvalue = [1, 0, 2, 0]"] ;
45 -> 47 ;
48 [label="gini = 0.0\nsamples = 1\nvalue = [0, 0, 1, 0]"] ;
47 -> 48 ;
49 [label="X[0] <= 2915.959\ngini = 0.5\nsamples = 2\nvalue = [1, 0, 1, 0]"] ;
47 -> 49 ;
50 [label="gini = 0.0\nsamples = 1\nvalue = [1, 0, 0, 0]"] ;
49 -> 50 ;
51 [label="gini = 0.0\nsamples = 1\nvalue = [0, 0, 1, 0]"] ;
49 -> 51 ;
52 [label="gini = 0.0\nsamples = 1\nvalue = [0, 0, 0, 1]"] ;
38 -> 52 ;
53 [label="gini = 0.0\nsamples = 3\nvalue = [3, 0, 0, 0]"] ;
7 -> 53 ;
54 [label="gini = 0.0\nsamples = 1\nvalue = [0, 0, 0, 1]"] ;
6 -> 54 ;
55 [label="gini = 0.0\nsamples = 4\nvalue = [0, 0, 4, 0]"] ;
5 -> 55 ;
56 [label="X[0] <= 4277.2\ngini = 0.555\nsamples = 89\nvalue = [54, 1, 21, 13]"] ;
4 -> 56 ;
57 [label="gini = 0.0\nsamples = 5\nvalue = [5, 0, 0, 0]"] ;
56 -> 57 ;
58 [label="X[0] <= 4701.866\ngini = 0.573\nsamples = 84\nvalue = [49, 1, 21, 13]"] ;
56 -> 58 ;
59 [label="X[0] <= 4388.132\ngini = 0.444\nsamples = 3\nvalue = [1, 0, 0, 2]"] ;
58 -> 59 ;
60 [label="gini = 0.0\nsamples = 1\nvalue = [0, 0, 0, 1]"] ;
59 -> 60 ;
61 [label="X[0] <= 4582.351\ngini = 0.5\nsamples = 2\nvalue = [1, 0, 0, 1]"] ;
59 -> 61 ;
62 [label="gini = 0.0\nsamples = 1\nvalue = [1, 0, 0, 0]"] ;
61 -> 62 ;
63 [label="gini = 0.0\nsamples = 1\nvalue = [0, 0, 0, 1]"] ;
61 -> 63 ;
64 [label="X[0] <= 6132.969\ngini = 0.563\nsamples = 81\nvalue = [48, 1, 21, 11]"] ;
58 -> 64 ;
65 [label="X[0] <= 5122.263\ngini = 0.337\nsamples = 14\nvalue = [11, 0, 3, 0]"] ;
64 -> 65 ;
66 [label="X[0] <= 4904.358\ngini = 0.48\nsamples = 5\nvalue = [2, 0, 3, 0]"] ;
65 -> 66 ;
67 [label="X[0] <= 4734.84\ngini = 0.444\nsamples = 3\nvalue = [2, 0, 1, 0]"] ;
66 -> 67 ;
68 [label="gini = 0.0\nsamples = 1\nvalue = [1, 0, 0, 0]"] ;
67 -> 68 ;
69 [label="X[0] <= 4758.022\ngini = 0.5\nsamples = 2\nvalue = [1, 0, 1, 0]"] ;
67 -> 69 ;
70 [label="gini = 0.0\nsamples = 1\nvalue = [0, 0, 1, 0]"] ;
69 -> 70 ;
71 [label="gini = 0.0\nsamples = 1\nvalue = [1, 0, 0, 0]"] ;
69 -> 71 ;
72 [label="gini = 0.0\nsamples = 2\nvalue = [0, 0, 2, 0]"] ;
66 -> 72 ;
73 [label="gini = 0.0\nsamples = 9\nvalue = [9, 0, 0, 0]"] ;
65 -> 73 ;
74 [label="X[0] <= 6417.589\ngini = 0.596\nsamples = 67\nvalue = [37, 1, 18, 11]"] ;
64 -> 74 ;
75 [label="X[0] <= 6232.772\ngini = 0.48\nsamples = 5\nvalue = [0, 0, 3, 2]"] ;
74 -> 75 ;
76 [label="gini = 0.0\nsamples = 1\nvalue = [0, 0, 1, 0]"] ;
75 -> 76 ;
77 [label="X[0] <= 6333.514\ngini = 0.5\nsamples = 4\nvalue = [0, 0, 2, 2]"] ;
75 -> 77 ;
78 [label="gini = 0.0\nsamples = 1\nvalue = [0, 0, 0, 1]"] ;
77 -> 78 ;
79 [label="X[0] <= 6349.534\ngini = 0.444\nsamples = 3\nvalue = [0, 0, 2, 1]"] ;
77 -> 79 ;
80 [label="gini = 0.0\nsamples = 1\nvalue = [0, 0, 1, 0]"] ;
79 -> 80 ;
81 [label="X[0] <= 6366.094\ngini = 0.5\nsamples = 2\nvalue = [0, 0, 1, 1]"] ;
79 -> 81 ;
82 [label="gini = 0.0\nsamples = 1\nvalue = [0, 0, 0, 1]"] ;
81 -> 82 ;
83 [label="gini = 0.0\nsamples = 1\nvalue = [0, 0, 1, 0]"] ;
81 -> 83 ;
84 [label="X[0] <= 6516.379\ngini = 0.564\nsamples = 62\nvalue = [37, 1, 15, 9]"] ;
74 -> 84 ;
85 [label="gini = 0.0\nsamples = 4\nvalue = [4, 0, 0, 0]"] ;
84 -> 85 ;
86 [label="X[0] <= 7092.985\ngini = 0.585\nsamples = 58\nvalue = [33, 1, 15, 9]"] ;
84 -> 86 ;
87 [label="X[0] <= 6738.971\ngini = 0.667\nsamples = 9\nvalue = [3, 0, 3, 3]"] ;
86 -> 87 ;
88 [label="X[0] <= 6528.653\ngini = 0.375\nsamples = 4\nvalue = [3, 0, 1, 0]"] ;
87 -> 88 ;
89 [label="gini = 0.0\nsamples = 1\nvalue = [0, 0, 1, 0]"] ;
88 -> 89 ;
90 [label="gini = 0.0\nsamples = 3\nvalue = [3, 0, 0, 0]"] ;
88 -> 90 ;
91 [label="X[0] <= 6947.342\ngini = 0.48\nsamples = 5\nvalue = [0, 0, 2, 3]"] ;
87 -> 91 ;
92 [label="gini = 0.0\nsamples = 3\nvalue = [0, 0, 0, 3]"] ;
91 -> 92 ;
93 [label="gini = 0.0\nsamples = 2\nvalue = [0, 0, 2, 0]"] ;
91 -> 93 ;
94 [label="X[0] <= 7311.464\ngini = 0.55\nsamples = 49\nvalue = [30, 1, 12, 6]"] ;
86 -> 94 ;
95 [label="gini = 0.0\nsamples = 5\nvalue = [5, 0, 0, 0]"] ;
94 -> 95 ;
96 [label="X[0] <= 7350.917\ngini = 0.584\nsamples = 44\nvalue = [25, 1, 12, 6]"] ;
94 -> 96 ;
97 [label="gini = 0.0\nsamples = 1\nvalue = [0, 1, 0, 0]"] ;
96 -> 97 ;
98 [label="X[0] <= 7392.016\ngini = 0.565\nsamples = 43\nvalue = [25, 0, 12, 6]"] ;
96 -> 98 ;
99 [label="gini = 0.0\nsamples = 1\nvalue = [0, 0, 1, 0]"] ;
98 -> 99 ;
100 [label="X[0] <= 10125.052\ngini = 0.557\nsamples = 42\nvalue = [25, 0, 11, 6]"] ;
98 -> 100 ;
101 [label="X[0] <= 8459.404\ngini = 0.544\nsamples = 39\nvalue = [24, 0, 9, 6]"] ;
100 -> 101 ;
102 [label="X[0] <= 8121.153\ngini = 0.631\nsamples = 15\nvalue = [7, 0, 5, 3]"] ;
101 -> 102 ;
103 [label="X[0] <= 7981.206\ngini = 0.463\nsamples = 11\nvalue = [7, 0, 4, 0]"] ;
102 -> 103 ;
104 [label="X[0] <= 7744.783\ngini = 0.42\nsamples = 10\nvalue = [7, 0, 3, 0]"] ;
103 -> 104 ;
105 [label="X[0] <= 7513.024\ngini = 0.49\nsamples = 7\nvalue = [4, 0, 3, 0]"] ;
104 -> 105 ;
106 [label="gini = 0.0\nsamples = 2\nvalue = [2, 0, 0, 0]"] ;
105 -> 106 ;
107 [label="X[0] <= 7652.626\ngini = 0.48\nsamples = 5\nvalue = [2, 0, 3, 0]"] ;
105 -> 107 ;
108 [label="gini = 0.0\nsamples = 2\nvalue = [0, 0, 2, 0]"] ;
107 -> 108 ;
109 [label="X[0] <= 7708.607\ngini = 0.444\nsamples = 3\nvalue = [2, 0, 1, 0]"] ;
107 -> 109 ;
110 [label="gini = 0.0\nsamples = 2\nvalue = [2, 0, 0, 0]"] ;
109 -> 110 ;
111 [label="gini = 0.0\nsamples = 1\nvalue = [0, 0, 1, 0]"] ;
109 -> 111 ;
112 [label="gini = 0.0\nsamples = 3\nvalue = [3, 0, 0, 0]"] ;
104 -> 112 ;
113 [label="gini = 0.0\nsamples = 1\nvalue = [0, 0, 1, 0]"] ;
103 -> 113 ;
114 [label="X[0] <= 8361.481\ngini = 0.375\nsamples = 4\nvalue = [0, 0, 1, 3]"] ;
102 -> 114 ;
115 [label="gini = 0.0\nsamples = 3\nvalue = [0, 0, 0, 3]"] ;
114 -> 115 ;
116 [label="gini = 0.0\nsamples = 1\nvalue = [0, 0, 1, 0]"] ;
114 -> 116 ;
117 [label="X[0] <= 9112.823\ngini = 0.455\nsamples = 24\nvalue = [17, 0, 4, 3]"] ;
101 -> 117 ;
118 [label="X[0] <= 8679.127\ngini = 0.198\nsamples = 9\nvalue = [8, 0, 1, 0]"] ;
117 -> 118 ;
119 [label="X[0] <= 8626.957\ngini = 0.375\nsamples = 4\nvalue = [3, 0, 1, 0]"] ;
118 -> 119 ;
120 [label="gini = 0.0\nsamples = 3\nvalue = [3, 0, 0, 0]"] ;
119 -> 120 ;
121 [label="gini = 0.0\nsamples = 1\nvalue = [0, 0, 1, 0]"] ;
119 -> 121 ;
122 [label="gini = 0.0\nsamples = 5\nvalue = [5, 0, 0, 0]"] ;
118 -> 122 ;
123 [label="X[0] <= 9306.784\ngini = 0.56\nsamples = 15\nvalue = [9, 0, 3, 3]"] ;
117 -> 123 ;
124 [label="X[0] <= 9200.319\ngini = 0.5\nsamples = 2\nvalue = [0, 0, 1, 1]"] ;
123 -> 124 ;
125 [label="gini = 0.0\nsamples = 1\nvalue = [0, 0, 1, 0]"] ;
124 -> 125 ;
126 [label="gini = 0.0\nsamples = 1\nvalue = [0, 0, 0, 1]"] ;
124 -> 126 ;
127 [label="X[0] <= 9749.766\ngini = 0.473\nsamples = 13\nvalue = [9, 0, 2, 2]"] ;
123 -> 127 ;
128 [label="X[0] <= 9544.872\ngini = 0.245\nsamples = 7\nvalue = [6, 0, 0, 1]"] ;
127 -> 128 ;
129 [label="gini = 0.0\nsamples = 3\nvalue = [3, 0, 0, 0]"] ;
128 -> 129 ;
130 [label="X[0] <= 9557.339\ngini = 0.375\nsamples = 4\nvalue = [3, 0, 0, 1]"] ;
128 -> 130 ;
131 [label="gini = 0.0\nsamples = 1\nvalue = [0, 0, 0, 1]"] ;
130 -> 131 ;
132 [label="gini = 0.0\nsamples = 3\nvalue = [3, 0, 0, 0]"] ;
130 -> 132 ;
133 [label="X[0] <= 9976.237\ngini = 0.611\nsamples = 6\nvalue = [3, 0, 2, 1]"] ;
127 -> 133 ;
134 [label="X[0] <= 9930.565\ngini = 0.444\nsamples = 3\nvalue = [0, 0, 2, 1]"] ;
133 -> 134 ;
135 [label="gini = 0.0\nsamples = 2\nvalue = [0, 0, 2, 0]"] ;
134 -> 135 ;
136 [label="gini = 0.0\nsamples = 1\nvalue = [0, 0, 0, 1]"] ;
134 -> 136 ;
137 [label="gini = 0.0\nsamples = 3\nvalue = [3, 0, 0, 0]"] ;
133 -> 137 ;
138 [label="X[0] <= 10163.024\ngini = 0.444\nsamples = 3\nvalue = [1, 0, 2, 0]"] ;
100 -> 138 ;
139 [label="gini = 0.0\nsamples = 2\nvalue = [0, 0, 2, 0]"] ;
138 -> 139 ;
140 [label="gini = 0.0\nsamples = 1\nvalue = [1, 0, 0, 0]"] ;
138 -> 140 ;
141 [label="X[0] <= 73353.996\ngini = 0.642\nsamples = 347\nvalue = [119, 11, 57, 160]"] ;
3 -> 141 ;
142 [label="X[0] <= 52500.049\ngini = 0.641\nsamples = 265\nvalue = [100, 4, 47, 114]"] ;
141 -> 142 ;
143 [label="X[0] <= 47431.688\ngini = 0.63\nsamples = 242\nvalue = [88, 3, 40, 111]"] ;
142 -> 143 ;
144 [label="X[0] <= 10248.343\ngini = 0.634\nsamples = 229\nvalue = [88, 3, 38, 100]"] ;
143 -> 144 ;
145 [label="gini = 0.0\nsamples = 3\nvalue = [0, 0, 0, 3]"] ;
144 -> 145 ;
146 [label="X[0] <= 17791.562\ngini = 0.636\nsamples = 226\nvalue = [88, 3, 38, 97]"] ;
144 -> 146 ;
147 [label="X[0] <= 17686.864\ngini = 0.625\nsamples = 79\nvalue = [38, 1, 13, 27]"] ;
146 -> 147 ;
148 [label="X[0] <= 10268.625\ngini = 0.632\nsamples = 76\nvalue = [35, 1, 13, 27]"] ;
147 -> 148 ;
149 [label="gini = 0.0\nsamples = 1\nvalue = [0, 0, 1, 0]"] ;
148 -> 149 ;
150 [label="X[0] <= 11272.508\ngini = 0.627\nsamples = 75\nvalue = [35, 1, 12, 27]"] ;
148 -> 150 ;
151 [label="X[0] <= 10742.631\ngini = 0.375\nsamples = 8\nvalue = [6, 0, 0, 2]"] ;
150 -> 151 ;
152 [label="X[0] <= 10434.221\ngini = 0.5\nsamples = 4\nvalue = [2, 0, 0, 2]"] ;
151 -> 152 ;
153 [label="gini = 0.0\nsamples = 2\nvalue = [2, 0, 0, 0]"] ;
152 -> 153 ;
154 [label="gini = 0.0\nsamples = 2\nvalue = [0, 0, 0, 2]"] ;
152 -> 154 ;
155 [label="gini = 0.0\nsamples = 4\nvalue = [4, 0, 0, 0]"] ;
151 -> 155 ;
156 [label="X[0] <= 11292.53\ngini = 0.641\nsamples = 67\nvalue = [29, 1, 12, 25]"] ;
150 -> 156 ;
157 [label="gini = 0.0\nsamples = 2\nvalue = [0, 0, 0, 2]"] ;
156 -> 157 ;
158 [label="X[0] <= 14717.426\ngini = 0.641\nsamples = 65\nvalue = [29, 1, 12, 23]"] ;
156 -> 158 ;
159 [label="X[0] <= 13952.186\ngini = 0.663\nsamples = 38\nvalue = [14, 1, 8, 15]"] ;
158 -> 159 ;
160 [label="X[0] <= 13802.369\ngini = 0.673\nsamples = 29\nvalue = [12, 1, 7, 9]"] ;
159 -> 160 ;
161 [label="X[0] <= 13498.937\ngini = 0.683\nsamples = 27\nvalue = [10, 1, 7, 9]"] ;
160 -> 161 ;
162 [label="X[0] <= 12885.749\ngini = 0.677\nsamples = 24\nvalue = [10, 1, 6, 7]"] ;
161 -> 162 ;
163 [label="X[0] <= 12544.389\ngini = 0.66\nsamples = 18\nvalue = [8, 1, 3, 6]"] ;
162 -> 163 ;
164 [label="X[0] <= 12179.041\ngini = 0.68\nsamples = 16\nvalue = [6, 1, 3, 6]"] ;
163 -> 164 ;
165 [label="X[0] <= 11771.751\ngini = 0.678\nsamples = 11\nvalue = [5, 1, 3, 2]"] ;
164 -> 165 ;
166 [label="X[0] <= 11329.218\ngini = 0.64\nsamples = 5\nvalue = [1, 0, 2, 2]"] ;
165 -> 166 ;
167 [label="gini = 0.0\nsamples = 1\nvalue = [1, 0, 0, 0]"] ;
166 -> 167 ;
168 [label="X[0] <= 11366.875\ngini = 0.5\nsamples = 4\nvalue = [0, 0, 2, 2]"] ;
166 -> 168 ;
169 [label="gini = 0.0\nsamples = 1\nvalue = [0, 0, 1, 0]"] ;
168 -> 169 ;
170 [label="X[0] <= 11509.283\ngini = 0.444\nsamples = 3\nvalue = [0, 0, 1, 2]"] ;
168 -> 170 ;
171 [label="gini = 0.0\nsamples = 1\nvalue = [0, 0, 0, 1]"] ;
170 -> 171 ;
172 [label="X[0] <= 11687.35\ngini = 0.5\nsamples = 2\nvalue = [0, 0, 1, 1]"] ;
170 -> 172 ;
173 [label="gini = 0.0\nsamples = 1\nvalue = [0, 0, 1, 0]"] ;
172 -> 173 ;
174 [label="gini = 0.0\nsamples = 1\nvalue = [0, 0, 0, 1]"] ;
172 -> 174 ;
175 [label="X[0] <= 11854.344\ngini = 0.5\nsamples = 6\nvalue = [4, 1, 1, 0]"] ;
165 -> 175 ;
176 [label="gini = 0.0\nsamples = 2\nvalue = [2, 0, 0, 0]"] ;
175 -> 176 ;
177 [label="X[0] <= 11919.021\ngini = 0.625\nsamples = 4\nvalue = [2, 1, 1, 0]"] ;
175 -> 177 ;
178 [label="X[0] <= 11897.833\ngini = 0.5\nsamples = 2\nvalue = [0, 1, 1, 0]"] ;
177 -> 178 ;
179 [label="gini = 0.0\nsamples = 1\nvalue = [0, 0, 1, 0]"] ;
178 -> 179 ;
180 [label="gini = 0.0\nsamples = 1\nvalue = [0, 1, 0, 0]"] ;
178 -> 180 ;
181 [label="gini = 0.0\nsamples = 2\nvalue = [2, 0, 0, 0]"] ;
177 -> 181 ;
182 [label="X[0] <= 12395.575\ngini = 0.32\nsamples = 5\nvalue = [1, 0, 0, 4]"] ;
164 -> 182 ;
183 [label="gini = 0.0\nsamples = 3\nvalue = [0, 0, 0, 3]"] ;
182 -> 183 ;
184 [label="X[0] <= 12463.918\ngini = 0.5\nsamples = 2\nvalue = [1, 0, 0, 1]"] ;
182 -> 184 ;
185 [label="gini = 0.0\nsamples = 1\nvalue = [1, 0, 0, 0]"] ;
184 -> 185 ;
186 [label="gini = 0.0\nsamples = 1\nvalue = [0, 0, 0, 1]"] ;
184 -> 186 ;
187 [label="gini = 0.0\nsamples = 2\nvalue = [2, 0, 0, 0]"] ;
163 -> 187 ;
188 [label="X[0] <= 13483.04\ngini = 0.611\nsamples = 6\nvalue = [2, 0, 3, 1]"] ;
162 -> 188 ;
189 [label="X[0] <= 13145.007\ngini = 0.56\nsamples = 5\nvalue = [1, 0, 3, 1]"] ;
188 -> 189 ;
190 [label="X[0] <= 13088.907\ngini = 0.5\nsamples = 2\nvalue = [1, 0, 1, 0]"] ;
189 -> 190 ;
191 [label="gini = 0.0\nsamples = 1\nvalue = [0, 0, 1, 0]"] ;
190 -> 191 ;
192 [label="gini = 0.0\nsamples = 1\nvalue = [1, 0, 0, 0]"] ;
190 -> 192 ;
193 [label="X[0] <= 13219.802\ngini = 0.444\nsamples = 3\nvalue = [0, 0, 2, 1]"] ;
189 -> 193 ;
194 [label="gini = 0.0\nsamples = 1\nvalue = [0, 0, 1, 0]"] ;
193 -> 194 ;
195 [label="X[0] <= 13371.521\ngini = 0.5\nsamples = 2\nvalue = [0, 0, 1, 1]"] ;
193 -> 195 ;
196 [label="gini = 0.0\nsamples = 1\nvalue = [0, 0, 0, 1]"] ;
195 -> 196 ;
197 [label="gini = 0.0\nsamples = 1\nvalue = [0, 0, 1, 0]"] ;
195 -> 197 ;
198 [label="gini = 0.0\nsamples = 1\nvalue = [1, 0, 0, 0]"] ;
188 -> 198 ;
199 [label="X[0] <= 13540.66\ngini = 0.444\nsamples = 3\nvalue = [0, 0, 1, 2]"] ;
161 -> 199 ;
200 [label="gini = 0.0\nsamples = 1\nvalue = [0, 0, 0, 1]"] ;
199 -> 200 ;
201 [label="X[0] <= 13665.354\ngini = 0.5\nsamples = 2\nvalue = [0, 0, 1, 1]"] ;
199 -> 201 ;
202 [label="gini = 0.0\nsamples = 1\nvalue = [0, 0, 1, 0]"] ;
201 -> 202 ;
203 [label="gini = 0.0\nsamples = 1\nvalue = [0, 0, 0, 1]"] ;
201 -> 203 ;
204 [label="gini = 0.0\nsamples = 2\nvalue = [2, 0, 0, 0]"] ;
160 -> 204 ;
205 [label="X[0] <= 14665.884\ngini = 0.494\nsamples = 9\nvalue = [2, 0, 1, 6]"] ;
159 -> 205 ;
206 [label="X[0] <= 14030.113\ngini = 0.375\nsamples = 8\nvalue = [2, 0, 0, 6]"] ;
205 -> 206 ;
207 [label="gini = 0.0\nsamples = 3\nvalue = [0, 0, 0, 3]"] ;
206 -> 207 ;
208 [label="X[0] <= 14469.128\ngini = 0.48\nsamples = 5\nvalue = [2, 0, 0, 3]"] ;
206 -> 208 ;
209 [label="gini = 0.0\nsamples = 2\nvalue = [2, 0, 0, 0]"] ;
208 -> 209 ;
210 [label="gini = 0.0\nsamples = 3\nvalue = [0, 0, 0, 3]"] ;
208 -> 210 ;
211 [label="gini = 0.0\nsamples = 1\nvalue = [0, 0, 1, 0]"] ;
205 -> 211 ;
212 [label="X[0] <= 15736.364\ngini = 0.582\nsamples = 27\nvalue = [15, 0, 4, 8]"] ;
158 -> 212 ;
213 [label="X[0] <= 15086.003\ngini = 0.32\nsamples = 10\nvalue = [8, 0, 2, 0]"] ;
212 -> 213 ;
214 [label="X[0] <= 14773.153\ngini = 0.48\nsamples = 5\nvalue = [3, 0, 2, 0]"] ;
213 -> 214 ;
215 [label="gini = 0.0\nsamples = 2\nvalue = [2, 0, 0, 0]"] ;
214 -> 215 ;
216 [label="X[0] <= 14843.917\ngini = 0.444\nsamples = 3\nvalue = [1, 0, 2, 0]"] ;
214 -> 216 ;
217 [label="gini = 0.0\nsamples = 1\nvalue = [0, 0, 1, 0]"] ;
216 -> 217 ;
218 [label="X[0] <= 14981.019\ngini = 0.5\nsamples = 2\nvalue = [1, 0, 1, 0]"] ;
216 -> 218 ;
219 [label="gini = 0.0\nsamples = 1\nvalue = [1, 0, 0, 0]"] ;
218 -> 219 ;
220 [label="gini = 0.0\nsamples = 1\nvalue = [0, 0, 1, 0]"] ;
218 -> 220 ;
221 [label="gini = 0.0\nsamples = 5\nvalue = [5, 0, 0, 0]"] ;
213 -> 221 ;
222 [label="X[0] <= 15956.038\ngini = 0.595\nsamples = 17\nvalue = [7, 0, 2, 8]"] ;
212 -> 222 ;
223 [label="gini = 0.0\nsamples = 2\nvalue = [0, 0, 0, 2]"] ;
222 -> 223 ;
224 [label="X[0] <= 16257.862\ngini = 0.604\nsamples = 15\nvalue = [7, 0, 2, 6]"] ;
222 -> 224 ;
225 [label="X[0] <= 16025.687\ngini = 0.375\nsamples = 4\nvalue = [3, 0, 0, 1]"] ;
224 -> 225 ;
226 [label="X[0] <= 16001.349\ngini = 0.5\nsamples = 2\nvalue = [1, 0, 0, 1]"] ;
225 -> 226 ;
227 [label="gini = 0.0\nsamples = 1\nvalue = [1, 0, 0, 0]"] ;
226 -> 227 ;
228 [label="gini = 0.0\nsamples = 1\nvalue = [0, 0, 0, 1]"] ;
226 -> 228 ;
229 [label="gini = 0.0\nsamples = 2\nvalue = [2, 0, 0, 0]"] ;
225 -> 229 ;
230 [label="X[0] <= 17015.363\ngini = 0.628\nsamples = 11\nvalue = [4, 0, 2, 5]"] ;
224 -> 230 ;
231 [label="X[0] <= 16941.611\ngini = 0.611\nsamples = 6\nvalue = [1, 0, 2, 3]"] ;
230 -> 231 ;
232 [label="X[0] <= 16493.273\ngini = 0.56\nsamples = 5\nvalue = [1, 0, 1, 3]"] ;
231 -> 232 ;
233 [label="X[0] <= 16322.923\ngini = 0.5\nsamples = 2\nvalue = [0, 0, 1, 1]"] ;
232 -> 233 ;
234 [label="gini = 0.0\nsamples = 1\nvalue = [0, 0, 0, 1]"] ;
233 -> 234 ;
235 [label="gini = 0.0\nsamples = 1\nvalue = [0, 0, 1, 0]"] ;
233 -> 235 ;
236 [label="X[0] <= 16670.481\ngini = 0.444\nsamples = 3\nvalue = [1, 0, 0, 2]"] ;
232 -> 236 ;
237 [label="gini = 0.0\nsamples = 1\nvalue = [0, 0, 0, 1]"] ;
236 -> 237 ;
238 [label="X[0] <= 16836.813\ngini = 0.5\nsamples = 2\nvalue = [1, 0, 0, 1]"] ;
236 -> 238 ;
239 [label="gini = 0.0\nsamples = 1\nvalue = [1, 0, 0, 0]"] ;
238 -> 239 ;
240 [label="gini = 0.0\nsamples = 1\nvalue = [0, 0, 0, 1]"] ;
238 -> 240 ;
241 [label="gini = 0.0\nsamples = 1\nvalue = [0, 0, 1, 0]"] ;
231 -> 241 ;
242 [label="X[0] <= 17657.826\ngini = 0.48\nsamples = 5\nvalue = [3, 0, 0, 2]"] ;
230 -> 242 ;
243 [label="X[0] <= 17540.114\ngini = 0.375\nsamples = 4\nvalue = [3, 0, 0, 1]"] ;
242 -> 243 ;
244 [label="X[0] <= 17269.373\ngini = 0.5\nsamples = 2\nvalue = [1, 0, 0, 1]"] ;
243 -> 244 ;
245 [label="gini = 0.0\nsamples = 1\nvalue = [1, 0, 0, 0]"] ;
244 -> 245 ;
246 [label="gini = 0.0\nsamples = 1\nvalue = [0, 0, 0, 1]"] ;
244 -> 246 ;
247 [label="gini = 0.0\nsamples = 2\nvalue = [2, 0, 0, 0]"] ;
243 -> 247 ;
248 [label="gini = 0.0\nsamples = 1\nvalue = [0, 0, 0, 1]"] ;
242 -> 248 ;
249 [label="gini = 0.0\nsamples = 3\nvalue = [3, 0, 0, 0]"] ;
147 -> 249 ;
250 [label="X[0] <= 18673.276\ngini = 0.628\nsamples = 147\nvalue = [50, 2, 25, 70]"] ;
146 -> 250 ;
251 [label="X[0] <= 18185.569\ngini = 0.117\nsamples = 16\nvalue = [1, 0, 0, 15]"] ;
250 -> 251 ;
252 [label="gini = 0.0\nsamples = 9\nvalue = [0, 0, 0, 9]"] ;
251 -> 252 ;
253 [label="X[0] <= 18293.862\ngini = 0.245\nsamples = 7\nvalue = [1, 0, 0, 6]"] ;
251 -> 253 ;
254 [label="gini = 0.0\nsamples = 1\nvalue = [1, 0, 0, 0]"] ;
253 -> 254 ;
255 [label="gini = 0.0\nsamples = 6\nvalue = [0, 0, 0, 6]"] ;
253 -> 255 ;
256 [label="X[0] <= 20591.547\ngini = 0.647\nsamples = 131\nvalue = [49, 2, 25, 55]"] ;
250 -> 256 ;
257 [label="X[0] <= 19856.53\ngini = 0.469\nsamples = 8\nvalue = [5, 0, 3, 0]"] ;
256 -> 257 ;
258 [label="X[0] <= 19610.706\ngini = 0.375\nsamples = 4\nvalue = [1, 0, 3, 0]"] ;
257 -> 258 ;
259 [label="gini = 0.0\nsamples = 2\nvalue = [0, 0, 2, 0]"] ;
258 -> 259 ;
260 [label="X[0] <= 19714.9\ngini = 0.5\nsamples = 2\nvalue = [1, 0, 1, 0]"] ;
258 -> 260 ;
261 [label="gini = 0.0\nsamples = 1\nvalue = [1, 0, 0, 0]"] ;
260 -> 261 ;
262 [label="gini = 0.0\nsamples = 1\nvalue = [0, 0, 1, 0]"] ;
260 -> 262 ;
263 [label="gini = 0.0\nsamples = 4\nvalue = [4, 0, 0, 0]"] ;
257 -> 263 ;
264 [label="X[0] <= 24206.29\ngini = 0.64\nsamples = 123\nvalue = [44, 2, 22, 55]"] ;
256 -> 264 ;
265 [label="X[0] <= 24147.854\ngini = 0.549\nsamples = 32\nvalue = [6, 1, 5, 20]"] ;
264 -> 265 ;
266 [label="X[0] <= 23979.771\ngini = 0.63\nsamples = 25\nvalue = [6, 1, 5, 13]"] ;
265 -> 266 ;
267 [label="X[0] <= 21513.098\ngini = 0.618\nsamples = 24\nvalue = [5, 1, 5, 13]"] ;
266 -> 267 ;
268 [label="X[0] <= 20839.119\ngini = 0.716\nsamples = 9\nvalue = [2, 1, 3, 3]"] ;
267 -> 268 ;
269 [label="gini = 0.0\nsamples = 2\nvalue = [0, 0, 0, 2]"] ;
268 -> 269 ;
270 [label="X[0] <= 21386.487\ngini = 0.694\nsamples = 7\nvalue = [2, 1, 3, 1]"] ;
268 -> 270 ;
271 [label="X[0] <= 21193.168\ngini = 0.611\nsamples = 6\nvalue = [2, 0, 3, 1]"] ;
270 -> 271 ;
272 [label="X[0] <= 20952.827\ngini = 0.625\nsamples = 4\nvalue = [2, 0, 1, 1]"] ;
271 -> 272 ;
273 [label="gini = 0.0\nsamples = 1\nvalue = [1, 0, 0, 0]"] ;
272 -> 273 ;
274 [label="X[0] <= 21066.291\ngini = 0.667\nsamples = 3\nvalue = [1, 0, 1, 1]"] ;
272 -> 274 ;
275 [label="gini = 0.0\nsamples = 1\nvalue = [0, 0, 1, 0]"] ;
274 -> 275 ;
276 [label="X[0] <= 21137.509\ngini = 0.5\nsamples = 2\nvalue = [1, 0, 0, 1]"] ;
274 -> 276 ;
277 [label="gini = 0.0\nsamples = 1\nvalue = [0, 0, 0, 1]"] ;
276 -> 277 ;
278 [label="gini = 0.0\nsamples = 1\nvalue = [1, 0, 0, 0]"] ;
276 -> 278 ;
279 [label="gini = 0.0\nsamples = 2\nvalue = [0, 0, 2, 0]"] ;
271 -> 279 ;
280 [label="gini = 0.0\nsamples = 1\nvalue = [0, 1, 0, 0]"] ;
270 -> 280 ;
281 [label="X[0] <= 21847.733\ngini = 0.498\nsamples = 15\nvalue = [3, 0, 2, 10]"] ;
267 -> 281 ;
282 [label="gini = 0.0\nsamples = 5\nvalue = [0, 0, 0, 5]"] ;
281 -> 282 ;
283 [label="X[0] <= 22137.024\ngini = 0.62\nsamples = 10\nvalue = [3, 0, 2, 5]"] ;
281 -> 283 ;
284 [label="gini = 0.0\nsamples = 2\nvalue = [2, 0, 0, 0]"] ;
283 -> 284 ;
285 [label="X[0] <= 22236.311\ngini = 0.531\nsamples = 8\nvalue = [1, 0, 2, 5]"] ;
283 -> 285 ;
286 [label="gini = 0.0\nsamples = 1\nvalue = [0, 0, 1, 0]"] ;
285 -> 286 ;
287 [label="X[0] <= 22417.529\ngini = 0.449\nsamples = 7\nvalue = [1, 0, 1, 5]"] ;
285 -> 287 ;
288 [label="gini = 0.0\nsamples = 4\nvalue = [0, 0, 0, 4]"] ;
287 -> 288 ;
289 [label="X[0] <= 23122.965\ngini = 0.667\nsamples = 3\nvalue = [1, 0, 1, 1]"] ;
287 -> 289 ;
290 [label="gini = 0.0\nsamples = 1\nvalue = [1, 0, 0, 0]"] ;
289 -> 290 ;
291 [label="X[0] <= 23837.324\ngini = 0.5\nsamples = 2\nvalue = [0, 0, 1, 1]"] ;
289 -> 291 ;
292 [label="gini = 0.0\nsamples = 1\nvalue = [0, 0, 1, 0]"] ;
291 -> 292 ;
293 [label="gini = 0.0\nsamples = 1\nvalue = [0, 0, 0, 1]"] ;
291 -> 293 ;
294 [label="gini = 0.0\nsamples = 1\nvalue = [1, 0, 0, 0]"] ;
266 -> 294 ;
295 [label="gini = 0.0\nsamples = 7\nvalue = [0, 0, 0, 7]"] ;
265 -> 295 ;
296 [label="X[0] <= 38481.152\ngini = 0.643\nsamples = 91\nvalue = [38, 1, 17, 35]"] ;
264 -> 296 ;
297 [label="X[0] <= 35332.176\ngini = 0.637\nsamples = 68\nvalue = [32, 1, 13, 22]"] ;
296 -> 297 ;
298 [label="X[0] <= 29055.942\ngini = 0.65\nsamples = 48\nvalue = [20, 1, 9, 18]"] ;
297 -> 298 ;
299 [label="X[0] <= 27850.802\ngini = 0.611\nsamples = 18\nvalue = [10, 1, 3, 4]"] ;
298 -> 299 ;
300 [label="X[0] <= 27684.545\ngini = 0.684\nsamples = 14\nvalue = [6, 1, 3, 4]"] ;
299 -> 300 ;
301 [label="X[0] <= 24484.499\ngini = 0.611\nsamples = 12\nvalue = [6, 0, 2, 4]"] ;
300 -> 301 ;
302 [label="gini = 0.0\nsamples = 2\nvalue = [2, 0, 0, 0]"] ;
301 -> 302 ;
303 [label="X[0] <= 24698.06\ngini = 0.64\nsamples = 10\nvalue = [4, 0, 2, 4]"] ;
301 -> 303 ;
304 [label="gini = 0.0\nsamples = 1\nvalue = [0, 0, 0, 1]"] ;
303 -> 304 ;
305 [label="X[0] <= 27363.188\ngini = 0.642\nsamples = 9\nvalue = [4, 0, 2, 3]"] ;
303 -> 305 ;
306 [label="X[0] <= 24770.52\ngini = 0.625\nsamples = 8\nvalue = [4, 0, 2, 2]"] ;
305 -> 306 ;
307 [label="gini = 0.0\nsamples = 1\nvalue = [1, 0, 0, 0]"] ;
306 -> 307 ;
308 [label="X[0] <= 24883.73\ngini = 0.653\nsamples = 7\nvalue = [3, 0, 2, 2]"] ;
306 -> 308 ;
309 [label="gini = 0.0\nsamples = 1\nvalue = [0, 0, 1, 0]"] ;
308 -> 309 ;
310 [label="X[0] <= 24995.121\ngini = 0.611\nsamples = 6\nvalue = [3, 0, 1, 2]"] ;
308 -> 310 ;
311 [label="gini = 0.0\nsamples = 1\nvalue = [0, 0, 0, 1]"] ;
310 -> 311 ;
312 [label="X[0] <= 25417.805\ngini = 0.56\nsamples = 5\nvalue = [3, 0, 1, 1]"] ;
310 -> 312 ;
313 [label="gini = 0.0\nsamples = 2\nvalue = [2, 0, 0, 0]"] ;
312 -> 313 ;
314 [label="X[0] <= 25708.968\ngini = 0.667\nsamples = 3\nvalue = [1, 0, 1, 1]"] ;
312 -> 314 ;
315 [label="gini = 0.0\nsamples = 1\nvalue = [0, 0, 0, 1]"] ;
314 -> 315 ;
316 [label="X[0] <= 26451.822\ngini = 0.5\nsamples = 2\nvalue = [1, 0, 1, 0]"] ;
314 -> 316 ;
317 [label="gini = 0.0\nsamples = 1\nvalue = [0, 0, 1, 0]"] ;
316 -> 317 ;
318 [label="gini = 0.0\nsamples = 1\nvalue = [1, 0, 0, 0]"] ;
316 -> 318 ;
319 [label="gini = 0.0\nsamples = 1\nvalue = [0, 0, 0, 1]"] ;
305 -> 319 ;
320 [label="X[0] <= 27816.38\ngini = 0.5\nsamples = 2\nvalue = [0, 1, 1, 0]"] ;
300 -> 320 ;
321 [label="gini = 0.0\nsamples = 1\nvalue = [0, 1, 0, 0]"] ;
320 -> 321 ;
322 [label="gini = 0.0\nsamples = 1\nvalue = [0, 0, 1, 0]"] ;
320 -> 322 ;
323 [label="gini = 0.0\nsamples = 4\nvalue = [4, 0, 0, 0]"] ;
299 -> 323 ;
324 [label="X[0] <= 29750.919\ngini = 0.631\nsamples = 30\nvalue = [10, 0, 6, 14]"] ;
298 -> 324 ;
325 [label="gini = 0.0\nsamples = 3\nvalue = [0, 0, 0, 3]"] ;
324 -> 325 ;
326 [label="X[0] <= 30284.725\ngini = 0.647\nsamples = 27\nvalue = [10, 0, 6, 11]"] ;
324 -> 326 ;
327 [label="gini = 0.0\nsamples = 1\nvalue = [0, 0, 1, 0]"] ;
326 -> 327 ;
328 [label="X[0] <= 31880.879\ngini = 0.636\nsamples = 26\nvalue = [10, 0, 5, 11]"] ;
326 -> 328 ;
329 [label="X[0] <= 30850.361\ngini = 0.444\nsamples = 6\nvalue = [4, 0, 0, 2]"] ;
328 -> 329 ;
330 [label="gini = 0.0\nsamples = 1\nvalue = [0, 0, 0, 1]"] ;
329 -> 330 ;
331 [label="X[0] <= 31513.706\ngini = 0.32\nsamples = 5\nvalue = [4, 0, 0, 1]"] ;
329 -> 331 ;
332 [label="gini = 0.0\nsamples = 3\nvalue = [3, 0, 0, 0]"] ;
331 -> 332 ;
333 [label="X[0] <= 31707.405\ngini = 0.5\nsamples = 2\nvalue = [1, 0, 0, 1]"] ;
331 -> 333 ;
334 [label="gini = 0.0\nsamples = 1\nvalue = [0, 0, 0, 1]"] ;
333 -> 334 ;
335 [label="gini = 0.0\nsamples = 1\nvalue = [1, 0, 0, 0]"] ;
333 -> 335 ;
336 [label="X[0] <= 31992.166\ngini = 0.645\nsamples = 20\nvalue = [6, 0, 5, 9]"] ;
328 -> 336 ;
337 [label="gini = 0.0\nsamples = 2\nvalue = [0, 0, 2, 0]"] ;
336 -> 337 ;
338 [label="X[0] <= 32524.443\ngini = 0.611\nsamples = 18\nvalue = [6, 0, 3, 9]"] ;
336 -> 338 ;
339 [label="gini = 0.0\nsamples = 2\nvalue = [0, 0, 0, 2]"] ;
338 -> 339 ;
340 [label="X[0] <= 32754.442\ngini = 0.633\nsamples = 16\nvalue = [6, 0, 3, 7]"] ;
338 -> 340 ;
341 [label="gini = 0.0\nsamples = 2\nvalue = [2, 0, 0, 0]"] ;
340 -> 341 ;
342 [label="X[0] <= 33018.332\ngini = 0.622\nsamples = 14\nvalue = [4, 0, 3, 7]"] ;
340 -> 342 ;
343 [label="gini = 0.0\nsamples = 2\nvalue = [0, 0, 0, 2]"] ;
342 -> 343 ;
344 [label="X[0] <= 34200.172\ngini = 0.653\nsamples = 12\nvalue = [4, 0, 3, 5]"] ;
342 -> 344 ;
345 [label="X[0] <= 33291.344\ngini = 0.611\nsamples = 6\nvalue = [3, 0, 2, 1]"] ;
344 -> 345 ;
346 [label="gini = 0.0\nsamples = 1\nvalue = [1, 0, 0, 0]"] ;
345 -> 346 ;
347 [label="X[0] <= 33428.094\ngini = 0.64\nsamples = 5\nvalue = [2, 0, 2, 1]"] ;
345 -> 347 ;
348 [label="X[0] <= 33357.455\ngini = 0.5\nsamples = 2\nvalue = [0, 0, 1, 1]"] ;
347 -> 348 ;
349 [label="gini = 0.0\nsamples = 1\nvalue = [0, 0, 1, 0]"] ;
348 -> 349 ;
350 [label="gini = 0.0\nsamples = 1\nvalue = [0, 0, 0, 1]"] ;
348 -> 350 ;
351 [label="X[0] <= 33591.391\ngini = 0.444\nsamples = 3\nvalue = [2, 0, 1, 0]"] ;
347 -> 351 ;
352 [label="gini = 0.0\nsamples = 1\nvalue = [1, 0, 0, 0]"] ;
351 -> 352 ;
353 [label="X[0] <= 33851.678\ngini = 0.5\nsamples = 2\nvalue = [1, 0, 1, 0]"] ;
351 -> 353 ;
354 [label="gini = 0.0\nsamples = 1\nvalue = [0, 0, 1, 0]"] ;
353 -> 354 ;
355 [label="gini = 0.0\nsamples = 1\nvalue = [1, 0, 0, 0]"] ;
353 -> 355 ;
356 [label="X[0] <= 34568.291\ngini = 0.5\nsamples = 6\nvalue = [1, 0, 1, 4]"] ;
344 -> 356 ;
357 [label="gini = 0.0\nsamples = 2\nvalue = [0, 0, 0, 2]"] ;
356 -> 357 ;
358 [label="X[0] <= 34727.355\ngini = 0.625\nsamples = 4\nvalue = [1, 0, 1, 2]"] ;
356 -> 358 ;
359 [label="gini = 0.0\nsamples = 1\nvalue = [0, 0, 1, 0]"] ;
358 -> 359 ;
360 [label="X[0] <= 34897.098\ngini = 0.444\nsamples = 3\nvalue = [1, 0, 0, 2]"] ;
358 -> 360 ;
361 [label="gini = 0.0\nsamples = 1\nvalue = [0, 0, 0, 1]"] ;
360 -> 361 ;
362 [label="X[0] <= 35067.674\ngini = 0.5\nsamples = 2\nvalue = [1, 0, 0, 1]"] ;
360 -> 362 ;
363 [label="gini = 0.0\nsamples = 1\nvalue = [1, 0, 0, 0]"] ;
362 -> 363 ;
364 [label="gini = 0.0\nsamples = 1\nvalue = [0, 0, 0, 1]"] ;
362 -> 364 ;
365 [label="X[0] <= 36810.34\ngini = 0.56\nsamples = 20\nvalue = [12, 0, 4, 4]"] ;
297 -> 365 ;
366 [label="X[0] <= 35635.947\ngini = 0.403\nsamples = 12\nvalue = [9, 0, 2, 1]"] ;
365 -> 366 ;
367 [label="gini = 0.0\nsamples = 3\nvalue = [3, 0, 0, 0]"] ;
366 -> 367 ;
368 [label="X[0] <= 35874.459\ngini = 0.494\nsamples = 9\nvalue = [6, 0, 2, 1]"] ;
366 -> 368 ;
369 [label="X[0] <= 35796.066\ngini = 0.5\nsamples = 2\nvalue = [0, 0, 1, 1]"] ;
368 -> 369 ;
370 [label="gini = 0.0\nsamples = 1\nvalue = [0, 0, 1, 0]"] ;
369 -> 370 ;
371 [label="gini = 0.0\nsamples = 1\nvalue = [0, 0, 0, 1]"] ;
369 -> 371 ;
372 [label="X[0] <= 36134.008\ngini = 0.245\nsamples = 7\nvalue = [6, 0, 1, 0]"] ;
368 -> 372 ;
373 [label="gini = 0.0\nsamples = 3\nvalue = [3, 0, 0, 0]"] ;
372 -> 373 ;
374 [label="X[0] <= 36282.557\ngini = 0.375\nsamples = 4\nvalue = [3, 0, 1, 0]"] ;
372 -> 374 ;
375 [label="gini = 0.0\nsamples = 1\nvalue = [0, 0, 1, 0]"] ;
374 -> 375 ;
376 [label="gini = 0.0\nsamples = 3\nvalue = [3, 0, 0, 0]"] ;
374 -> 376 ;
377 [label="X[0] <= 37457.623\ngini = 0.656\nsamples = 8\nvalue = [3, 0, 2, 3]"] ;
365 -> 377 ;
378 [label="gini = 0.0\nsamples = 3\nvalue = [0, 0, 0, 3]"] ;
377 -> 378 ;
379 [label="X[0] <= 38025.945\ngini = 0.48\nsamples = 5\nvalue = [3, 0, 2, 0]"] ;
377 -> 379 ;
380 [label="X[0] <= 37726.918\ngini = 0.444\nsamples = 3\nvalue = [1, 0, 2, 0]"] ;
379 -> 380 ;
381 [label="gini = 0.0\nsamples = 1\nvalue = [1, 0, 0, 0]"] ;
380 -> 381 ;
382 [label="gini = 0.0\nsamples = 2\nvalue = [0, 0, 2, 0]"] ;
380 -> 382 ;
383 [label="gini = 0.0\nsamples = 2\nvalue = [2, 0, 0, 0]"] ;
379 -> 383 ;
384 [label="X[0] <= 46655.377\ngini = 0.582\nsamples = 23\nvalue = [6, 0, 4, 13]"] ;
296 -> 384 ;
385 [label="X[0] <= 41300.363\ngini = 0.566\nsamples = 22\nvalue = [5, 0, 4, 13]"] ;
384 -> 385 ;
386 [label="X[0] <= 40726.205\ngini = 0.278\nsamples = 6\nvalue = [1, 0, 0, 5]"] ;
385 -> 386 ;
387 [label="X[0] <= 39906.322\ngini = 0.444\nsamples = 3\nvalue = [1, 0, 0, 2]"] ;
386 -> 387 ;
388 [label="gini = 0.0\nsamples = 2\nvalue = [0, 0, 0, 2]"] ;
387 -> 388 ;
389 [label="gini = 0.0\nsamples = 1\nvalue = [1, 0, 0, 0]"] ;
387 -> 389 ;
390 [label="gini = 0.0\nsamples = 3\nvalue = [0, 0, 0, 3]"] ;
386 -> 390 ;
391 [label="X[0] <= 42873.354\ngini = 0.625\nsamples = 16\nvalue = [4, 0, 4, 8]"] ;
385 -> 391 ;
392 [label="X[0] <= 42414.945\ngini = 0.56\nsamples = 5\nvalue = [1, 0, 3, 1]"] ;
391 -> 392 ;
393 [label="X[0] <= 41499.385\ngini = 0.667\nsamples = 3\nvalue = [1, 0, 1, 1]"] ;
392 -> 393 ;
394 [label="gini = 0.0\nsamples = 1\nvalue = [0, 0, 1, 0]"] ;
393 -> 394 ;
395 [label="X[0] <= 41882.748\ngini = 0.5\nsamples = 2\nvalue = [1, 0, 0, 1]"] ;
393 -> 395 ;
396 [label="gini = 0.0\nsamples = 1\nvalue = [1, 0, 0, 0]"] ;
395 -> 396 ;
397 [label="gini = 0.0\nsamples = 1\nvalue = [0, 0, 0, 1]"] ;
395 -> 397 ;
398 [label="gini = 0.0\nsamples = 2\nvalue = [0, 0, 2, 0]"] ;
392 -> 398 ;
399 [label="X[0] <= 44832.725\ngini = 0.512\nsamples = 11\nvalue = [3, 0, 1, 7]"] ;
391 -> 399 ;
400 [label="X[0] <= 43505.398\ngini = 0.278\nsamples = 6\nvalue = [1, 0, 0, 5]"] ;
399 -> 400 ;
401 [label="X[0] <= 43298.801\ngini = 0.444\nsamples = 3\nvalue = [1, 0, 0, 2]"] ;
400 -> 401 ;
402 [label="gini = 0.0\nsamples = 2\nvalue = [0, 0, 0, 2]"] ;
401 -> 402 ;
403 [label="gini = 0.0\nsamples = 1\nvalue = [1, 0, 0, 0]"] ;
401 -> 403 ;
404 [label="gini = 0.0\nsamples = 3\nvalue = [0, 0, 0, 3]"] ;
400 -> 404 ;
405 [label="X[0] <= 45091.279\ngini = 0.64\nsamples = 5\nvalue = [2, 0, 1, 2]"] ;
399 -> 405 ;
406 [label="gini = 0.0\nsamples = 1\nvalue = [1, 0, 0, 0]"] ;
405 -> 406 ;
407 [label="X[0] <= 45472.545\ngini = 0.625\nsamples = 4\nvalue = [1, 0, 1, 2]"] ;
405 -> 407 ;
408 [label="gini = 0.0\nsamples = 1\nvalue = [0, 0, 0, 1]"] ;
407 -> 408 ;
409 [label="X[0] <= 45984.561\ngini = 0.667\nsamples = 3\nvalue = [1, 0, 1, 1]"] ;
407 -> 409 ;
410 [label="gini = 0.0\nsamples = 1\nvalue = [0, 0, 1, 0]"] ;
409 -> 410 ;
411 [label="X[0] <= 46390.248\ngini = 0.5\nsamples = 2\nvalue = [1, 0, 0, 1]"] ;
409 -> 411 ;
412 [label="gini = 0.0\nsamples = 1\nvalue = [1, 0, 0, 0]"] ;
411 -> 412 ;
413 [label="gini = 0.0\nsamples = 1\nvalue = [0, 0, 0, 1]"] ;
411 -> 413 ;
414 [label="gini = 0.0\nsamples = 1\nvalue = [1, 0, 0, 0]"] ;
384 -> 414 ;
415 [label="X[0] <= 50561.025\ngini = 0.26\nsamples = 13\nvalue = [0, 0, 2, 11]"] ;
143 -> 415 ;
416 [label="gini = 0.0\nsamples = 8\nvalue = [0, 0, 0, 8]"] ;
415 -> 416 ;
417 [label="X[0] <= 51035.309\ngini = 0.48\nsamples = 5\nvalue = [0, 0, 2, 3]"] ;
415 -> 417 ;
418 [label="gini = 0.0\nsamples = 2\nvalue = [0, 0, 2, 0]"] ;
417 -> 418 ;
419 [label="gini = 0.0\nsamples = 3\nvalue = [0, 0, 0, 3]"] ;
417 -> 419 ;
420 [label="X[0] <= 54999.812\ngini = 0.616\nsamples = 23\nvalue = [12, 1, 7, 3]"] ;
142 -> 420 ;
421 [label="gini = 0.0\nsamples = 4\nvalue = [0, 0, 4, 0]"] ;
420 -> 421 ;
422 [label="X[0] <= 62513.109\ngini = 0.548\nsamples = 19\nvalue = [12, 1, 3, 3]"] ;
420 -> 422 ;
423 [label="X[0] <= 59132.475\ngini = 0.245\nsamples = 7\nvalue = [6, 0, 0, 1]"] ;
422 -> 423 ;
424 [label="X[0] <= 58282.715\ngini = 0.444\nsamples = 3\nvalue = [2, 0, 0, 1]"] ;
423 -> 424 ;
425 [label="gini = 0.0\nsamples = 2\nvalue = [2, 0, 0, 0]"] ;
424 -> 425 ;
426 [label="gini = 0.0\nsamples = 1\nvalue = [0, 0, 0, 1]"] ;
424 -> 426 ;
427 [label="gini = 0.0\nsamples = 4\nvalue = [4, 0, 0, 0]"] ;
423 -> 427 ;
428 [label="X[0] <= 66615.934\ngini = 0.653\nsamples = 12\nvalue = [6, 1, 3, 2]"] ;
422 -> 428 ;
429 [label="X[0] <= 64768.646\ngini = 0.375\nsamples = 4\nvalue = [0, 0, 3, 1]"] ;
428 -> 429 ;
430 [label="gini = 0.0\nsamples = 2\nvalue = [0, 0, 2, 0]"] ;
429 -> 430 ;
431 [label="X[0] <= 65739.094\ngini = 0.5\nsamples = 2\nvalue = [0, 0, 1, 1]"] ;
429 -> 431 ;
432 [label="gini = 0.0\nsamples = 1\nvalue = [0, 0, 0, 1]"] ;
431 -> 432 ;
433 [label="gini = 0.0\nsamples = 1\nvalue = [0, 0, 1, 0]"] ;
431 -> 433 ;
434 [label="X[0] <= 67701.012\ngini = 0.406\nsamples = 8\nvalue = [6, 1, 0, 1]"] ;
428 -> 434 ;
435 [label="X[0] <= 67030.539\ngini = 0.5\nsamples = 2\nvalue = [1, 1, 0, 0]"] ;
434 -> 435 ;
436 [label="gini = 0.0\nsamples = 1\nvalue = [1, 0, 0, 0]"] ;
435 -> 436 ;
437 [label="gini = 0.0\nsamples = 1\nvalue = [0, 1, 0, 0]"] ;
435 -> 437 ;
438 [label="X[0] <= 70692.465\ngini = 0.278\nsamples = 6\nvalue = [5, 0, 0, 1]"] ;
434 -> 438 ;
439 [label="gini = 0.0\nsamples = 4\nvalue = [4, 0, 0, 0]"] ;
438 -> 439 ;
440 [label="X[0] <= 72141.145\ngini = 0.5\nsamples = 2\nvalue = [1, 0, 0, 1]"] ;
438 -> 440 ;
441 [label="gini = 0.0\nsamples = 1\nvalue = [0, 0, 0, 1]"] ;
440 -> 441 ;
442 [label="gini = 0.0\nsamples = 1\nvalue = [1, 0, 0, 0]"] ;
440 -> 442 ;
443 [label="X[0] <= 81131.656\ngini = 0.609\nsamples = 82\nvalue = [19, 7, 10, 46]"] ;
141 -> 443 ;
444 [label="gini = 0.0\nsamples = 9\nvalue = [0, 0, 0, 9]"] ;
443 -> 444 ;
445 [label="X[0] <= 1245423.75\ngini = 0.647\nsamples = 73\nvalue = [19, 7, 10, 37]"] ;
443 -> 445 ;
446 [label="X[0] <= 820724.844\ngini = 0.672\nsamples = 67\nvalue = [19, 7, 10, 31]"] ;
445 -> 446 ;
447 [label="X[0] <= 82443.262\ngini = 0.654\nsamples = 63\nvalue = [17, 5, 10, 31]"] ;
446 -> 447 ;
448 [label="gini = 0.0\nsamples = 2\nvalue = [2, 0, 0, 0]"] ;
447 -> 448 ;
449 [label="X[0] <= 420531.797\ngini = 0.648\nsamples = 61\nvalue = [15, 5, 10, 31]"] ;
447 -> 449 ;
450 [label="X[0] <= 152411.102\ngini = 0.668\nsamples = 57\nvalue = [15, 5, 10, 27]"] ;
449 -> 450 ;
451 [label="X[0] <= 116742.453\ngini = 0.525\nsamples = 20\nvalue = [4, 1, 2, 13]"] ;
450 -> 451 ;
452 [label="X[0] <= 108358.309\ngini = 0.643\nsamples = 14\nvalue = [4, 1, 2, 7]"] ;
451 -> 452 ;
453 [label="X[0] <= 95967.652\ngini = 0.597\nsamples = 12\nvalue = [2, 1, 2, 7]"] ;
452 -> 453 ;
454 [label="gini = 0.0\nsamples = 2\nvalue = [0, 0, 0, 2]"] ;
453 -> 454 ;
455 [label="X[0] <= 98574.66\ngini = 0.66\nsamples = 10\nvalue = [2, 1, 2, 5]"] ;
453 -> 455 ;
456 [label="X[0] <= 98066.484\ngini = 0.5\nsamples = 2\nvalue = [0, 1, 1, 0]"] ;
455 -> 456 ;
457 [label="gini = 0.0\nsamples = 1\nvalue = [0, 0, 1, 0]"] ;
456 -> 457 ;
458 [label="gini = 0.0\nsamples = 1\nvalue = [0, 1, 0, 0]"] ;
456 -> 458 ;
459 [label="X[0] <= 102626.332\ngini = 0.531\nsamples = 8\nvalue = [2, 0, 1, 5]"] ;
455 -> 459 ;
460 [label="X[0] <= 101389.367\ngini = 0.611\nsamples = 6\nvalue = [2, 0, 1, 3]"] ;
459 -> 460 ;
461 [label="X[0] <= 99950.047\ngini = 0.56\nsamples = 5\nvalue = [1, 0, 1, 3]"] ;
460 -> 461 ;
462 [label="X[0] <= 99122.688\ngini = 0.5\nsamples = 2\nvalue = [1, 0, 0, 1]"] ;
461 -> 462 ;
463 [label="gini = 0.0\nsamples = 1\nvalue = [0, 0, 0, 1]"] ;
462 -> 463 ;
464 [label="gini = 0.0\nsamples = 1\nvalue = [1, 0, 0, 0]"] ;
462 -> 464 ;
465 [label="X[0] <= 100803.629\ngini = 0.444\nsamples = 3\nvalue = [0, 0, 1, 2]"] ;
461 -> 465 ;
466 [label="gini = 0.0\nsamples = 1\nvalue = [0, 0, 0, 1]"] ;
465 -> 466 ;
467 [label="X[0] <= 101101.266\ngini = 0.5\nsamples = 2\nvalue = [0, 0, 1, 1]"] ;
465 -> 467 ;
468 [label="gini = 0.0\nsamples = 1\nvalue = [0, 0, 1, 0]"] ;
467 -> 468 ;
469 [label="gini = 0.0\nsamples = 1\nvalue = [0, 0, 0, 1]"] ;
467 -> 469 ;
470 [label="gini = 0.0\nsamples = 1\nvalue = [1, 0, 0, 0]"] ;
460 -> 470 ;
471 [label="gini = 0.0\nsamples = 2\nvalue = [0, 0, 0, 2]"] ;
459 -> 471 ;
472 [label="gini = 0.0\nsamples = 2\nvalue = [2, 0, 0, 0]"] ;
452 -> 472 ;
473 [label="gini = 0.0\nsamples = 6\nvalue = [0, 0, 0, 6]"] ;
451 -> 473 ;
474 [label="X[0] <= 177223.016\ngini = 0.71\nsamples = 37\nvalue = [11, 4, 8, 14]"] ;
450 -> 474 ;
475 [label="X[0] <= 160542.852\ngini = 0.49\nsamples = 7\nvalue = [4, 0, 3, 0]"] ;
474 -> 475 ;
476 [label="X[0] <= 154086.0\ngini = 0.444\nsamples = 3\nvalue = [1, 0, 2, 0]"] ;
475 -> 476 ;
477 [label="gini = 0.0\nsamples = 1\nvalue = [1, 0, 0, 0]"] ;
476 -> 477 ;
478 [label="gini = 0.0\nsamples = 2\nvalue = [0, 0, 2, 0]"] ;
476 -> 478 ;
479 [label="X[0] <= 169862.289\ngini = 0.375\nsamples = 4\nvalue = [3, 0, 1, 0]"] ;
475 -> 479 ;
480 [label="gini = 0.0\nsamples = 2\nvalue = [2, 0, 0, 0]"] ;
479 -> 480 ;
481 [label="X[0] <= 174215.93\ngini = 0.5\nsamples = 2\nvalue = [1, 0, 1, 0]"] ;
479 -> 481 ;
482 [label="gini = 0.0\nsamples = 1\nvalue = [0, 0, 1, 0]"] ;
481 -> 482 ;
483 [label="gini = 0.0\nsamples = 1\nvalue = [1, 0, 0, 0]"] ;
481 -> 483 ;
484 [label="X[0] <= 406846.141\ngini = 0.682\nsamples = 30\nvalue = [7, 4, 5, 14]"] ;
474 -> 484 ;
485 [label="X[0] <= 230874.383\ngini = 0.671\nsamples = 29\nvalue = [7, 4, 4, 14]"] ;
484 -> 485 ;
486 [label="X[0] <= 185404.883\ngini = 0.583\nsamples = 12\nvalue = [1, 1, 3, 7]"] ;
485 -> 486 ;
487 [label="gini = 0.0\nsamples = 2\nvalue = [0, 0, 0, 2]"] ;
486 -> 487 ;
488 [label="X[0] <= 191814.664\ngini = 0.64\nsamples = 10\nvalue = [1, 1, 3, 5]"] ;
486 -> 488 ;
489 [label="gini = 0.0\nsamples = 1\nvalue = [0, 0, 1, 0]"] ;
488 -> 489 ;
490 [label="X[0] <= 201627.773\ngini = 0.617\nsamples = 9\nvalue = [1, 1, 2, 5]"] ;
488 -> 490 ;
491 [label="X[0] <= 196892.922\ngini = 0.667\nsamples = 3\nvalue = [1, 1, 0, 1]"] ;
490 -> 491 ;
492 [label="gini = 0.0\nsamples = 1\nvalue = [0, 0, 0, 1]"] ;
491 -> 492 ;
493 [label="X[0] <= 200542.164\ngini = 0.5\nsamples = 2\nvalue = [1, 1, 0, 0]"] ;
491 -> 493 ;
494 [label="gini = 0.0\nsamples = 1\nvalue = [1, 0, 0, 0]"] ;
493 -> 494 ;
495 [label="gini = 0.0\nsamples = 1\nvalue = [0, 1, 0, 0]"] ;
493 -> 495 ;
496 [label="X[0] <= 214266.07\ngini = 0.444\nsamples = 6\nvalue = [0, 0, 2, 4]"] ;
490 -> 496 ;
497 [label="gini = 0.0\nsamples = 2\nvalue = [0, 0, 0, 2]"] ;
496 -> 497 ;
498 [label="X[0] <= 218185.719\ngini = 0.5\nsamples = 4\nvalue = [0, 0, 2, 2]"] ;
496 -> 498 ;
499 [label="gini = 0.0\nsamples = 1\nvalue = [0, 0, 1, 0]"] ;
498 -> 499 ;
500 [label="X[0] <= 222654.812\ngini = 0.444\nsamples = 3\nvalue = [0, 0, 1, 2]"] ;
498 -> 500 ;
501 [label="gini = 0.0\nsamples = 1\nvalue = [0, 0, 0, 1]"] ;
500 -> 501 ;
502 [label="X[0] <= 225425.789\ngini = 0.5\nsamples = 2\nvalue = [0, 0, 1, 1]"] ;
500 -> 502 ;
503 [label="gini = 0.0\nsamples = 1\nvalue = [0, 0, 1, 0]"] ;
502 -> 503 ;
504 [label="gini = 0.0\nsamples = 1\nvalue = [0, 0, 0, 1]"] ;
502 -> 504 ;
505 [label="X[0] <= 266368.125\ngini = 0.671\nsamples = 17\nvalue = [6, 3, 1, 7]"] ;
485 -> 505 ;
506 [label="gini = 0.0\nsamples = 3\nvalue = [3, 0, 0, 0]"] ;
505 -> 506 ;
507 [label="X[0] <= 270077.016\ngini = 0.653\nsamples = 14\nvalue = [3, 3, 1, 7]"] ;
505 -> 507 ;
508 [label="gini = 0.0\nsamples = 1\nvalue = [0, 1, 0, 0]"] ;
507 -> 508 ;
509 [label="X[0] <= 294763.438\ngini = 0.627\nsamples = 13\nvalue = [3, 2, 1, 7]"] ;
507 -> 509 ;
510 [label="gini = 0.0\nsamples = 3\nvalue = [0, 0, 0, 3]"] ;
509 -> 510 ;
511 [label="X[0] <= 335573.219\ngini = 0.7\nsamples = 10\nvalue = [3, 2, 1, 4]"] ;
509 -> 511 ;
512 [label="X[0] <= 309517.094\ngini = 0.5\nsamples = 4\nvalue = [2, 2, 0, 0]"] ;
511 -> 512 ;
513 [label="gini = 0.0\nsamples = 2\nvalue = [2, 0, 0, 0]"] ;
512 -> 513 ;
514 [label="gini = 0.0\nsamples = 2\nvalue = [0, 2, 0, 0]"] ;
512 -> 514 ;
515 [label="X[0] <= 394979.922\ngini = 0.5\nsamples = 6\nvalue = [1, 0, 1, 4]"] ;
511 -> 515 ;
516 [label="gini = 0.0\nsamples = 3\nvalue = [0, 0, 0, 3]"] ;
515 -> 516 ;
517 [label="X[0] <= 399442.0\ngini = 0.667\nsamples = 3\nvalue = [1, 0, 1, 1]"] ;
515 -> 517 ;
518 [label="gini = 0.0\nsamples = 1\nvalue = [0, 0, 1, 0]"] ;
517 -> 518 ;
519 [label="X[0] <= 401331.078\ngini = 0.5\nsamples = 2\nvalue = [1, 0, 0, 1]"] ;
517 -> 519 ;
520 [label="gini = 0.0\nsamples = 1\nvalue = [1, 0, 0, 0]"] ;
519 -> 520 ;
521 [label="gini = 0.0\nsamples = 1\nvalue = [0, 0, 0, 1]"] ;
519 -> 521 ;
522 [label="gini = 0.0\nsamples = 1\nvalue = [0, 0, 1, 0]"] ;
484 -> 522 ;
523 [label="gini = 0.0\nsamples = 4\nvalue = [0, 0, 0, 4]"] ;
449 -> 523 ;
524 [label="X[0] <= 887291.625\ngini = 0.5\nsamples = 4\nvalue = [2, 2, 0, 0]"] ;
446 -> 524 ;
525 [label="gini = 0.0\nsamples = 1\nvalue = [0, 1, 0, 0]"] ;
524 -> 525 ;
526 [label="X[0] <= 970532.812\ngini = 0.444\nsamples = 3\nvalue = [2, 1, 0, 0]"] ;
524 -> 526 ;
527 [label="gini = 0.0\nsamples = 1\nvalue = [1, 0, 0, 0]"] ;
526 -> 527 ;
528 [label="X[0] <= 1132337.188\ngini = 0.5\nsamples = 2\nvalue = [1, 1, 0, 0]"] ;
526 -> 528 ;
529 [label="gini = 0.0\nsamples = 1\nvalue = [0, 1, 0, 0]"] ;
528 -> 529 ;
530 [label="gini = 0.0\nsamples = 1\nvalue = [1, 0, 0, 0]"] ;
528 -> 530 ;
531 [label="gini = 0.0\nsamples = 6\nvalue = [0, 0, 0, 6]"] ;
445 -> 531 ;
532 [label="X[0] <= 136780.758\ngini = 0.444\nsamples = 1451\nvalue = [1035, 17, 299, 100]"] ;
2 -> 532 ;
533 [label="X[0] <= 24487.504\ngini = 0.424\nsamples = 1390\nvalue = [1012, 12, 288, 78]"] ;
532 -> 533 ;
534 [label="X[0] <= 4202.524\ngini = 0.43\nsamples = 973\nvalue = [695, 4, 234, 40]"] ;
533 -> 534 ;
535 [label="X[0] <= 661.663\ngini = 0.263\nsamples = 129\nvalue = [110, 1, 9, 9]"] ;
534 -> 535 ;
536 [label="X[0] <= 516.989\ngini = 0.625\nsamples = 4\nvalue = [1, 0, 1, 2]"] ;
535 -> 536 ;
537 [label="gini = 0.0\nsamples = 1\nvalue = [0, 0, 0, 1]"] ;
536 -> 537 ;
538 [label="X[0] <= 589.843\ngini = 0.667\nsamples = 3\nvalue = [1, 0, 1, 1]"] ;
536 -> 538 ;
539 [label="gini = 0.0\nsamples = 1\nvalue = [0, 0, 1, 0]"] ;
538 -> 539 ;
540 [label="X[0] <= 612.122\ngini = 0.5\nsamples = 2\nvalue = [1, 0, 0, 1]"] ;
538 -> 540 ;
541 [label="gini = 0.0\nsamples = 1\nvalue = [1, 0, 0, 0]"] ;
540 -> 541 ;
542 [label="gini = 0.0\nsamples = 1\nvalue = [0, 0, 0, 1]"] ;
540 -> 542 ;
543 [label="X[0] <= 1037.707\ngini = 0.232\nsamples = 125\nvalue = [109, 1, 8, 7]"] ;
535 -> 543 ;
544 [label="X[0] <= 898.624\ngini = 0.46\nsamples = 10\nvalue = [7, 0, 1, 2]"] ;
543 -> 544 ;
545 [label="gini = 0.0\nsamples = 5\nvalue = [5, 0, 0, 0]"] ;
544 -> 545 ;
546 [label="X[0] <= 973.337\ngini = 0.64\nsamples = 5\nvalue = [2, 0, 1, 2]"] ;
544 -> 546 ;
547 [label="X[0] <= 930.272\ngini = 0.5\nsamples = 2\nvalue = [0, 0, 1, 1]"] ;
546 -> 547 ;
548 [label="gini = 0.0\nsamples = 1\nvalue = [0, 0, 0, 1]"] ;
547 -> 548 ;
549 [label="gini = 0.0\nsamples = 1\nvalue = [0, 0, 1, 0]"] ;
547 -> 549 ;
550 [label="X[0] <= 1016.109\ngini = 0.444\nsamples = 3\nvalue = [2, 0, 0, 1]"] ;
546 -> 550 ;
551 [label="gini = 0.0\nsamples = 2\nvalue = [2, 0, 0, 0]"] ;
550 -> 551 ;
552 [label="gini = 0.0\nsamples = 1\nvalue = [0, 0, 0, 1]"] ;
550 -> 552 ;
553 [label="X[0] <= 1657.315\ngini = 0.208\nsamples = 115\nvalue = [102, 1, 7, 5]"] ;
543 -> 553 ;
554 [label="gini = 0.0\nsamples = 19\nvalue = [19, 0, 0, 0]"] ;
553 -> 554 ;
555 [label="X[0] <= 1718.398\ngini = 0.244\nsamples = 96\nvalue = [83, 1, 7, 5]"] ;
553 -> 555 ;
556 [label="gini = 0.0\nsamples = 1\nvalue = [0, 0, 0, 1]"] ;
555 -> 556 ;
557 [label="X[0] <= 3685.292\ngini = 0.229\nsamples = 95\nvalue = [83, 1, 7, 4]"] ;
555 -> 557 ;
558 [label="X[0] <= 3674.119\ngini = 0.261\nsamples = 82\nvalue = [70, 1, 7, 4]"] ;
557 -> 558 ;
559 [label="X[0] <= 2857.353\ngini = 0.244\nsamples = 81\nvalue = [70, 1, 7, 3]"] ;
558 -> 559 ;
560 [label="X[0] <= 2807.672\ngini = 0.317\nsamples = 44\nvalue = [36, 1, 4, 3]"] ;
559 -> 560 ;
561 [label="X[0] <= 2658.283\ngini = 0.289\nsamples = 43\nvalue = [36, 1, 3, 3]"] ;
560 -> 561 ;
562 [label="X[0] <= 2617.435\ngini = 0.25\nsamples = 36\nvalue = [31, 1, 3, 1]"] ;
561 -> 562 ;
563 [label="X[0] <= 2362.993\ngini = 0.222\nsamples = 33\nvalue = [29, 1, 2, 1]"] ;
562 -> 563 ;
564 [label="X[0] <= 2323.947\ngini = 0.306\nsamples = 23\nvalue = [19, 1, 2, 1]"] ;
563 -> 564 ;
565 [label="X[0] <= 2274.35\ngini = 0.244\nsamples = 22\nvalue = [19, 1, 2, 0]"] ;
564 -> 565 ;
566 [label="X[0] <= 2018.115\ngini = 0.185\nsamples = 20\nvalue = [18, 1, 1, 0]"] ;
565 -> 566 ;
567 [label="X[0] <= 2005.174\ngini = 0.34\nsamples = 10\nvalue = [8, 1, 1, 0]"] ;
566 -> 567 ;
568 [label="X[0] <= 1923.618\ngini = 0.198\nsamples = 9\nvalue = [8, 1, 0, 0]"] ;
567 -> 568 ;
569 [label="gini = 0.0\nsamples = 4\nvalue = [4, 0, 0, 0]"] ;
568 -> 569 ;
570 [label="X[0] <= 1952.353\ngini = 0.32\nsamples = 5\nvalue = [4, 1, 0, 0]"] ;
568 -> 570 ;
571 [label="gini = 0.0\nsamples = 1\nvalue = [0, 1, 0, 0]"] ;
570 -> 571 ;
572 [label="gini = 0.0\nsamples = 4\nvalue = [4, 0, 0, 0]"] ;
570 -> 572 ;
573 [label="gini = 0.0\nsamples = 1\nvalue = [0, 0, 1, 0]"] ;
567 -> 573 ;
574 [label="gini = 0.0\nsamples = 10\nvalue = [10, 0, 0, 0]"] ;
566 -> 574 ;
575 [label="X[0] <= 2301.164\ngini = 0.5\nsamples = 2\nvalue = [1, 0, 1, 0]"] ;
565 -> 575 ;
576 [label="gini = 0.0\nsamples = 1\nvalue = [0, 0, 1, 0]"] ;
575 -> 576 ;
577 [label="gini = 0.0\nsamples = 1\nvalue = [1, 0, 0, 0]"] ;
575 -> 577 ;
578 [label="gini = 0.0\nsamples = 1\nvalue = [0, 0, 0, 1]"] ;
564 -> 578 ;
579 [label="gini = 0.0\nsamples = 10\nvalue = [10, 0, 0, 0]"] ;
563 -> 579 ;
580 [label="X[0] <= 2632.675\ngini = 0.444\nsamples = 3\nvalue = [2, 0, 1, 0]"] ;
562 -> 580 ;
581 [label="gini = 0.0\nsamples = 1\nvalue = [0, 0, 1, 0]"] ;
580 -> 581 ;
582 [label="gini = 0.0\nsamples = 2\nvalue = [2, 0, 0, 0]"] ;
580 -> 582 ;
583 [label="X[0] <= 2717.909\ngini = 0.408\nsamples = 7\nvalue = [5, 0, 0, 2]"] ;
561 -> 583 ;
584 [label="X[0] <= 2676.637\ngini = 0.444\nsamples = 3\nvalue = [1, 0, 0, 2]"] ;
583 -> 584 ;
585 [label="gini = 0.0\nsamples = 1\nvalue = [0, 0, 0, 1]"] ;
584 -> 585 ;
586 [label="X[0] <= 2691.834\ngini = 0.5\nsamples = 2\nvalue = [1, 0, 0, 1]"] ;
584 -> 586 ;
587 [label="gini = 0.0\nsamples = 1\nvalue = [1, 0, 0, 0]"] ;
586 -> 587 ;
588 [label="gini = 0.0\nsamples = 1\nvalue = [0, 0, 0, 1]"] ;
586 -> 588 ;
589 [label="gini = 0.0\nsamples = 4\nvalue = [4, 0, 0, 0]"] ;
583 -> 589 ;
590 [label="gini = 0.0\nsamples = 1\nvalue = [0, 0, 1, 0]"] ;
560 -> 590 ;
591 [label="X[0] <= 3055.15\ngini = 0.149\nsamples = 37\nvalue = [34, 0, 3, 0]"] ;
559 -> 591 ;
592 [label="gini = 0.0\nsamples = 14\nvalue = [14, 0, 0, 0]"] ;
591 -> 592 ;
593 [label="X[0] <= 3065.205\ngini = 0.227\nsamples = 23\nvalue = [20, 0, 3, 0]"] ;
591 -> 593 ;
594 [label="gini = 0.0\nsamples = 1\nvalue = [0, 0, 1, 0]"] ;
593 -> 594 ;
595 [label="X[0] <= 3344.272\ngini = 0.165\nsamples = 22\nvalue = [20, 0, 2, 0]"] ;
593 -> 595 ;
596 [label="gini = 0.0\nsamples = 9\nvalue = [9, 0, 0, 0]"] ;
595 -> 596 ;
597 [label="X[0] <= 3387.645\ngini = 0.26\nsamples = 13\nvalue = [11, 0, 2, 0]"] ;
595 -> 597 ;
598 [label="gini = 0.0\nsamples = 1\nvalue = [0, 0, 1, 0]"] ;
597 -> 598 ;
599 [label="X[0] <= 3594.258\ngini = 0.153\nsamples = 12\nvalue = [11, 0, 1, 0]"] ;
597 -> 599 ;
600 [label="gini = 0.0\nsamples = 8\nvalue = [8, 0, 0, 0]"] ;
599 -> 600 ;
601 [label="X[0] <= 3606.881\ngini = 0.375\nsamples = 4\nvalue = [3, 0, 1, 0]"] ;
599 -> 601 ;
602 [label="gini = 0.0\nsamples = 1\nvalue = [0, 0, 1, 0]"] ;
601 -> 602 ;
603 [label="gini = 0.0\nsamples = 3\nvalue = [3, 0, 0, 0]"] ;
601 -> 603 ;
604 [label="gini = 0.0\nsamples = 1\nvalue = [0, 0, 0, 1]"] ;
558 -> 604 ;
605 [label="gini = 0.0\nsamples = 13\nvalue = [13, 0, 0, 0]"] ;
557 -> 605 ;
606 [label="X[0] <= 4338.075\ngini = 0.447\nsamples = 844\nvalue = [585, 3, 225, 31]"] ;
534 -> 606 ;
607 [label="X[0] <= 4278.077\ngini = 0.444\nsamples = 9\nvalue = [3, 0, 6, 0]"] ;
606 -> 607 ;
608 [label="X[0] <= 4242.764\ngini = 0.48\nsamples = 5\nvalue = [3, 0, 2, 0]"] ;
607 -> 608 ;
609 [label="X[0] <= 4211.241\ngini = 0.444\nsamples = 3\nvalue = [1, 0, 2, 0]"] ;
608 -> 609 ;
610 [label="gini = 0.0\nsamples = 1\nvalue = [0, 0, 1, 0]"] ;
609 -> 610 ;
611 [label="X[0] <= 4225.906\ngini = 0.5\nsamples = 2\nvalue = [1, 0, 1, 0]"] ;
609 -> 611 ;
612 [label="gini = 0.0\nsamples = 1\nvalue = [1, 0, 0, 0]"] ;
611 -> 612 ;
613 [label="gini = 0.0\nsamples = 1\nvalue = [0, 0, 1, 0]"] ;
611 -> 613 ;
614 [label="gini = 0.0\nsamples = 2\nvalue = [2, 0, 0, 0]"] ;
608 -> 614 ;
615 [label="gini = 0.0\nsamples = 4\nvalue = [0, 0, 4, 0]"] ;
607 -> 615 ;
616 [label="X[0] <= 12030.737\ngini = 0.444\nsamples = 835\nvalue = [582, 3, 219, 31]"] ;
606 -> 616 ;
617 [label="X[0] <= 5216.566\ngini = 0.408\nsamples = 467\nvalue = [342, 1, 109, 15]"] ;
616 -> 617 ;
618 [label="X[0] <= 5188.094\ngini = 0.549\nsamples = 35\nvalue = [20, 0, 12, 3]"] ;
617 -> 618 ;
619 [label="X[0] <= 4399.241\ngini = 0.533\nsamples = 33\nvalue = [20, 0, 10, 3]"] ;
618 -> 619 ;
620 [label="gini = 0.0\nsamples = 3\nvalue = [3, 0, 0, 0]"] ;
619 -> 620 ;
621 [label="X[0] <= 4464.845\ngini = 0.558\nsamples = 30\nvalue = [17, 0, 10, 3]"] ;
619 -> 621 ;
622 [label="X[0] <= 4447.344\ngini = 0.375\nsamples = 4\nvalue = [1, 0, 3, 0]"] ;
621 -> 622 ;
623 [label="X[0] <= 4434.179\ngini = 0.5\nsamples = 2\nvalue = [1, 0, 1, 0]"] ;
622 -> 623 ;
624 [label="gini = 0.0\nsamples = 1\nvalue = [0, 0, 1, 0]"] ;
623 -> 624 ;
625 [label="gini = 0.0\nsamples = 1\nvalue = [1, 0, 0, 0]"] ;
623 -> 625 ;
626 [label="gini = 0.0\nsamples = 2\nvalue = [0, 0, 2, 0]"] ;
622 -> 626 ;
627 [label="X[0] <= 4565.805\ngini = 0.536\nsamples = 26\nvalue = [16, 0, 7, 3]"] ;
621 -> 627 ;
628 [label="gini = 0.0\nsamples = 3\nvalue = [3, 0, 0, 0]"] ;
627 -> 628 ;
629 [label="X[0] <= 4770.31\ngini = 0.571\nsamples = 23\nvalue = [13, 0, 7, 3]"] ;
627 -> 629 ;
630 [label="X[0] <= 4720.657\ngini = 0.656\nsamples = 8\nvalue = [3, 0, 2, 3]"] ;
629 -> 630 ;
631 [label="X[0] <= 4657.019\ngini = 0.611\nsamples = 6\nvalue = [3, 0, 2, 1]"] ;
630 -> 631 ;
632 [label="X[0] <= 4600.192\ngini = 0.625\nsamples = 4\nvalue = [1, 0, 2, 1]"] ;
631 -> 632 ;
633 [label="gini = 0.0\nsamples = 1\nvalue = [0, 0, 1, 0]"] ;
632 -> 633 ;
634 [label="X[0] <= 4600.653\ngini = 0.667\nsamples = 3\nvalue = [1, 0, 1, 1]"] ;
632 -> 634 ;
635 [label="gini = 0.0\nsamples = 1\nvalue = [1, 0, 0, 0]"] ;
634 -> 635 ;
636 [label="X[0] <= 4624.776\ngini = 0.5\nsamples = 2\nvalue = [0, 0, 1, 1]"] ;
634 -> 636 ;
637 [label="gini = 0.0\nsamples = 1\nvalue = [0, 0, 0, 1]"] ;
636 -> 637 ;
638 [label="gini = 0.0\nsamples = 1\nvalue = [0, 0, 1, 0]"] ;
636 -> 638 ;
639 [label="gini = 0.0\nsamples = 2\nvalue = [2, 0, 0, 0]"] ;
631 -> 639 ;
640 [label="gini = 0.0\nsamples = 2\nvalue = [0, 0, 0, 2]"] ;
630 -> 640 ;
641 [label="X[0] <= 5127.897\ngini = 0.444\nsamples = 15\nvalue = [10, 0, 5, 0]"] ;
629 -> 641 ;
642 [label="X[0] <= 5076.489\ngini = 0.486\nsamples = 12\nvalue = [7, 0, 5, 0]"] ;
641 -> 642 ;
643 [label="X[0] <= 4997.208\ngini = 0.42\nsamples = 10\nvalue = [7, 0, 3, 0]"] ;
642 -> 643 ;
644 [label="X[0] <= 4840.082\ngini = 0.278\nsamples = 6\nvalue = [5, 0, 1, 0]"] ;
643 -> 644 ;
645 [label="X[0] <= 4810.09\ngini = 0.5\nsamples = 2\nvalue = [1, 0, 1, 0]"] ;
644 -> 645 ;
646 [label="gini = 0.0\nsamples = 1\nvalue = [1, 0, 0, 0]"] ;
645 -> 646 ;
647 [label="gini = 0.0\nsamples = 1\nvalue = [0, 0, 1, 0]"] ;
645 -> 647 ;
648 [label="gini = 0.0\nsamples = 4\nvalue = [4, 0, 0, 0]"] ;
644 -> 648 ;
649 [label="X[0] <= 5049.626\ngini = 0.5\nsamples = 4\nvalue = [2, 0, 2, 0]"] ;
643 -> 649 ;
650 [label="gini = 0.0\nsamples = 2\nvalue = [0, 0, 2, 0]"] ;
649 -> 650 ;
651 [label="gini = 0.0\nsamples = 2\nvalue = [2, 0, 0, 0]"] ;
649 -> 651 ;
652 [label="gini = 0.0\nsamples = 2\nvalue = [0, 0, 2, 0]"] ;
642 -> 652 ;
653 [label="gini = 0.0\nsamples = 3\nvalue = [3, 0, 0, 0]"] ;
641 -> 653 ;
654 [label="gini = 0.0\nsamples = 2\nvalue = [0, 0, 2, 0]"] ;
618 -> 654 ;
655 [label="X[0] <= 5647.597\ngini = 0.393\nsamples = 432\nvalue = [322, 1, 97, 12]"] ;
617 -> 655 ;
656 [label="X[0] <= 5406.755\ngini = 0.165\nsamples = 22\nvalue = [20, 0, 2, 0]"] ;
655 -> 656 ;
657 [label="X[0] <= 5403.919\ngini = 0.346\nsamples = 9\nvalue = [7, 0, 2, 0]"] ;
656 -> 657 ;
658 [label="X[0] <= 5303.684\ngini = 0.219\nsamples = 8\nvalue = [7, 0, 1, 0]"] ;
657 -> 658 ;
659 [label="X[0] <= 5277.1\ngini = 0.375\nsamples = 4\nvalue = [3, 0, 1, 0]"] ;
658 -> 659 ;
660 [label="gini = 0.0\nsamples = 3\nvalue = [3, 0, 0, 0]"] ;
659 -> 660 ;
661 [label="gini = 0.0\nsamples = 1\nvalue = [0, 0, 1, 0]"] ;
659 -> 661 ;
662 [label="gini = 0.0\nsamples = 4\nvalue = [4, 0, 0, 0]"] ;
658 -> 662 ;
663 [label="gini = 0.0\nsamples = 1\nvalue = [0, 0, 1, 0]"] ;
657 -> 663 ;
664 [label="gini = 0.0\nsamples = 13\nvalue = [13, 0, 0, 0]"] ;
656 -> 664 ;
665 [label="X[0] <= 5688.187\ngini = 0.403\nsamples = 410\nvalue = [302, 1, 95, 12]"] ;
655 -> 665 ;
666 [label="X[0] <= 5661.887\ngini = 0.444\nsamples = 3\nvalue = [0, 0, 2, 1]"] ;
665 -> 666 ;
667 [label="gini = 0.0\nsamples = 2\nvalue = [0, 0, 2, 0]"] ;
666 -> 667 ;
668 [label="gini = 0.0\nsamples = 1\nvalue = [0, 0, 0, 1]"] ;
666 -> 668 ;
669 [label="X[0] <= 11912.321\ngini = 0.396\nsamples = 407\nvalue = [302, 1, 93, 11]"] ;
665 -> 669 ;
670 [label="X[0] <= 11897.3\ngini = 0.402\nsamples = 399\nvalue = [294, 1, 93, 11]"] ;
669 -> 670 ;
671 [label="X[0] <= 7769.637\ngini = 0.4\nsamples = 398\nvalue = [294, 1, 92, 11]"] ;
670 -> 671 ;
672 [label="X[0] <= 7283.773\ngini = 0.345\nsamples = 188\nvalue = [147, 0, 39, 2]"] ;
671 -> 672 ;
673 [label="X[0] <= 7046.985\ngini = 0.395\nsamples = 137\nvalue = [101, 0, 34, 2]"] ;
672 -> 673 ;
674 [label="X[0] <= 6656.975\ngini = 0.339\nsamples = 122\nvalue = [96, 0, 25, 1]"] ;
673 -> 674 ;
675 [label="X[0] <= 6640.559\ngini = 0.375\nsamples = 98\nvalue = [74, 0, 23, 1]"] ;
674 -> 675 ;
676 [label="X[0] <= 5906.498\ngini = 0.366\nsamples = 97\nvalue = [74, 0, 22, 1]"] ;
675 -> 676 ;
677 [label="X[0] <= 5731.153\ngini = 0.198\nsamples = 18\nvalue = [16, 0, 2, 0]"] ;
676 -> 677 ;
678 [label="X[0] <= 5716.229\ngini = 0.5\nsamples = 2\nvalue = [1, 0, 1, 0]"] ;
677 -> 678 ;
679 [label="gini = 0.0\nsamples = 1\nvalue = [1, 0, 0, 0]"] ;
678 -> 679 ;
680 [label="gini = 0.0\nsamples = 1\nvalue = [0, 0, 1, 0]"] ;
678 -> 680 ;
681 [label="X[0] <= 5821.803\ngini = 0.117\nsamples = 16\nvalue = [15, 0, 1, 0]"] ;
677 -> 681 ;
682 [label="gini = 0.0\nsamples = 10\nvalue = [10, 0, 0, 0]"] ;
681 -> 682 ;
683 [label="X[0] <= 5823.496\ngini = 0.278\nsamples = 6\nvalue = [5, 0, 1, 0]"] ;
681 -> 683 ;
684 [label="gini = 0.0\nsamples = 1\nvalue = [0, 0, 1, 0]"] ;
683 -> 684 ;
685 [label="gini = 0.0\nsamples = 5\nvalue = [5, 0, 0, 0]"] ;
683 -> 685 ;
686 [label="X[0] <= 5917.089\ngini = 0.397\nsamples = 79\nvalue = [58, 0, 20, 1]"] ;
676 -> 686 ;
687 [label="gini = 0.0\nsamples = 2\nvalue = [0, 0, 2, 0]"] ;
686 -> 687 ;
688 [label="X[0] <= 5954.504\ngini = 0.378\nsamples = 77\nvalue = [58, 0, 18, 1]"] ;
686 -> 688 ;
689 [label="X[0] <= 5919.37\ngini = 0.49\nsamples = 7\nvalue = [4, 0, 3, 0]"] ;
688 -> 689 ;
690 [label="gini = 0.0\nsamples = 2\nvalue = [2, 0, 0, 0]"] ;
689 -> 690 ;
691 [label="X[0] <= 5932.885\ngini = 0.48\nsamples = 5\nvalue = [2, 0, 3, 0]"] ;
689 -> 691 ;
692 [label="gini = 0.0\nsamples = 1\nvalue = [0, 0, 1, 0]"] ;
691 -> 692 ;
693 [label="X[0] <= 5945.767\ngini = 0.5\nsamples = 4\nvalue = [2, 0, 2, 0]"] ;
691 -> 693 ;
694 [label="gini = 0.0\nsamples = 1\nvalue = [1, 0, 0, 0]"] ;
693 -> 694 ;
695 [label="X[0] <= 5947.577\ngini = 0.444\nsamples = 3\nvalue = [1, 0, 2, 0]"] ;
693 -> 695 ;
696 [label="gini = 0.0\nsamples = 1\nvalue = [0, 0, 1, 0]"] ;
695 -> 696 ;
697 [label="X[0] <= 5951.333\ngini = 0.5\nsamples = 2\nvalue = [1, 0, 1, 0]"] ;
695 -> 697 ;
698 [label="gini = 0.0\nsamples = 1\nvalue = [1, 0, 0, 0]"] ;
697 -> 698 ;
699 [label="gini = 0.0\nsamples = 1\nvalue = [0, 0, 1, 0]"] ;
697 -> 699 ;
700 [label="X[0] <= 6383.193\ngini = 0.359\nsamples = 70\nvalue = [54, 0, 15, 1]"] ;
688 -> 700 ;
701 [label="X[0] <= 6207.812\ngini = 0.289\nsamples = 40\nvalue = [33, 0, 7, 0]"] ;
700 -> 701 ;
702 [label="X[0] <= 6195.294\ngini = 0.375\nsamples = 20\nvalue = [15, 0, 5, 0]"] ;
701 -> 702 ;
703 [label="X[0] <= 6055.591\ngini = 0.278\nsamples = 18\nvalue = [15, 0, 3, 0]"] ;
702 -> 703 ;
704 [label="gini = 0.0\nsamples = 4\nvalue = [4, 0, 0, 0]"] ;
703 -> 704 ;
705 [label="X[0] <= 6062.088\ngini = 0.337\nsamples = 14\nvalue = [11, 0, 3, 0]"] ;
703 -> 705 ;
706 [label="gini = 0.0\nsamples = 1\nvalue = [0, 0, 1, 0]"] ;
705 -> 706 ;
707 [label="X[0] <= 6125.671\ngini = 0.26\nsamples = 13\nvalue = [11, 0, 2, 0]"] ;
705 -> 707 ;
708 [label="gini = 0.0\nsamples = 5\nvalue = [5, 0, 0, 0]"] ;
707 -> 708 ;
709 [label="X[0] <= 6134.225\ngini = 0.375\nsamples = 8\nvalue = [6, 0, 2, 0]"] ;
707 -> 709 ;
710 [label="gini = 0.0\nsamples = 1\nvalue = [0, 0, 1, 0]"] ;
709 -> 710 ;
711 [label="X[0] <= 6151.445\ngini = 0.245\nsamples = 7\nvalue = [6, 0, 1, 0]"] ;
709 -> 711 ;
712 [label="gini = 0.0\nsamples = 3\nvalue = [3, 0, 0, 0]"] ;
711 -> 712 ;
713 [label="X[0] <= 6154.518\ngini = 0.375\nsamples = 4\nvalue = [3, 0, 1, 0]"] ;
711 -> 713 ;
714 [label="gini = 0.0\nsamples = 1\nvalue = [0, 0, 1, 0]"] ;
713 -> 714 ;
715 [label="gini = 0.0\nsamples = 3\nvalue = [3, 0, 0, 0]"] ;
713 -> 715 ;
716 [label="gini = 0.0\nsamples = 2\nvalue = [0, 0, 2, 0]"] ;
702 -> 716 ;
717 [label="X[0] <= 6269.489\ngini = 0.18\nsamples = 20\nvalue = [18, 0, 2, 0]"] ;
701 -> 717 ;
718 [label="gini = 0.0\nsamples = 7\nvalue = [7, 0, 0, 0]"] ;
717 -> 718 ;
719 [label="X[0] <= 6276.762\ngini = 0.26\nsamples = 13\nvalue = [11, 0, 2, 0]"] ;
717 -> 719 ;
720 [label="gini = 0.0\nsamples = 1\nvalue = [0, 0, 1, 0]"] ;
719 -> 720 ;
721 [label="X[0] <= 6340.179\ngini = 0.153\nsamples = 12\nvalue = [11, 0, 1, 0]"] ;
719 -> 721 ;
722 [label="X[0] <= 6338.186\ngini = 0.278\nsamples = 6\nvalue = [5, 0, 1, 0]"] ;
721 -> 722 ;
723 [label="gini = 0.0\nsamples = 5\nvalue = [5, 0, 0, 0]"] ;
722 -> 723 ;
724 [label="gini = 0.0\nsamples = 1\nvalue = [0, 0, 1, 0]"] ;
722 -> 724 ;
725 [label="gini = 0.0\nsamples = 6\nvalue = [6, 0, 0, 0]"] ;
721 -> 725 ;
726 [label="X[0] <= 6507.586\ngini = 0.438\nsamples = 30\nvalue = [21, 0, 8, 1]"] ;
700 -> 726 ;
727 [label="X[0] <= 6397.919\ngini = 0.539\nsamples = 16\nvalue = [9, 0, 6, 1]"] ;
726 -> 727 ;
728 [label="gini = 0.0\nsamples = 1\nvalue = [0, 0, 1, 0]"] ;
727 -> 728 ;
729 [label="X[0] <= 6429.824\ngini = 0.524\nsamples = 15\nvalue = [9, 0, 5, 1]"] ;
727 -> 729 ;
730 [label="X[0] <= 6406.592\ngini = 0.32\nsamples = 5\nvalue = [4, 0, 0, 1]"] ;
729 -> 730 ;
731 [label="gini = 0.0\nsamples = 2\nvalue = [2, 0, 0, 0]"] ;
730 -> 731 ;
732 [label="X[0] <= 6409.74\ngini = 0.444\nsamples = 3\nvalue = [2, 0, 0, 1]"] ;
730 -> 732 ;
733 [label="gini = 0.0\nsamples = 1\nvalue = [0, 0, 0, 1]"] ;
732 -> 733 ;
734 [label="gini = 0.0\nsamples = 2\nvalue = [2, 0, 0, 0]"] ;
732 -> 734 ;
735 [label="X[0] <= 6462.365\ngini = 0.5\nsamples = 10\nvalue = [5, 0, 5, 0]"] ;
729 -> 735 ;
736 [label="gini = 0.0\nsamples = 2\nvalue = [0, 0, 2, 0]"] ;
735 -> 736 ;
737 [label="X[0] <= 6471.858\ngini = 0.469\nsamples = 8\nvalue = [5, 0, 3, 0]"] ;
735 -> 737 ;
738 [label="gini = 0.0\nsamples = 3\nvalue = [3, 0, 0, 0]"] ;
737 -> 738 ;
739 [label="X[0] <= 6477.247\ngini = 0.48\nsamples = 5\nvalue = [2, 0, 3, 0]"] ;
737 -> 739 ;
740 [label="gini = 0.0\nsamples = 1\nvalue = [0, 0, 1, 0]"] ;
739 -> 740 ;
741 [label="X[0] <= 6483.658\ngini = 0.5\nsamples = 4\nvalue = [2, 0, 2, 0]"] ;
739 -> 741 ;
742 [label="gini = 0.0\nsamples = 1\nvalue = [1, 0, 0, 0]"] ;
741 -> 742 ;
743 [label="X[0] <= 6491.616\ngini = 0.444\nsamples = 3\nvalue = [1, 0, 2, 0]"] ;
741 -> 743 ;
744 [label="gini = 0.0\nsamples = 1\nvalue = [0, 0, 1, 0]"] ;
743 -> 744 ;
745 [label="X[0] <= 6498.649\ngini = 0.5\nsamples = 2\nvalue = [1, 0, 1, 0]"] ;
743 -> 745 ;
746 [label="gini = 0.0\nsamples = 1\nvalue = [1, 0, 0, 0]"] ;
745 -> 746 ;
747 [label="gini = 0.0\nsamples = 1\nvalue = [0, 0, 1, 0]"] ;
745 -> 747 ;
748 [label="X[0] <= 6614.775\ngini = 0.245\nsamples = 14\nvalue = [12, 0, 2, 0]"] ;
726 -> 748 ;
749 [label="X[0] <= 6528.773\ngini = 0.153\nsamples = 12\nvalue = [11, 0, 1, 0]"] ;
748 -> 749 ;
750 [label="X[0] <= 6526.818\ngini = 0.32\nsamples = 5\nvalue = [4, 0, 1, 0]"] ;
749 -> 750 ;
751 [label="gini = 0.0\nsamples = 4\nvalue = [4, 0, 0, 0]"] ;
750 -> 751 ;
752 [label="gini = 0.0\nsamples = 1\nvalue = [0, 0, 1, 0]"] ;
750 -> 752 ;
753 [label="gini = 0.0\nsamples = 7\nvalue = [7, 0, 0, 0]"] ;
749 -> 753 ;
754 [label="X[0] <= 6626.73\ngini = 0.5\nsamples = 2\nvalue = [1, 0, 1, 0]"] ;
748 -> 754 ;
755 [label="gini = 0.0\nsamples = 1\nvalue = [0, 0, 1, 0]"] ;
754 -> 755 ;
756 [label="gini = 0.0\nsamples = 1\nvalue = [1, 0, 0, 0]"] ;
754 -> 756 ;
757 [label="gini = 0.0\nsamples = 1\nvalue = [0, 0, 1, 0]"] ;
675 -> 757 ;
758 [label="X[0] <= 6831.74\ngini = 0.153\nsamples = 24\nvalue = [22, 0, 2, 0]"] ;
674 -> 758 ;
759 [label="gini = 0.0\nsamples = 14\nvalue = [14, 0, 0, 0]"] ;
758 -> 759 ;
760 [label="X[0] <= 6948.192\ngini = 0.32\nsamples = 10\nvalue = [8, 0, 2, 0]"] ;
758 -> 760 ;
761 [label="X[0] <= 6871.114\ngini = 0.444\nsamples = 3\nvalue = [1, 0, 2, 0]"] ;
760 -> 761 ;
762 [label="gini = 0.0\nsamples = 1\nvalue = [0, 0, 1, 0]"] ;
761 -> 762 ;
763 [label="X[0] <= 6921.057\ngini = 0.5\nsamples = 2\nvalue = [1, 0, 1, 0]"] ;
761 -> 763 ;
764 [label="gini = 0.0\nsamples = 1\nvalue = [1, 0, 0, 0]"] ;
763 -> 764 ;
765 [label="gini = 0.0\nsamples = 1\nvalue = [0, 0, 1, 0]"] ;
763 -> 765 ;
766 [label="gini = 0.0\nsamples = 7\nvalue = [7, 0, 0, 0]"] ;
760 -> 766 ;
767 [label="X[0] <= 7100.651\ngini = 0.524\nsamples = 15\nvalue = [5, 0, 9, 1]"] ;
673 -> 767 ;
768 [label="gini = 0.0\nsamples = 4\nvalue = [0, 0, 4, 0]"] ;
767 -> 768 ;
769 [label="X[0] <= 7131.754\ngini = 0.579\nsamples = 11\nvalue = [5, 0, 5, 1]"] ;
767 -> 769 ;
770 [label="gini = 0.0\nsamples = 4\nvalue = [4, 0, 0, 0]"] ;
769 -> 770 ;
771 [label="X[0] <= 7259.822\ngini = 0.449\nsamples = 7\nvalue = [1, 0, 5, 1]"] ;
769 -> 771 ;
772 [label="X[0] <= 7177.651\ngini = 0.278\nsamples = 6\nvalue = [1, 0, 5, 0]"] ;
771 -> 772 ;
773 [label="X[0] <= 7167.404\ngini = 0.444\nsamples = 3\nvalue = [1, 0, 2, 0]"] ;
772 -> 773 ;
774 [label="gini = 0.0\nsamples = 2\nvalue = [0, 0, 2, 0]"] ;
773 -> 774 ;
775 [label="gini = 0.0\nsamples = 1\nvalue = [1, 0, 0, 0]"] ;
773 -> 775 ;
776 [label="gini = 0.0\nsamples = 3\nvalue = [0, 0, 3, 0]"] ;
772 -> 776 ;
777 [label="gini = 0.0\nsamples = 1\nvalue = [0, 0, 0, 1]"] ;
771 -> 777 ;
778 [label="X[0] <= 7696.958\ngini = 0.177\nsamples = 51\nvalue = [46, 0, 5, 0]"] ;
672 -> 778 ;
779 [label="X[0] <= 7680.507\ngini = 0.214\nsamples = 41\nvalue = [36, 0, 5, 0]"] ;
778 -> 779 ;
780 [label="X[0] <= 7636.694\ngini = 0.18\nsamples = 40\nvalue = [36, 0, 4, 0]"] ;
779 -> 780 ;
781 [label="X[0] <= 7632.134\ngini = 0.213\nsamples = 33\nvalue = [29, 0, 4, 0]"] ;
780 -> 781 ;
782 [label="X[0] <= 7359.507\ngini = 0.17\nsamples = 32\nvalue = [29, 0, 3, 0]"] ;
781 -> 782 ;
783 [label="X[0] <= 7350.404\ngini = 0.278\nsamples = 12\nvalue = [10, 0, 2, 0]"] ;
782 -> 783 ;
784 [label="X[0] <= 7315.133\ngini = 0.165\nsamples = 11\nvalue = [10, 0, 1, 0]"] ;
783 -> 784 ;
785 [label="gini = 0.0\nsamples = 6\nvalue = [6, 0, 0, 0]"] ;
784 -> 785 ;
786 [label="X[0] <= 7326.03\ngini = 0.32\nsamples = 5\nvalue = [4, 0, 1, 0]"] ;
784 -> 786 ;
787 [label="gini = 0.0\nsamples = 1\nvalue = [0, 0, 1, 0]"] ;
786 -> 787 ;
788 [label="gini = 0.0\nsamples = 4\nvalue = [4, 0, 0, 0]"] ;
786 -> 788 ;
789 [label="gini = 0.0\nsamples = 1\nvalue = [0, 0, 1, 0]"] ;
783 -> 789 ;
790 [label="X[0] <= 7510.068\ngini = 0.095\nsamples = 20\nvalue = [19, 0, 1, 0]"] ;
782 -> 790 ;
791 [label="gini = 0.0\nsamples = 13\nvalue = [13, 0, 0, 0]"] ;
790 -> 791 ;
792 [label="X[0] <= 7512.986\ngini = 0.245\nsamples = 7\nvalue = [6, 0, 1, 0]"] ;
790 -> 792 ;
793 [label="gini = 0.0\nsamples = 1\nvalue = [0, 0, 1, 0]"] ;
792 -> 793 ;
794 [label="gini = 0.0\nsamples = 6\nvalue = [6, 0, 0, 0]"] ;
792 -> 794 ;
795 [label="gini = 0.0\nsamples = 1\nvalue = [0, 0, 1, 0]"] ;
781 -> 795 ;
796 [label="gini = 0.0\nsamples = 7\nvalue = [7, 0, 0, 0]"] ;
780 -> 796 ;
797 [label="gini = 0.0\nsamples = 1\nvalue = [0, 0, 1, 0]"] ;
779 -> 797 ;
798 [label="gini = 0.0\nsamples = 10\nvalue = [10, 0, 0, 0]"] ;
778 -> 798 ;
799 [label="X[0] <= 7779.092\ngini = 0.444\nsamples = 210\nvalue = [147, 1, 53, 9]"] ;
671 -> 799 ;
800 [label="gini = 0.0\nsamples = 2\nvalue = [0, 0, 2, 0]"] ;
799 -> 800 ;
801 [label="X[0] <= 8347.271\ngini = 0.439\nsamples = 208\nvalue = [147, 1, 51, 9]"] ;
799 -> 801 ;
802 [label="X[0] <= 8322.325\ngini = 0.557\nsamples = 32\nvalue = [18, 0, 11, 3]"] ;
801 -> 802 ;
803 [label="X[0] <= 7799.39\ngini = 0.54\nsamples = 30\nvalue = [18, 0, 9, 3]"] ;
802 -> 803 ;
804 [label="gini = 0.0\nsamples = 3\nvalue = [3, 0, 0, 0]"] ;
803 -> 804 ;
805 [label="X[0] <= 7802.261\ngini = 0.568\nsamples = 27\nvalue = [15, 0, 9, 3]"] ;
803 -> 805 ;
806 [label="gini = 0.0\nsamples = 1\nvalue = [0, 0, 0, 1]"] ;
805 -> 806 ;
807 [label="X[0] <= 8250.408\ngini = 0.541\nsamples = 26\nvalue = [15, 0, 9, 2]"] ;
805 -> 807 ;
808 [label="X[0] <= 8040.544\ngini = 0.567\nsamples = 23\nvalue = [12, 0, 9, 2]"] ;
807 -> 808 ;
809 [label="X[0] <= 7913.951\ngini = 0.48\nsamples = 15\nvalue = [10, 0, 4, 1]"] ;
808 -> 809 ;
810 [label="X[0] <= 7874.299\ngini = 0.49\nsamples = 7\nvalue = [3, 0, 4, 0]"] ;
809 -> 810 ;
811 [label="X[0] <= 7846.45\ngini = 0.375\nsamples = 4\nvalue = [3, 0, 1, 0]"] ;
810 -> 811 ;
812 [label="X[0] <= 7814.273\ngini = 0.5\nsamples = 2\nvalue = [1, 0, 1, 0]"] ;
811 -> 812 ;
813 [label="gini = 0.0\nsamples = 1\nvalue = [1, 0, 0, 0]"] ;
812 -> 813 ;
814 [label="gini = 0.0\nsamples = 1\nvalue = [0, 0, 1, 0]"] ;
812 -> 814 ;
815 [label="gini = 0.0\nsamples = 2\nvalue = [2, 0, 0, 0]"] ;
811 -> 815 ;
816 [label="gini = 0.0\nsamples = 3\nvalue = [0, 0, 3, 0]"] ;
810 -> 816 ;
817 [label="X[0] <= 7992.357\ngini = 0.219\nsamples = 8\nvalue = [7, 0, 0, 1]"] ;
809 -> 817 ;
818 [label="gini = 0.0\nsamples = 6\nvalue = [6, 0, 0, 0]"] ;
817 -> 818 ;
819 [label="X[0] <= 8021.338\ngini = 0.5\nsamples = 2\nvalue = [1, 0, 0, 1]"] ;
817 -> 819 ;
820 [label="gini = 0.0\nsamples = 1\nvalue = [0, 0, 0, 1]"] ;
819 -> 820 ;
821 [label="gini = 0.0\nsamples = 1\nvalue = [1, 0, 0, 0]"] ;
819 -> 821 ;
822 [label="X[0] <= 8090.518\ngini = 0.531\nsamples = 8\nvalue = [2, 0, 5, 1]"] ;
808 -> 822 ;
823 [label="X[0] <= 8069.025\ngini = 0.5\nsamples = 2\nvalue = [0, 0, 1, 1]"] ;
822 -> 823 ;
824 [label="gini = 0.0\nsamples = 1\nvalue = [0, 0, 1, 0]"] ;
823 -> 824 ;
825 [label="gini = 0.0\nsamples = 1\nvalue = [0, 0, 0, 1]"] ;
823 -> 825 ;
826 [label="X[0] <= 8113.591\ngini = 0.444\nsamples = 6\nvalue = [2, 0, 4, 0]"] ;
822 -> 826 ;
827 [label="gini = 0.0\nsamples = 1\nvalue = [0, 0, 1, 0]"] ;
826 -> 827 ;
828 [label="X[0] <= 8146.89\ngini = 0.48\nsamples = 5\nvalue = [2, 0, 3, 0]"] ;
826 -> 828 ;
829 [label="gini = 0.0\nsamples = 1\nvalue = [1, 0, 0, 0]"] ;
828 -> 829 ;
830 [label="X[0] <= 8189.536\ngini = 0.375\nsamples = 4\nvalue = [1, 0, 3, 0]"] ;
828 -> 830 ;
831 [label="gini = 0.0\nsamples = 2\nvalue = [0, 0, 2, 0]"] ;
830 -> 831 ;
832 [label="X[0] <= 8226.619\ngini = 0.5\nsamples = 2\nvalue = [1, 0, 1, 0]"] ;
830 -> 832 ;
833 [label="gini = 0.0\nsamples = 1\nvalue = [1, 0, 0, 0]"] ;
832 -> 833 ;
834 [label="gini = 0.0\nsamples = 1\nvalue = [0, 0, 1, 0]"] ;
832 -> 834 ;
835 [label="gini = 0.0\nsamples = 3\nvalue = [3, 0, 0, 0]"] ;
807 -> 835 ;
836 [label="gini = 0.0\nsamples = 2\nvalue = [0, 0, 2, 0]"] ;
802 -> 836 ;
837 [label="X[0] <= 8426.177\ngini = 0.41\nsamples = 176\nvalue = [129, 1, 40, 6]"] ;
801 -> 837 ;
838 [label="gini = 0.0\nsamples = 6\nvalue = [6, 0, 0, 0]"] ;
837 -> 838 ;
839 [label="X[0] <= 8469.167\ngini = 0.42\nsamples = 170\nvalue = [123, 1, 40, 6]"] ;
837 -> 839 ;
840 [label="X[0] <= 8445.219\ngini = 0.444\nsamples = 3\nvalue = [0, 0, 2, 1]"] ;
839 -> 840 ;
841 [label="gini = 0.0\nsamples = 1\nvalue = [0, 0, 0, 1]"] ;
840 -> 841 ;
842 [label="gini = 0.0\nsamples = 2\nvalue = [0, 0, 2, 0]"] ;
840 -> 842 ;
843 [label="X[0] <= 11159.555\ngini = 0.405\nsamples = 167\nvalue = [123, 1, 38, 5]"] ;
839 -> 843 ;
844 [label="X[0] <= 9984.527\ngini = 0.383\nsamples = 132\nvalue = [100, 1, 27, 4]"] ;
843 -> 844 ;
845 [label="X[0] <= 9751.585\ngini = 0.39\nsamples = 96\nvalue = [71, 1, 24, 0]"] ;
844 -> 845 ;
846 [label="X[0] <= 9712.196\ngini = 0.359\nsamples = 87\nvalue = [67, 1, 19, 0]"] ;
845 -> 846 ;
847 [label="X[0] <= 9116.744\ngini = 0.35\nsamples = 84\nvalue = [65, 0, 19, 0]"] ;
846 -> 847 ;
848 [label="X[0] <= 9017.853\ngini = 0.399\nsamples = 40\nvalue = [29, 0, 11, 0]"] ;
847 -> 848 ;
849 [label="X[0] <= 8711.007\ngini = 0.339\nsamples = 37\nvalue = [29, 0, 8, 0]"] ;
848 -> 849 ;
850 [label="X[0] <= 8634.462\ngini = 0.231\nsamples = 15\nvalue = [13, 0, 2, 0]"] ;
849 -> 850 ;
851 [label="X[0] <= 8626.188\ngini = 0.32\nsamples = 10\nvalue = [8, 0, 2, 0]"] ;
850 -> 851 ;
852 [label="X[0] <= 8585.767\ngini = 0.198\nsamples = 9\nvalue = [8, 0, 1, 0]"] ;
851 -> 852 ;
853 [label="X[0] <= 8563.39\ngini = 0.375\nsamples = 4\nvalue = [3, 0, 1, 0]"] ;
852 -> 853 ;
854 [label="gini = 0.0\nsamples = 3\nvalue = [3, 0, 0, 0]"] ;
853 -> 854 ;
855 [label="gini = 0.0\nsamples = 1\nvalue = [0, 0, 1, 0]"] ;
853 -> 855 ;
856 [label="gini = 0.0\nsamples = 5\nvalue = [5, 0, 0, 0]"] ;
852 -> 856 ;
857 [label="gini = 0.0\nsamples = 1\nvalue = [0, 0, 1, 0]"] ;
851 -> 857 ;
858 [label="gini = 0.0\nsamples = 5\nvalue = [5, 0, 0, 0]"] ;
850 -> 858 ;
859 [label="X[0] <= 8734.374\ngini = 0.397\nsamples = 22\nvalue = [16, 0, 6, 0]"] ;
849 -> 859 ;
860 [label="gini = 0.0\nsamples = 1\nvalue = [0, 0, 1, 0]"] ;
859 -> 860 ;
861 [label="X[0] <= 8870.443\ngini = 0.363\nsamples = 21\nvalue = [16, 0, 5, 0]"] ;
859 -> 861 ;
862 [label="X[0] <= 8825.962\ngini = 0.444\nsamples = 12\nvalue = [8, 0, 4, 0]"] ;
861 -> 862 ;
863 [label="X[0] <= 8764.655\ngini = 0.245\nsamples = 7\nvalue = [6, 0, 1, 0]"] ;
862 -> 863 ;
864 [label="gini = 0.0\nsamples = 3\nvalue = [3, 0, 0, 0]"] ;
863 -> 864 ;
865 [label="X[0] <= 8772.018\ngini = 0.375\nsamples = 4\nvalue = [3, 0, 1, 0]"] ;
863 -> 865 ;
866 [label="gini = 0.0\nsamples = 1\nvalue = [0, 0, 1, 0]"] ;
865 -> 866 ;
867 [label="gini = 0.0\nsamples = 3\nvalue = [3, 0, 0, 0]"] ;
865 -> 867 ;
868 [label="X[0] <= 8831.894\ngini = 0.48\nsamples = 5\nvalue = [2, 0, 3, 0]"] ;
862 -> 868 ;
869 [label="gini = 0.0\nsamples = 1\nvalue = [0, 0, 1, 0]"] ;
868 -> 869 ;
870 [label="X[0] <= 8840.155\ngini = 0.5\nsamples = 4\nvalue = [2, 0, 2, 0]"] ;
868 -> 870 ;
871 [label="gini = 0.0\nsamples = 1\nvalue = [1, 0, 0, 0]"] ;
870 -> 871 ;
872 [label="X[0] <= 8849.452\ngini = 0.444\nsamples = 3\nvalue = [1, 0, 2, 0]"] ;
870 -> 872 ;
873 [label="gini = 0.0\nsamples = 1\nvalue = [0, 0, 1, 0]"] ;
872 -> 873 ;
874 [label="X[0] <= 8857.009\ngini = 0.5\nsamples = 2\nvalue = [1, 0, 1, 0]"] ;
872 -> 874 ;
875 [label="gini = 0.0\nsamples = 1\nvalue = [1, 0, 0, 0]"] ;
874 -> 875 ;
876 [label="gini = 0.0\nsamples = 1\nvalue = [0, 0, 1, 0]"] ;
874 -> 876 ;
877 [label="X[0] <= 8966.22\ngini = 0.198\nsamples = 9\nvalue = [8, 0, 1, 0]"] ;
861 -> 877 ;
878 [label="gini = 0.0\nsamples = 6\nvalue = [6, 0, 0, 0]"] ;
877 -> 878 ;
879 [label="X[0] <= 8975.021\ngini = 0.444\nsamples = 3\nvalue = [2, 0, 1, 0]"] ;
877 -> 879 ;
880 [label="gini = 0.0\nsamples = 1\nvalue = [0, 0, 1, 0]"] ;
879 -> 880 ;
881 [label="gini = 0.0\nsamples = 2\nvalue = [2, 0, 0, 0]"] ;
879 -> 881 ;
882 [label="gini = 0.0\nsamples = 3\nvalue = [0, 0, 3, 0]"] ;
848 -> 882 ;
883 [label="X[0] <= 9317.802\ngini = 0.298\nsamples = 44\nvalue = [36, 0, 8, 0]"] ;
847 -> 883 ;
884 [label="gini = 0.0\nsamples = 13\nvalue = [13, 0, 0, 0]"] ;
883 -> 884 ;
885 [label="X[0] <= 9367.921\ngini = 0.383\nsamples = 31\nvalue = [23, 0, 8, 0]"] ;
883 -> 885 ;
886 [label="gini = 0.0\nsamples = 2\nvalue = [0, 0, 2, 0]"] ;
885 -> 886 ;
887 [label="X[0] <= 9544.652\ngini = 0.328\nsamples = 29\nvalue = [23, 0, 6, 0]"] ;
885 -> 887 ;
888 [label="X[0] <= 9409.387\ngini = 0.142\nsamples = 13\nvalue = [12, 0, 1, 0]"] ;
887 -> 888 ;
889 [label="X[0] <= 9406.025\ngini = 0.32\nsamples = 5\nvalue = [4, 0, 1, 0]"] ;
888 -> 889 ;
890 [label="gini = 0.0\nsamples = 4\nvalue = [4, 0, 0, 0]"] ;
889 -> 890 ;
891 [label="gini = 0.0\nsamples = 1\nvalue = [0, 0, 1, 0]"] ;
889 -> 891 ;
892 [label="gini = 0.0\nsamples = 8\nvalue = [8, 0, 0, 0]"] ;
888 -> 892 ;
893 [label="X[0] <= 9552.425\ngini = 0.43\nsamples = 16\nvalue = [11, 0, 5, 0]"] ;
887 -> 893 ;
894 [label="gini = 0.0\nsamples = 1\nvalue = [0, 0, 1, 0]"] ;
893 -> 894 ;
895 [label="X[0] <= 9590.068\ngini = 0.391\nsamples = 15\nvalue = [11, 0, 4, 0]"] ;
893 -> 895 ;
896 [label="gini = 0.0\nsamples = 3\nvalue = [3, 0, 0, 0]"] ;
895 -> 896 ;
897 [label="X[0] <= 9616.836\ngini = 0.444\nsamples = 12\nvalue = [8, 0, 4, 0]"] ;
895 -> 897 ;
898 [label="gini = 0.0\nsamples = 1\nvalue = [0, 0, 1, 0]"] ;
897 -> 898 ;
899 [label="X[0] <= 9646.464\ngini = 0.397\nsamples = 11\nvalue = [8, 0, 3, 0]"] ;
897 -> 899 ;
900 [label="gini = 0.0\nsamples = 2\nvalue = [2, 0, 0, 0]"] ;
899 -> 900 ;
901 [label="X[0] <= 9659.832\ngini = 0.444\nsamples = 9\nvalue = [6, 0, 3, 0]"] ;
899 -> 901 ;
902 [label="gini = 0.0\nsamples = 1\nvalue = [0, 0, 1, 0]"] ;
901 -> 902 ;
903 [label="X[0] <= 9705.502\ngini = 0.375\nsamples = 8\nvalue = [6, 0, 2, 0]"] ;
901 -> 903 ;
904 [label="X[0] <= 9689.48\ngini = 0.444\nsamples = 6\nvalue = [4, 0, 2, 0]"] ;
903 -> 904 ;
905 [label="X[0] <= 9673.912\ngini = 0.32\nsamples = 5\nvalue = [4, 0, 1, 0]"] ;
904 -> 905 ;
906 [label="X[0] <= 9670.449\ngini = 0.5\nsamples = 2\nvalue = [1, 0, 1, 0]"] ;
905 -> 906 ;
907 [label="gini = 0.0\nsamples = 1\nvalue = [1, 0, 0, 0]"] ;
906 -> 907 ;
908 [label="gini = 0.0\nsamples = 1\nvalue = [0, 0, 1, 0]"] ;
906 -> 908 ;
909 [label="gini = 0.0\nsamples = 3\nvalue = [3, 0, 0, 0]"] ;
905 -> 909 ;
910 [label="gini = 0.0\nsamples = 1\nvalue = [0, 0, 1, 0]"] ;
904 -> 910 ;
911 [label="gini = 0.0\nsamples = 2\nvalue = [2, 0, 0, 0]"] ;
903 -> 911 ;
912 [label="X[0] <= 9723.209\ngini = 0.444\nsamples = 3\nvalue = [2, 1, 0, 0]"] ;
846 -> 912 ;
913 [label="gini = 0.0\nsamples = 1\nvalue = [0, 1, 0, 0]"] ;
912 -> 913 ;
914 [label="gini = 0.0\nsamples = 2\nvalue = [2, 0, 0, 0]"] ;
912 -> 914 ;
915 [label="X[0] <= 9916.353\ngini = 0.494\nsamples = 9\nvalue = [4, 0, 5, 0]"] ;
845 -> 915 ;
916 [label="gini = 0.0\nsamples = 4\nvalue = [0, 0, 4, 0]"] ;
915 -> 916 ;
917 [label="X[0] <= 9971.585\ngini = 0.32\nsamples = 5\nvalue = [4, 0, 1, 0]"] ;
915 -> 917 ;
918 [label="gini = 0.0\nsamples = 4\nvalue = [4, 0, 0, 0]"] ;
917 -> 918 ;
919 [label="gini = 0.0\nsamples = 1\nvalue = [0, 0, 1, 0]"] ;
917 -> 919 ;
920 [label="X[0] <= 11057.897\ngini = 0.332\nsamples = 36\nvalue = [29, 0, 3, 4]"] ;
844 -> 920 ;
921 [label="X[0] <= 11044.822\ngini = 0.384\nsamples = 30\nvalue = [23, 0, 3, 4]"] ;
920 -> 921 ;
922 [label="X[0] <= 10268.592\ngini = 0.309\nsamples = 28\nvalue = [23, 0, 2, 3]"] ;
921 -> 922 ;
923 [label="X[0] <= 10223.365\ngini = 0.494\nsamples = 9\nvalue = [6, 0, 1, 2]"] ;
922 -> 923 ;
924 [label="X[0] <= 10028.434\ngini = 0.375\nsamples = 8\nvalue = [6, 0, 0, 2]"] ;
923 -> 924 ;
925 [label="gini = 0.0\nsamples = 2\nvalue = [2, 0, 0, 0]"] ;
924 -> 925 ;
926 [label="X[0] <= 10058.054\ngini = 0.444\nsamples = 6\nvalue = [4, 0, 0, 2]"] ;
924 -> 926 ;
927 [label="gini = 0.0\nsamples = 1\nvalue = [0, 0, 0, 1]"] ;
926 -> 927 ;
928 [label="X[0] <= 10158.088\ngini = 0.32\nsamples = 5\nvalue = [4, 0, 0, 1]"] ;
926 -> 928 ;
929 [label="gini = 0.0\nsamples = 3\nvalue = [3, 0, 0, 0]"] ;
928 -> 929 ;
930 [label="X[0] <= 10184.278\ngini = 0.5\nsamples = 2\nvalue = [1, 0, 0, 1]"] ;
928 -> 930 ;
931 [label="gini = 0.0\nsamples = 1\nvalue = [0, 0, 0, 1]"] ;
930 -> 931 ;
932 [label="gini = 0.0\nsamples = 1\nvalue = [1, 0, 0, 0]"] ;
930 -> 932 ;
933 [label="gini = 0.0\nsamples = 1\nvalue = [0, 0, 1, 0]"] ;
923 -> 933 ;
934 [label="X[0] <= 10835.19\ngini = 0.194\nsamples = 19\nvalue = [17, 0, 1, 1]"] ;
922 -> 934 ;
935 [label="gini = 0.0\nsamples = 14\nvalue = [14, 0, 0, 0]"] ;
934 -> 935 ;
936 [label="X[0] <= 10914.677\ngini = 0.56\nsamples = 5\nvalue = [3, 0, 1, 1]"] ;
934 -> 936 ;
937 [label="gini = 0.0\nsamples = 1\nvalue = [0, 0, 0, 1]"] ;
936 -> 937 ;
938 [label="X[0] <= 10962.84\ngini = 0.375\nsamples = 4\nvalue = [3, 0, 1, 0]"] ;
936 -> 938 ;
939 [label="X[0] <= 10951.17\ngini = 0.5\nsamples = 2\nvalue = [1, 0, 1, 0]"] ;
938 -> 939 ;
940 [label="gini = 0.0\nsamples = 1\nvalue = [1, 0, 0, 0]"] ;
939 -> 940 ;
941 [label="gini = 0.0\nsamples = 1\nvalue = [0, 0, 1, 0]"] ;
939 -> 941 ;
942 [label="gini = 0.0\nsamples = 2\nvalue = [2, 0, 0, 0]"] ;
938 -> 942 ;
943 [label="X[0] <= 11050.782\ngini = 0.5\nsamples = 2\nvalue = [0, 0, 1, 1]"] ;
921 -> 943 ;
944 [label="gini = 0.0\nsamples = 1\nvalue = [0, 0, 0, 1]"] ;
943 -> 944 ;
945 [label="gini = 0.0\nsamples = 1\nvalue = [0, 0, 1, 0]"] ;
943 -> 945 ;
946 [label="gini = 0.0\nsamples = 6\nvalue = [6, 0, 0, 0]"] ;
920 -> 946 ;
947 [label="X[0] <= 11746.968\ngini = 0.469\nsamples = 35\nvalue = [23, 0, 11, 1]"] ;
843 -> 947 ;
948 [label="X[0] <= 11689.669\ngini = 0.518\nsamples = 26\nvalue = [15, 0, 10, 1]"] ;
947 -> 948 ;
949 [label="X[0] <= 11460.888\ngini = 0.497\nsamples = 24\nvalue = [15, 0, 8, 1]"] ;
948 -> 949 ;
950 [label="X[0] <= 11318.604\ngini = 0.579\nsamples = 11\nvalue = [5, 0, 5, 1]"] ;
949 -> 950 ;
951 [label="X[0] <= 11229.819\ngini = 0.571\nsamples = 7\nvalue = [4, 0, 2, 1]"] ;
950 -> 951 ;
952 [label="X[0] <= 11189.317\ngini = 0.444\nsamples = 3\nvalue = [1, 0, 2, 0]"] ;
951 -> 952 ;
953 [label="gini = 0.0\nsamples = 1\nvalue = [0, 0, 1, 0]"] ;
952 -> 953 ;
954 [label="X[0] <= 11213.0\ngini = 0.5\nsamples = 2\nvalue = [1, 0, 1, 0]"] ;
952 -> 954 ;
955 [label="gini = 0.0\nsamples = 1\nvalue = [1, 0, 0, 0]"] ;
954 -> 955 ;
956 [label="gini = 0.0\nsamples = 1\nvalue = [0, 0, 1, 0]"] ;
954 -> 956 ;
957 [label="X[0] <= 11280.679\ngini = 0.375\nsamples = 4\nvalue = [3, 0, 0, 1]"] ;
951 -> 957 ;
958 [label="X[0] <= 11255.446\ngini = 0.5\nsamples = 2\nvalue = [1, 0, 0, 1]"] ;
957 -> 958 ;
959 [label="gini = 0.0\nsamples = 1\nvalue = [1, 0, 0, 0]"] ;
958 -> 959 ;
960 [label="gini = 0.0\nsamples = 1\nvalue = [0, 0, 0, 1]"] ;
958 -> 960 ;
961 [label="gini = 0.0\nsamples = 2\nvalue = [2, 0, 0, 0]"] ;
957 -> 961 ;
962 [label="X[0] <= 11342.338\ngini = 0.375\nsamples = 4\nvalue = [1, 0, 3, 0]"] ;
950 -> 962 ;
963 [label="gini = 0.0\nsamples = 2\nvalue = [0, 0, 2, 0]"] ;
962 -> 963 ;
964 [label="X[0] <= 11405.709\ngini = 0.5\nsamples = 2\nvalue = [1, 0, 1, 0]"] ;
962 -> 964 ;
965 [label="gini = 0.0\nsamples = 1\nvalue = [1, 0, 0, 0]"] ;
964 -> 965 ;
966 [label="gini = 0.0\nsamples = 1\nvalue = [0, 0, 1, 0]"] ;
964 -> 966 ;
967 [label="X[0] <= 11617.586\ngini = 0.355\nsamples = 13\nvalue = [10, 0, 3, 0]"] ;
949 -> 967 ;
968 [label="X[0] <= 11601.393\ngini = 0.42\nsamples = 10\nvalue = [7, 0, 3, 0]"] ;
967 -> 968 ;
969 [label="X[0] <= 11520.741\ngini = 0.346\nsamples = 9\nvalue = [7, 0, 2, 0]"] ;
968 -> 969 ;
970 [label="X[0] <= 11504.485\ngini = 0.444\nsamples = 6\nvalue = [4, 0, 2, 0]"] ;
969 -> 970 ;
971 [label="X[0] <= 11486.54\ngini = 0.32\nsamples = 5\nvalue = [4, 0, 1, 0]"] ;
970 -> 971 ;
972 [label="gini = 0.0\nsamples = 2\nvalue = [2, 0, 0, 0]"] ;
971 -> 972 ;
973 [label="X[0] <= 11491.095\ngini = 0.444\nsamples = 3\nvalue = [2, 0, 1, 0]"] ;
971 -> 973 ;
974 [label="gini = 0.0\nsamples = 1\nvalue = [0, 0, 1, 0]"] ;
973 -> 974 ;
975 [label="gini = 0.0\nsamples = 2\nvalue = [2, 0, 0, 0]"] ;
973 -> 975 ;
976 [label="gini = 0.0\nsamples = 1\nvalue = [0, 0, 1, 0]"] ;
970 -> 976 ;
977 [label="gini = 0.0\nsamples = 3\nvalue = [3, 0, 0, 0]"] ;
969 -> 977 ;
978 [label="gini = 0.0\nsamples = 1\nvalue = [0, 0, 1, 0]"] ;
968 -> 978 ;
979 [label="gini = 0.0\nsamples = 3\nvalue = [3, 0, 0, 0]"] ;
967 -> 979 ;
980 [label="gini = 0.0\nsamples = 2\nvalue = [0, 0, 2, 0]"] ;
948 -> 980 ;
981 [label="X[0] <= 11816.655\ngini = 0.198\nsamples = 9\nvalue = [8, 0, 1, 0]"] ;
947 -> 981 ;
982 [label="gini = 0.0\nsamples = 4\nvalue = [4, 0, 0, 0]"] ;
981 -> 982 ;
983 [label="X[0] <= 11828.041\ngini = 0.32\nsamples = 5\nvalue = [4, 0, 1, 0]"] ;
981 -> 983 ;
984 [label="gini = 0.0\nsamples = 1\nvalue = [0, 0, 1, 0]"] ;
983 -> 984 ;
985 [label="gini = 0.0\nsamples = 4\nvalue = [4, 0, 0, 0]"] ;
983 -> 985 ;
986 [label="gini = 0.0\nsamples = 1\nvalue = [0, 0, 1, 0]"] ;
670 -> 986 ;
987 [label="gini = 0.0\nsamples = 8\nvalue = [8, 0, 0, 0]"] ;
669 -> 987 ;
988 [label="X[0] <= 13088.174\ngini = 0.483\nsamples = 368\nvalue = [240, 2, 110, 16]"] ;
616 -> 988 ;
989 [label="X[0] <= 12892.144\ngini = 0.531\nsamples = 59\nvalue = [30, 1, 27, 1]"] ;
988 -> 989 ;
990 [label="X[0] <= 12115.557\ngini = 0.499\nsamples = 49\nvalue = [29, 1, 19, 0]"] ;
989 -> 990 ;
991 [label="gini = 0.0\nsamples = 3\nvalue = [0, 0, 3, 0]"] ;
990 -> 991 ;
992 [label="X[0] <= 12835.138\ngini = 0.481\nsamples = 46\nvalue = [29, 1, 16, 0]"] ;
990 -> 992 ;
993 [label="X[0] <= 12142.676\ngini = 0.509\nsamples = 40\nvalue = [23, 1, 16, 0]"] ;
992 -> 993 ;
994 [label="gini = 0.0\nsamples = 3\nvalue = [3, 0, 0, 0]"] ;
993 -> 994 ;
995 [label="X[0] <= 12173.865\ngini = 0.52\nsamples = 37\nvalue = [20, 1, 16, 0]"] ;
993 -> 995 ;
996 [label="gini = 0.0\nsamples = 2\nvalue = [0, 0, 2, 0]"] ;
995 -> 996 ;
997 [label="X[0] <= 12461.72\ngini = 0.513\nsamples = 35\nvalue = [20, 1, 14, 0]"] ;
995 -> 997 ;
998 [label="X[0] <= 12299.304\ngini = 0.32\nsamples = 10\nvalue = [8, 0, 2, 0]"] ;
997 -> 998 ;
999 [label="X[0] <= 12232.689\ngini = 0.5\nsamples = 4\nvalue = [2, 0, 2, 0]"] ;
998 -> 999 ;
1000 [label="gini = 0.0\nsamples = 2\nvalue = [2, 0, 0, 0]"] ;
999 -> 1000 ;
1001 [label="gini = 0.0\nsamples = 2\nvalue = [0, 0, 2, 0]"] ;
999 -> 1001 ;
1002 [label="gini = 0.0\nsamples = 6\nvalue = [6, 0, 0, 0]"] ;
998 -> 1002 ;
1003 [label="X[0] <= 12580.718\ngini = 0.538\nsamples = 25\nvalue = [12, 1, 12, 0]"] ;
997 -> 1003 ;
1004 [label="X[0] <= 12510.09\ngini = 0.278\nsamples = 6\nvalue = [1, 0, 5, 0]"] ;
1003 -> 1004 ;
1005 [label="X[0] <= 12480.572\ngini = 0.5\nsamples = 2\nvalue = [1, 0, 1, 0]"] ;
1004 -> 1005 ;
1006 [label="gini = 0.0\nsamples = 1\nvalue = [0, 0, 1, 0]"] ;
1005 -> 1006 ;
1007 [label="gini = 0.0\nsamples = 1\nvalue = [1, 0, 0, 0]"] ;
1005 -> 1007 ;
1008 [label="gini = 0.0\nsamples = 4\nvalue = [0, 0, 4, 0]"] ;
1004 -> 1008 ;
1009 [label="X[0] <= 12675.975\ngini = 0.526\nsamples = 19\nvalue = [11, 1, 7, 0]"] ;
1003 -> 1009 ;
1010 [label="X[0] <= 12613.04\ngini = 0.449\nsamples = 7\nvalue = [5, 1, 1, 0]"] ;
1009 -> 1010 ;
1011 [label="gini = 0.0\nsamples = 2\nvalue = [2, 0, 0, 0]"] ;
1010 -> 1011 ;
1012 [label="X[0] <= 12626.125\ngini = 0.56\nsamples = 5\nvalue = [3, 1, 1, 0]"] ;
1010 -> 1012 ;
1013 [label="gini = 0.0\nsamples = 1\nvalue = [0, 0, 1, 0]"] ;
1012 -> 1013 ;
1014 [label="X[0] <= 12655.286\ngini = 0.375\nsamples = 4\nvalue = [3, 1, 0, 0]"] ;
1012 -> 1014 ;
1015 [label="X[0] <= 12640.266\ngini = 0.5\nsamples = 2\nvalue = [1, 1, 0, 0]"] ;
1014 -> 1015 ;
1016 [label="gini = 0.0\nsamples = 1\nvalue = [1, 0, 0, 0]"] ;
1015 -> 1016 ;
1017 [label="gini = 0.0\nsamples = 1\nvalue = [0, 1, 0, 0]"] ;
1015 -> 1017 ;
1018 [label="gini = 0.0\nsamples = 2\nvalue = [2, 0, 0, 0]"] ;
1014 -> 1018 ;
1019 [label="X[0] <= 12701.874\ngini = 0.5\nsamples = 12\nvalue = [6, 0, 6, 0]"] ;
1009 -> 1019 ;
1020 [label="gini = 0.0\nsamples = 2\nvalue = [0, 0, 2, 0]"] ;
1019 -> 1020 ;
1021 [label="X[0] <= 12727.794\ngini = 0.48\nsamples = 10\nvalue = [6, 0, 4, 0]"] ;
1019 -> 1021 ;
1022 [label="gini = 0.0\nsamples = 2\nvalue = [2, 0, 0, 0]"] ;
1021 -> 1022 ;
1023 [label="X[0] <= 12746.306\ngini = 0.5\nsamples = 8\nvalue = [4, 0, 4, 0]"] ;
1021 -> 1023 ;
1024 [label="gini = 0.0\nsamples = 1\nvalue = [0, 0, 1, 0]"] ;
1023 -> 1024 ;
1025 [label="X[0] <= 12812.116\ngini = 0.49\nsamples = 7\nvalue = [4, 0, 3, 0]"] ;
1023 -> 1025 ;
1026 [label="X[0] <= 12760.841\ngini = 0.444\nsamples = 6\nvalue = [4, 0, 2, 0]"] ;
1025 -> 1026 ;
1027 [label="gini = 0.0\nsamples = 1\nvalue = [1, 0, 0, 0]"] ;
1026 -> 1027 ;
1028 [label="X[0] <= 12768.979\ngini = 0.48\nsamples = 5\nvalue = [3, 0, 2, 0]"] ;
1026 -> 1028 ;
1029 [label="gini = 0.0\nsamples = 1\nvalue = [0, 0, 1, 0]"] ;
1028 -> 1029 ;
1030 [label="X[0] <= 12782.621\ngini = 0.375\nsamples = 4\nvalue = [3, 0, 1, 0]"] ;
1028 -> 1030 ;
1031 [label="gini = 0.0\nsamples = 2\nvalue = [2, 0, 0, 0]"] ;
1030 -> 1031 ;
1032 [label="X[0] <= 12787.771\ngini = 0.5\nsamples = 2\nvalue = [1, 0, 1, 0]"] ;
1030 -> 1032 ;
1033 [label="gini = 0.0\nsamples = 1\nvalue = [0, 0, 1, 0]"] ;
1032 -> 1033 ;
1034 [label="gini = 0.0\nsamples = 1\nvalue = [1, 0, 0, 0]"] ;
1032 -> 1034 ;
1035 [label="gini = 0.0\nsamples = 1\nvalue = [0, 0, 1, 0]"] ;
1025 -> 1035 ;
1036 [label="gini = 0.0\nsamples = 6\nvalue = [6, 0, 0, 0]"] ;
992 -> 1036 ;
1037 [label="X[0] <= 12969.484\ngini = 0.34\nsamples = 10\nvalue = [1, 0, 8, 1]"] ;
989 -> 1037 ;
1038 [label="gini = 0.0\nsamples = 4\nvalue = [0, 0, 4, 0]"] ;
1037 -> 1038 ;
1039 [label="X[0] <= 13008.463\ngini = 0.5\nsamples = 6\nvalue = [1, 0, 4, 1]"] ;
1037 -> 1039 ;
1040 [label="X[0] <= 12995.94\ngini = 0.5\nsamples = 2\nvalue = [1, 0, 0, 1]"] ;
1039 -> 1040 ;
1041 [label="gini = 0.0\nsamples = 1\nvalue = [0, 0, 0, 1]"] ;
1040 -> 1041 ;
1042 [label="gini = 0.0\nsamples = 1\nvalue = [1, 0, 0, 0]"] ;
1040 -> 1042 ;
1043 [label="gini = 0.0\nsamples = 4\nvalue = [0, 0, 4, 0]"] ;
1039 -> 1043 ;
1044 [label="X[0] <= 15236.678\ngini = 0.464\nsamples = 309\nvalue = [210, 1, 83, 15]"] ;
988 -> 1044 ;
1045 [label="X[0] <= 14815.703\ngini = 0.349\nsamples = 83\nvalue = [65, 0, 16, 2]"] ;
1044 -> 1045 ;
1046 [label="X[0] <= 14753.465\ngini = 0.396\nsamples = 66\nvalue = [49, 0, 15, 2]"] ;
1045 -> 1046 ;
1047 [label="X[0] <= 13280.471\ngini = 0.362\nsamples = 62\nvalue = [48, 0, 12, 2]"] ;
1046 -> 1047 ;
1048 [label="gini = 0.0\nsamples = 7\nvalue = [7, 0, 0, 0]"] ;
1047 -> 1048 ;
1049 [label="X[0] <= 13406.098\ngini = 0.395\nsamples = 55\nvalue = [41, 0, 12, 2]"] ;
1047 -> 1049 ;
1050 [label="gini = 0.0\nsamples = 2\nvalue = [0, 0, 2, 0]"] ;
1049 -> 1050 ;
1051 [label="X[0] <= 14122.233\ngini = 0.365\nsamples = 53\nvalue = [41, 0, 10, 2]"] ;
1049 -> 1051 ;
1052 [label="X[0] <= 13846.079\ngini = 0.461\nsamples = 29\nvalue = [20, 0, 7, 2]"] ;
1051 -> 1052 ;
1053 [label="X[0] <= 13660.685\ngini = 0.219\nsamples = 16\nvalue = [14, 0, 2, 0]"] ;
1052 -> 1053 ;
1054 [label="X[0] <= 13617.834\ngini = 0.408\nsamples = 7\nvalue = [5, 0, 2, 0]"] ;
1053 -> 1054 ;
1055 [label="X[0] <= 13489.201\ngini = 0.278\nsamples = 6\nvalue = [5, 0, 1, 0]"] ;
1054 -> 1055 ;
1056 [label="gini = 0.0\nsamples = 3\nvalue = [3, 0, 0, 0]"] ;
1055 -> 1056 ;
1057 [label="X[0] <= 13523.346\ngini = 0.444\nsamples = 3\nvalue = [2, 0, 1, 0]"] ;
1055 -> 1057 ;
1058 [label="gini = 0.0\nsamples = 1\nvalue = [0, 0, 1, 0]"] ;
1057 -> 1058 ;
1059 [label="gini = 0.0\nsamples = 2\nvalue = [2, 0, 0, 0]"] ;
1057 -> 1059 ;
1060 [label="gini = 0.0\nsamples = 1\nvalue = [0, 0, 1, 0]"] ;
1054 -> 1060 ;
1061 [label="gini = 0.0\nsamples = 9\nvalue = [9, 0, 0, 0]"] ;
1053 -> 1061 ;
1062 [label="X[0] <= 13856.441\ngini = 0.615\nsamples = 13\nvalue = [6, 0, 5, 2]"] ;
1052 -> 1062 ;
1063 [label="gini = 0.0\nsamples = 1\nvalue = [0, 0, 0, 1]"] ;
1062 -> 1063 ;
1064 [label="X[0] <= 14091.879\ngini = 0.569\nsamples = 12\nvalue = [6, 0, 5, 1]"] ;
1062 -> 1064 ;
1065 [label="X[0] <= 14052.021\ngini = 0.562\nsamples = 11\nvalue = [6, 0, 4, 1]"] ;
1064 -> 1065 ;
1066 [label="X[0] <= 13995.386\ngini = 0.593\nsamples = 9\nvalue = [4, 0, 4, 1]"] ;
1065 -> 1066 ;
1067 [label="X[0] <= 13986.798\ngini = 0.444\nsamples = 6\nvalue = [4, 0, 2, 0]"] ;
1066 -> 1067 ;
1068 [label="X[0] <= 13890.188\ngini = 0.5\nsamples = 4\nvalue = [2, 0, 2, 0]"] ;
1067 -> 1068 ;
1069 [label="gini = 0.0\nsamples = 1\nvalue = [1, 0, 0, 0]"] ;
1068 -> 1069 ;
1070 [label="X[0] <= 13945.347\ngini = 0.444\nsamples = 3\nvalue = [1, 0, 2, 0]"] ;
1068 -> 1070 ;
1071 [label="gini = 0.0\nsamples = 1\nvalue = [0, 0, 1, 0]"] ;
1070 -> 1071 ;
1072 [label="X[0] <= 13978.892\ngini = 0.5\nsamples = 2\nvalue = [1, 0, 1, 0]"] ;
1070 -> 1072 ;
1073 [label="gini = 0.0\nsamples = 1\nvalue = [1, 0, 0, 0]"] ;
1072 -> 1073 ;
1074 [label="gini = 0.0\nsamples = 1\nvalue = [0, 0, 1, 0]"] ;
1072 -> 1074 ;
1075 [label="gini = 0.0\nsamples = 2\nvalue = [2, 0, 0, 0]"] ;
1067 -> 1075 ;
1076 [label="X[0] <= 14001.285\ngini = 0.444\nsamples = 3\nvalue = [0, 0, 2, 1]"] ;
1066 -> 1076 ;
1077 [label="gini = 0.0\nsamples = 1\nvalue = [0, 0, 0, 1]"] ;
1076 -> 1077 ;
1078 [label="gini = 0.0\nsamples = 2\nvalue = [0, 0, 2, 0]"] ;
1076 -> 1078 ;
1079 [label="gini = 0.0\nsamples = 2\nvalue = [2, 0, 0, 0]"] ;
1065 -> 1079 ;
1080 [label="gini = 0.0\nsamples = 1\nvalue = [0, 0, 1, 0]"] ;
1064 -> 1080 ;
1081 [label="X[0] <= 14529.98\ngini = 0.219\nsamples = 24\nvalue = [21, 0, 3, 0]"] ;
1051 -> 1081 ;
1082 [label="X[0] <= 14278.761\ngini = 0.111\nsamples = 17\nvalue = [16, 0, 1, 0]"] ;
1081 -> 1082 ;
1083 [label="X[0] <= 14250.305\ngini = 0.32\nsamples = 5\nvalue = [4, 0, 1, 0]"] ;
1082 -> 1083 ;
1084 [label="gini = 0.0\nsamples = 4\nvalue = [4, 0, 0, 0]"] ;
1083 -> 1084 ;
1085 [label="gini = 0.0\nsamples = 1\nvalue = [0, 0, 1, 0]"] ;
1083 -> 1085 ;
1086 [label="gini = 0.0\nsamples = 12\nvalue = [12, 0, 0, 0]"] ;
1082 -> 1086 ;
1087 [label="X[0] <= 14655.054\ngini = 0.408\nsamples = 7\nvalue = [5, 0, 2, 0]"] ;
1081 -> 1087 ;
1088 [label="X[0] <= 14561.63\ngini = 0.444\nsamples = 3\nvalue = [1, 0, 2, 0]"] ;
1087 -> 1088 ;
1089 [label="gini = 0.0\nsamples = 1\nvalue = [0, 0, 1, 0]"] ;
1088 -> 1089 ;
1090 [label="X[0] <= 14614.575\ngini = 0.5\nsamples = 2\nvalue = [1, 0, 1, 0]"] ;
1088 -> 1090 ;
1091 [label="gini = 0.0\nsamples = 1\nvalue = [1, 0, 0, 0]"] ;
1090 -> 1091 ;
1092 [label="gini = 0.0\nsamples = 1\nvalue = [0, 0, 1, 0]"] ;
1090 -> 1092 ;
1093 [label="gini = 0.0\nsamples = 4\nvalue = [4, 0, 0, 0]"] ;
1087 -> 1093 ;
1094 [label="X[0] <= 14796.349\ngini = 0.375\nsamples = 4\nvalue = [1, 0, 3, 0]"] ;
1046 -> 1094 ;
1095 [label="gini = 0.0\nsamples = 2\nvalue = [0, 0, 2, 0]"] ;
1094 -> 1095 ;
1096 [label="X[0] <= 14800.046\ngini = 0.5\nsamples = 2\nvalue = [1, 0, 1, 0]"] ;
1094 -> 1096 ;
1097 [label="gini = 0.0\nsamples = 1\nvalue = [1, 0, 0, 0]"] ;
1096 -> 1097 ;
1098 [label="gini = 0.0\nsamples = 1\nvalue = [0, 0, 1, 0]"] ;
1096 -> 1098 ;
1099 [label="X[0] <= 15108.438\ngini = 0.111\nsamples = 17\nvalue = [16, 0, 1, 0]"] ;
1045 -> 1099 ;
1100 [label="gini = 0.0\nsamples = 13\nvalue = [13, 0, 0, 0]"] ;
1099 -> 1100 ;
1101 [label="X[0] <= 15149.635\ngini = 0.375\nsamples = 4\nvalue = [3, 0, 1, 0]"] ;
1099 -> 1101 ;
1102 [label="gini = 0.0\nsamples = 1\nvalue = [0, 0, 1, 0]"] ;
1101 -> 1102 ;
1103 [label="gini = 0.0\nsamples = 3\nvalue = [3, 0, 0, 0]"] ;
1101 -> 1103 ;
1104 [label="X[0] <= 15316.527\ngini = 0.497\nsamples = 226\nvalue = [145, 1, 67, 13]"] ;
1044 -> 1104 ;
1105 [label="gini = 0.0\nsamples = 3\nvalue = [0, 0, 3, 0]"] ;
1104 -> 1105 ;
1106 [label="X[0] <= 17100.04\ngini = 0.491\nsamples = 223\nvalue = [145, 1, 64, 13]"] ;
1104 -> 1106 ;
1107 [label="X[0] <= 16136.182\ngini = 0.562\nsamples = 55\nvalue = [30, 0, 20, 5]"] ;
1106 -> 1107 ;
1108 [label="X[0] <= 16101.947\ngini = 0.483\nsamples = 22\nvalue = [15, 0, 3, 4]"] ;
1107 -> 1108 ;
1109 [label="X[0] <= 15560.998\ngini = 0.449\nsamples = 21\nvalue = [15, 0, 3, 3]"] ;
1108 -> 1109 ;
1110 [label="X[0] <= 15435.556\ngini = 0.5\nsamples = 4\nvalue = [2, 0, 0, 2]"] ;
1109 -> 1110 ;
1111 [label="gini = 0.0\nsamples = 2\nvalue = [2, 0, 0, 0]"] ;
1110 -> 1111 ;
1112 [label="gini = 0.0\nsamples = 2\nvalue = [0, 0, 0, 2]"] ;
1110 -> 1112 ;
1113 [label="X[0] <= 16041.567\ngini = 0.381\nsamples = 17\nvalue = [13, 0, 3, 1]"] ;
1109 -> 1113 ;
1114 [label="X[0] <= 16024.773\ngini = 0.486\nsamples = 12\nvalue = [8, 0, 3, 1]"] ;
1113 -> 1114 ;
1115 [label="X[0] <= 15820.876\ngini = 0.43\nsamples = 11\nvalue = [8, 0, 2, 1]"] ;
1114 -> 1115 ;
1116 [label="X[0] <= 15638.434\ngini = 0.375\nsamples = 8\nvalue = [6, 0, 2, 0]"] ;
1115 -> 1116 ;
1117 [label="gini = 0.0\nsamples = 2\nvalue = [2, 0, 0, 0]"] ;
1116 -> 1117 ;
1118 [label="X[0] <= 15672.606\ngini = 0.444\nsamples = 6\nvalue = [4, 0, 2, 0]"] ;
1116 -> 1118 ;
1119 [label="gini = 0.0\nsamples = 1\nvalue = [0, 0, 1, 0]"] ;
1118 -> 1119 ;
1120 [label="X[0] <= 15760.394\ngini = 0.32\nsamples = 5\nvalue = [4, 0, 1, 0]"] ;
1118 -> 1120 ;
1121 [label="gini = 0.0\nsamples = 3\nvalue = [3, 0, 0, 0]"] ;
1120 -> 1121 ;
1122 [label="X[0] <= 15805.306\ngini = 0.5\nsamples = 2\nvalue = [1, 0, 1, 0]"] ;
1120 -> 1122 ;
1123 [label="gini = 0.0\nsamples = 1\nvalue = [0, 0, 1, 0]"] ;
1122 -> 1123 ;
1124 [label="gini = 0.0\nsamples = 1\nvalue = [1, 0, 0, 0]"] ;
1122 -> 1124 ;
1125 [label="X[0] <= 15902.909\ngini = 0.444\nsamples = 3\nvalue = [2, 0, 0, 1]"] ;
1115 -> 1125 ;
1126 [label="gini = 0.0\nsamples = 1\nvalue = [0, 0, 0, 1]"] ;
1125 -> 1126 ;
1127 [label="gini = 0.0\nsamples = 2\nvalue = [2, 0, 0, 0]"] ;
1125 -> 1127 ;
1128 [label="gini = 0.0\nsamples = 1\nvalue = [0, 0, 1, 0]"] ;
1114 -> 1128 ;
1129 [label="gini = 0.0\nsamples = 5\nvalue = [5, 0, 0, 0]"] ;
1113 -> 1129 ;
1130 [label="gini = 0.0\nsamples = 1\nvalue = [0, 0, 0, 1]"] ;
1108 -> 1130 ;
1131 [label="X[0] <= 16215.848\ngini = 0.527\nsamples = 33\nvalue = [15, 0, 17, 1]"] ;
1107 -> 1131 ;
1132 [label="gini = 0.0\nsamples = 2\nvalue = [0, 0, 2, 0]"] ;
1131 -> 1132 ;
1133 [label="X[0] <= 16577.77\ngini = 0.531\nsamples = 31\nvalue = [15, 0, 15, 1]"] ;
1131 -> 1133 ;
1134 [label="X[0] <= 16240.113\ngini = 0.459\nsamples = 14\nvalue = [9, 0, 5, 0]"] ;
1133 -> 1134 ;
1135 [label="gini = 0.0\nsamples = 2\nvalue = [2, 0, 0, 0]"] ;
1134 -> 1135 ;
1136 [label="X[0] <= 16559.611\ngini = 0.486\nsamples = 12\nvalue = [7, 0, 5, 0]"] ;
1134 -> 1136 ;
1137 [label="X[0] <= 16270.651\ngini = 0.5\nsamples = 10\nvalue = [5, 0, 5, 0]"] ;
1136 -> 1137 ;
